tree
version=v2
num_class=1
num_tree_per_iteration=1
label_index=0
max_feature_idx=219
objective=binary sigmoid:1
feature_names=Column_0 Column_1 Column_2 Column_3 Column_4 Column_5 Column_6 Column_7 Column_8 Column_9 Column_10 Column_11 Column_12 Column_13 Column_14 Column_15 Column_16 Column_17 Column_18 Column_19 Column_20 Column_21 Column_22 Column_23 Column_24 Column_25 Column_26 Column_27 Column_28 Column_29 Column_30 Column_31 Column_32 Column_33 Column_34 Column_35 Column_36 Column_37 Column_38 Column_39 Column_40 Column_41 Column_42 Column_43 Column_44 Column_45 Column_46 Column_47 Column_48 Column_49 Column_50 Column_51 Column_52 Column_53 Column_54 Column_55 Column_56 Column_57 Column_58 Column_59 Column_60 Column_61 Column_62 Column_63 Column_64 Column_65 Column_66 Column_67 Column_68 Column_69 Column_70 Column_71 Column_72 Column_73 Column_74 Column_75 Column_76 Column_77 Column_78 Column_79 Column_80 Column_81 Column_82 Column_83 Column_84 Column_85 Column_86 Column_87 Column_88 Column_89 Column_90 Column_91 Column_92 Column_93 Column_94 Column_95 Column_96 Column_97 Column_98 Column_99 Column_100 Column_101 Column_102 Column_103 Column_104 Column_105 Column_106 Column_107 Column_108 Column_109 Column_110 Column_111 Column_112 Column_113 Column_114 Column_115 Column_116 Column_117 Column_118 Column_119 Column_120 Column_121 Column_122 Column_123 Column_124 Column_125 Column_126 Column_127 Column_128 Column_129 Column_130 Column_131 Column_132 Column_133 Column_134 Column_135 Column_136 Column_137 Column_138 Column_139 Column_140 Column_141 Column_142 Column_143 Column_144 Column_145 Column_146 Column_147 Column_148 Column_149 Column_150 Column_151 Column_152 Column_153 Column_154 Column_155 Column_156 Column_157 Column_158 Column_159 Column_160 Column_161 Column_162 Column_163 Column_164 Column_165 Column_166 Column_167 Column_168 Column_169 Column_170 Column_171 Column_172 Column_173 Column_174 Column_175 Column_176 Column_177 Column_178 Column_179 Column_180 Column_181 Column_182 Column_183 Column_184 Column_185 Column_186 Column_187 Column_188 Column_189 Column_190 Column_191 Column_192 Column_193 Column_194 Column_195 Column_196 Column_197 Column_198 Column_199 Column_200 Column_201 Column_202 Column_203 Column_204 Column_205 Column_206 Column_207 Column_208 Column_209 Column_210 Column_211 Column_212 Column_213 Column_214 Column_215 Column_216 Column_217 Column_218 Column_219
feature_infos=[1:22] none none none none none none none none none [0:1] none none [0:1] none none none none none none [0:1] none none none [0:1] none none none [0:1] [0:1] none [0:1] [0:1] [0:1] none none none none none [0:1] [0:1] [0:1] [0:1] none [0:1] [0:1] [0:1] [0:1] [0:1] none none none [0:1] [0:1] [0:1] [0:1] [0:1] [0:1] [0:1] none [0:1] none [0:1] none [0:1] none none [0:1] [0:1] none none [0:1] none [0:1] [0:1] none none none [0:1] none [0:1] none none none none none none [0:1] none none [0:1] none none none none none none [0:1] [0:1] [0:1] [0:1] none [0:1] none none none none none none none none none [0:1] [0:1] [0:1] [0:1] [0:1] [0:1] [0:1] none [0:1] none [0:1] [0:1] none none [0:1] [0:1] [0:1] [0:1] [0:1] none none none none [0:1] none none none [0:1] [0:1] [0:1] none [0:1] none [0:1] [0:1] none none none [0:1] none none [0:1] [0:1] [0:1] [0:1] [0:1] [0:1] none none none none none none [0:1] [0:1] [0:1] [0:1] [0:1] [0:1] [0:1] [0:1] none [0:1] [0:1] [0:1] [0:1] [0:1] none none [1:1852] [0:265] [0.31168831168831168:0.44444444444444442] [0:1] [0:0.72222222222222221] [0:0.57692307692307687] [0:1] [0:1] none [0:1] none [0:1] none [0:1] none none none none none [0:1] none none [0:1] none none none none none none none none none [0:1] [0:1] [0:1] [0:1] [0:1] none [0:14194.91906662459]
tree_sizes=266 270 270 271 274 271 270 270 271 274 273 276 272 273 272 274 273 274 272 274 274 276 274 273 272 269 270 269 275 275 275 272 274 275 275 276 276 275 273 270 272 272 273 272 272 272 272 276 273 272 272 273 275 274 275 276 276 276 276 271 270 276 273 276 276 271 272 274 276 272 272 276 276 272 272 272 269 276 270 272 276 272 272 276 272 276 272 275 272 273 272 276 274 272 273 271 272 272 276 271 273 272 272 274 271 270 272 269 276 275 277 271 276 272 275 277 271 271 276 272 277 276 273 276 276 271 273 274 274 273 277 277 273 273 276 273 273 273 273 273 271 277 274 273 275 273 273 271 273 276 273 277 273 275 276 273 273 277 274 273 273 271 276 273 276 276 273 273 274 269 273 274 276 271 272 276 277 277 277 276 273 277 273 273 274 270 274 273 273 272 273 276 275 277 273 275 273 271 277 277 274 276 277 271 277 271 271 273 275 277 272 276 272 274 271 276 276 271 274 276 273 273 274 274 275 274 273 270 277 273 273 274 277 272 274 274 273 276 271 277 273 277 274 274 271 274 277 276 271 271 273 275 276 274 273 272 275 273 270 274 273 276 276 274 277 277 274 271 270 274 271 272 276 273 273 277 273 273 271 277 273 276 272 273 274 277 276 272 274 273 272 270 273 276 276 273 277 274 276 275 273 273 275 274 272 276 276 272 273 271 275 275 277 277 273 277 272 275 273 276 273 276 276 271 273 274 277 273 275 273 272 275 277 272 276 269 274 273 274 277 276 276 278 274 276 276 274 275 276 275 273 276 276 274 273 271 272 273 277 273 275 275 271 272 274 271 275 273 274 276 276 274 273 274 273 271 273 271 275 277 278 272 276 277 273 272 275 274 272 272 275 275 273 274 277 271 271 275 272 277 277 275 273 274 278 273 276 271 276 272 277 277 275 271 275 278 274 273 274 276 276 273 276 276 271 274 274 272 273 275 271 278 275 274 273 275 277 274 276 273 273 274 278 276 275 273 275 277 273 274 276 274 276 274 273 274 276 277 269 278 276 276 277 273 276 277 269 273 277 275 276 277 277 278 273 274 274 276 273 274 276 275 276 275 276 273 276 272 273 271 277 273 273 271 277 275 277 276 278 276 271 275 271 272 273 275 273 271 272 270 274 275 272 276 275 269 273 270 273 273 276 276 270 274 273 274 276 276 273 277 277 275 278 272 275 273 275 273 275 276 276 276 276 276 277 274 275 272 278 277 272 271 273 275 271 276 275 272 270 276 275 271 278 277 277 274 276 273 276 276 273 275 278 276 275 271 276 274 276 275 271 273 277 273 278 272 276 270 277 276 277 278 273 276 278 273 277 271 276 277 272 277 277 272 271 276 271 271 274 277 275 276 277 278 276 273 276 275 273 274 277 275 276 275 275 270 272 276 270 273 277 275 277 276 275 277 276 276 273 277 276 276 272 276 272 273 273 273 277 276 275 276 276 277 274 276 273 272 271 273 278 273 278 272 275 277 272 276 273 277 270 277 273 272 276 276 274 278 275 276 272 276 276 277 271 278 277 273 276 275 276 275 276 274 273 274 276 274 276 274 276 273 276 278 273 275 278 273 272 277 276 278 272 276 275 275 276 271 276 278 275 276 277 273 278 275 271 276 276 273 276 277 276 273 272 274 275 276 275 275 270 277 278 273 271 276 275 273 274 275 277 272 277 276 276 276 272 274 274 276 278 275 278 278 277 278 273 276 275 276 271 274 272 276 276 275 277 272 271 276 278 275 273 277 273 274 277 276 278 278 275 276 276 278 272 275 276 273 276 277 276 272 276 278 276 278 273 275 273 269 277 278 272 275 273 273 278 278 273 275 275 274 274 278 275 278 276 275 276 276 278 276 272 276 277 271 277 277 271 277 272 278 274 271 275 275 276 276 278 276 273 275 278 273 271 273 278 273 276 276 272 276 276 277 276 275 277 278 273 277 276 271 277 278 271 273 275 275 276 276 278 276 274 275 274 273 273 274 275 275 278 274 274 277 277 275 278 277 273 276 276 272 270 272 277 276 277 274 278 276 276 278 274 277 275 276 275 278 276 275 275 276 278 275 273 275 275 276 275 273 277 271 278 271 275 275 276 275 272 275 273 273 277 275 276 277 274 274 278 272 277 277 274 276 275 272 276 275 276 271 273 277 272 275 277 275 278 277 276 278 278 276 278 276 276 275 272 270 276 278 276 275 272 275 278 276 278 278 277 277 276 276 276 276 278 275 276 272 276 273 276 275 278 279 277 277 279 277 275 277 277 273 272 273 278 278 274 275 276 278 278 277 276 276 279 278 278 277 277 278 279 273 277 277 274 276 271 275 277 276 279 276 277 277 277 278 274 278 276 273 278 279 279 274 278 277 277 279 278 276 278 279 276 278 270 278 277 278 272 277 276 278 277 274 277 278 276 278 276 279 277 277 276 279 278 272 273 278 272 273 279 276 277 278 278 276 277 275 277 279 277 277 276 277 273 278 277 278 274 278 276 277 279 275 272 278 278 277 275 279 272 276 272 277 279 279 275 277 279 279 277 277 277 277 278 277 278 274 276 277 276 278 274 278 278 278 277 273 278 276 271 277 279 277 274 277 275 279 279 277 276 276 275 274 278 279 277 277 279 273 279 277 279 278 275 276 271 274 278 278 277 277 276 277 276 276 278 273 276 273 279 277 277 279 276 276 277 278 278 274 277 274 278 277 279 272 279 274 277 276 277 279 276 279 277 272 278 277 277 274 276 278 276 279 277 277 279 277 275 273 277 276 274 276 271 278 277 277 277 273 277 278 278 279 277 279 277 275 278 277 276 279 277 279 278 276 277 276 276 274 273 277 273 277 279 277 279 275 277 272 279 279 278 273 277 276 276 277 277 277 276 279 276 273 276 276 277 278 277 277 277 276 272 277 278 277 271 277 275 277 273 278 276 277 277 278 276 278 279 279 277 278 275 276 275 277 278 277 279 277 278 279 278 276 273 278 278 274 276 277 279 279 271 277 274 276 277 279 278 277 273 279 277 275 276 277 278 276 277 277 278 277 279 276 274 278 275 271 278 276 272 277 277 278 279 274 276 278 276 276 276 278 277 276 277 277 279 277 276 278 277 279 275 276 279 278 275 273 279 277 272 277 278 276 274 277 278 277 278 278 277 272 277 277 276 278 278 279 277 279 277 279 278 272 277 278 278 274 273 276 276 276 278 279 276 275 274 276 277 278 278 277 278 279 275 277 276 277 277 277 278 275 276 273 277 277 278 276 279 274 277 276 279 272 278 276 279 276 276 279 278 278 277 277 277 278 279 279 275 278 274 277 278 276 278 276 279 273 276 277 273 276 277 278 277 278 278 277 275 277 277 278 277 276 277 279 273 277 278 278 277 277 279 273 275 277 277 271 278 277 277 277 279 277 274 278 277 279 278 278 273 278 277 276 277 276 277 276 277 277 279 276 275 278 279 278 277 279 276 275 278 277 272 277 271 276 278 274 277 278 277 277 278 277 278 278 276 277 278 279 277 279 274 276 279 277 277 278 278 278 278 273 277 277 277 278 278 278 271 277 276 276 278 279 278 274 276 278 279 277 278 277 278 277 278 278 276 278 275 276 273 279 275 277 277 278 279 277 278 276 277 273 276 278 278 273 277 278 278 278 280 278 278 278 276 277 279 278 277 279 279 280 273 278 278 276 280 280 278 278 278 275 279 279 279 278 276 278 274 278 279 278 277 273 279 279 279 278 277 274 279 278 278 278 280 279 280 278 278 279 280 276 279 279 280 278 279 274 279 273 279 278 279 276 279 279 280 280 277 278 277 275 279 277 278 279 276 278 278 274 278 279 279 278 278 279 277 280 279 279 276 274 278 279 274 280 278 277 276 279 279 280 278 278 278 279 274 278 279 279 277 277 279 278 277 279 277 274 274 279 278 279 279 276 279 279 280 278 274 278 276 279 279 280 273 279 278 278 278 280 280 277 278 276 279 278 279 277 279 274 279 278 278 279 279 278 278 279 276 279 279 276 278 279 278 279 278 278 272 278 273 279 278 278 279 279 275 278 277 277 274 274 278 279 279 280 277 279 277 276 279 279 280 277 278 278 279 278 280 276 279 279 276 279 280 279 276 274 279 278 279 273 278 277 280 279 280 278 278 280 278 277 277 278 279 279 277 278 276 278 274 276 273 279 278 278 279 279 276 272 279 273 274 280 277 278 279 279 279 276 279 279 280 278 277 280 280 279 279 280 278 278 272 274 280 278 277 279 278 275 278 274 274 278 278 276 278 277 279 280 278 277 279 276 278 279 278 279 279 278 277 279 279 278 278 273 277 280 279 280 276 276 279 279 278 278 274 275 280 278 279 279 274 277 279 273 280 279 279 278 279 274 277 279 278 272 279 279 280 280 279 277 278 278 280 273 279 278 279 277 277 278 274 280 279 276 278 274 280 278 278 279 280 278 279 279 279 279 277 278 279 277 279 277 279 280 279 280 279 277 278 278 272 274 278 273 279 275 277 279 279 279 280 279 278 279 280 279 280 277 278 279 276 278 277 279 276 278 280 279 279 278 278 279 278 278 280 278 279 279 280 279 280 278 279 275 279 274 279 278 273 274 279 279 273 277 280 279 278 279 274 275 277 280 279 280 276 279 278 279 279 280 279 279 277 278 278 278 276 280 277 278 278 278 273 274 279 278 279 278 279 278 275 279 277 276 278 280 278 280 278 278 279 279 274 279 278 276 278 279 280 278 280 275 272 279 274 279 274 278 277 274 279 277 279 278 278 277 279 278 280 279 278 280 276 279 274 279 278 274 277 279 278 280 280 277 276 278 278 280 278 279 278 278 279 279 279 278 275 277 279 278 278 280 279 277 279 279 279 274 279 273 277 279 280 276 279 278 278 275 275 277 278 274 279 280 278 279 278 279 279 280 279 279 278 276 279 279 278 277 279 278 279 276 275 274 278 278 274 279 279 275 275 275 278 277 277 277 279 279 279 279 280 275 275 279 279 278 276 280 279 278 278 272 280 280 279 279 278 280 279 279 279 273 277 278 273 279 278 278 277 275 278 274 277 279 279 279 279 279 275 278 279 277 278 279 278 278 279 278 279 279 280 278 280 278 277 274 274 279 279 280 273 277 279 275 279 280 278 275 280 280 279 280 279 279 276 279 277 275 279 280 275 280 278 278 278 278 280 279 280 279 278 278 278 278 278 277 280 274 280 279 274 278 280 279 277 273 278 279 280 276 276 279 279 277 278 280 277 280 280 279 279 276 279 278 280 275 278 273 279 279 279 275 278 277 274 276 279 280 279 280 279 278 277 279 278 278 275 280 279 278 275 277 280 279 279 278 278 279 279 273 275 279 280 278 275 279 274 277 279 280 280 280 275 279 278 277 279 277 277 280 278 277 279 278 279 278 276 276 276 280 278 280 277 280 279 275 279 272 278 280 275 279 278 279 276 280 280 279 278 277 275 272 275 278 279 279 280 278 280 279 279 278 279 280 277 274 278 279 279 279 278 279 280 276 280 274 280 279 279 280 279 276 273 275 278 280 278 278 275 280 279 274 280 280 278 279 279 279 277 278 278 276 278 278 277 274 280 280 277 274 278 278 276 280 278 277 278 279 280 279 279 277 278 279 273 280 278 278 279 279 280 280 279 279 275 279 275 279 274 278 277 280 278 278 275 279 279 278 279 278 275 279 276 280 275 278 280 278 279 275 280 280 279 279 280 280 277 280 279 275 279 278 279 274 277 278 278 277 279 280 278 278 276 280 274 280 278 279 279 279 275 280 277 273 279 278 279 280 280 279 280 277 277 276 277 279 279 280 275 274 277 280 279 278 277 279 276 280 277 274 277 278 278 279 280 278 279 279 278 277 280 280 277 279 279 279 280 275 274 279 278 276 279 278 279 279 275 273 279 278 280 279 277 278 280 275 280 280 274 279 280 280 279 277 272 279 279 277 278 280 280 278 277 275 279 279 279 275 279 279 280 278 280 280 280 276 275 274 276 276 279 278 278 280 276 280 278 277 278 279 279 279 275 278 280 279 277 279 280 277 280 276 280 280 278 279 274 278 276 276 279 278 280 278 279 274 280 280 278 280 278 279 277 279 277 278 275 278 277 280 273 280 279 279 279 279 280 280 277 275 278 277 276 275 275 277 280 278 278 280 274 279 278 274 278 279 280 280 278 279 277 280 276 280 278 275 280 274 279 276 278 278 279 279 278 279 279 278 279 278 280 280 279 280 278 278 280 278 280 275 278 279 275 279 279 274 277 279 275 277 276 280 278 279 273 278 279 280 279 275 275 278 279 280 277 280 278 276 279 279 278 278 277 279 277 280 274 280 275 280 278 279 280 278 280 274 280 278 275 279 278 278 279 275 276 273 280 278 276 279 280 278 280 274 275 280 280 278 278 280 275 275 278 277 278 279 280 277 278 280 279 280 280 273 275 278 279 280 280 279 278 279 275 279 279 279 277 278 278 278 279 278 279 278 278 280 279 274 275 278 279 275 280 280 278 276 279 279 276 279 276 278 276 280 278 279 280 278 278 278 279 275 278 278 280 277 278 280 275 280 277 275 276 274 278 275 278 278 276 278 279 279 280 278 279 275 277 278 280 280 276 273 279 278 277 280 278 279 279 275 279 280 280 278 280 279 278 280 278 280 280 280 278 274 275 280 280 278 279 276 277 280 279 277 280 279 279 276 279 275 275 275 279 279 279 278 280 274 279 278 280 279 280 278 280 279 279 279 276 275 275 275 280 277 277 280 279 277 276 278 278 276 280 279 276 280 280 279 278 279 277 278 279 279 279 278 275 277 280 278 274 279 276 276 279 275 273 278 279 279 280 280 275 279 279 275 279 279 278 278 276 280 280 279 278 280 280 278 279 279 279 274 280 274 280 280 279 274 278 279 277 280 278 278 279 279 277 278 278 272 280 275 277 279 278 276 280 276 280 278 279 274 278 278 280 279 279 277 276 278 280 277 275 279 278 277 278 279 280 276 278 278 278 276 275 280 274 281 276 280 279 275 280 280 279 279 280 279 280 279 275 280 273 275 276 277 280 278 280 278 274 279 273 277 280 275 277 277 278 280 280 280 280 279 280 278 279 279 280 276 280 278 279 279 280 276 280 273 279 275 279 278 279 279 278 278 280 275 278 279 276 279 277 278 275 279 276 279 278 279 280 273 280 280 280 280 279 278 278 279 275 279 274 277 280 278 275 280 277 279 277 279 280 280 278 279 277 277 273 278 279 279 275 277 276 278 279 279 280 279 280 280 279 280 281 276 280 280 276 279 279 277 276 278 276 274 280 277 277 276 280 278 275 275 278 279 280 275 278 278 279 278 275 277 279 280 279 278 279 278 278 279 279 280 280 279 280 280 278 280 276 275 276 280 279 279 279 278 279 277 276 280 281 279 279 280 280 279 275 275 278 276 280 279 274 274 273 279 279 278 278 276 279 273 279 275 278 279 273 278 277 279 276 278 280 273 280 274 280 279 280 277 278 280 278 279 280 278 272 280 279 276 277 276 279 276 280 279 280 279 278 280 280 280 273 277 275 276 272 277 279 280 278 279 274 280 280 274 278 279 276 279 279 276 273 273 279 276 279 279 278 278 278 279 279 275 279 279 278 277 278 279 278 280 279 276 279 276 278 280 278 279 275 279 279 279 273 279 272 279 274 280 272 275 279 277 279 276 280 276 280 280 279 278 273 274 279 273 278 280 280 274 278 273 279 273 280 273 278 280 276 280 277 274 274 277 278 278 279 279 279 280 280 275 276 273 278 278 274 275 278 278 278 275 276 281 280 272 272 272 272 280 277 279 279 278 278 280 279 278 278 279 279 280 277 279 278 279 280 278 279 277 274 279 278 280 276 275 280 275 273 280 279 273 279 272 278 277 279 273 275 278 279 280 277 280 280 276 279 279 279 275 279 275 274 273 279 276 278 278 275 274 277 276 273 279 279 273 280 278 279 273 279 276 272 280 280 280 275 274 281 280 278 276 280 276 280 280 280 279 278 279 278 279 280 278 277 281 275 277 280 276 276 278 278 276 276 277 281 279 280 280 279 272 273 274 279 280 276 280 277 278 280 273 277 278 275 276 273 278 276 275 280 278 279 279 280 276 275 274 278 280 277 273 276 278 273 276 278 279 273 279 272 278 280 280 280 279 279 280 279 280 279 278 276 278 280 275 279 274 277 273 274 280 273 279 273 279 277 275 279 279 276 276 279 280 279 276 280 280 278 278 277 279 278 272 280 279 279 273 277 276 278 276 279 276 281 278 279 275 280 275 278 279 276 279 275 277 273 274 272 278 273 279 273 273 279 278 280 279 280 280 278 280 279 275 280 277 276 273 278 278 277 274 280 277 275 276 279 281 278 280 276 280 275 280 274 278 276 280 279 281 280 278 279 280 277 280 280 275 280 279 274 273 272 276 279 280 273 278 280 276 276 273 272 280 273 278 275 275 274 276 273 279 273 278 278 276 275 273 277 278 279 273 274 280 276 280 278 280 280 280 276 278 279 280 280 279 273 275 279 274 280 278 280 279 273 279 276 281 280 278 275 276 279 274 277 279 279 278 277 274 278 280 280 279 277 279 277 278 277 279 275 275 273 276 278 272 278 275 279 276 280 280 279 280 280 278 274 272 276 280 274 281 280 279 279 276 276 280 280 277 273 277 279 278 279 277 277 280 274 275 280 279 279 275 280 276 279 276 279 279 280 280 275 278 274 279 273 273 279 280 280 278 277 279 277 281 279 275 280 276 280 278 279 279 274 273 280 278 279 279 278 280 277 278 280 279 279 275 280 278 280 276 276 279 274 279 280 278 275 276 278 279 278 273 273 277 277 281 276 278 278 280 277 273 275 274 273 274 274 279 273 279 277 280 280 279 279 274 280 278 278 280 275 279 280 278 278 275 278 274 276 281 280 276 280 279 280 279 280 279 280 279 278 273 277 273 280 278 272 280 273 279 280 277 275 276 281 276 276 278 279 279 274 278 278 280 280 278 280 278 277 273 280 279 280 280 271 280 274 279 276 272 279 276 281 273 280 279 275 280 277 280 274 278 278 276 279 278 276 280 280 273 279 280 276 280 277 280 273 279 274 278 278 278 278 274 280 278 273 280 274 279 280 278 273 279 278 275 273 278 278 275 275 281 280 275 274 280 276 279 276 279 279 281 275 278 277 280 279 272 274 278 280 278 276 276 277 274 279 278 280 273 273 275 275 280 279 276 278 280 280 278 278 280 280 276 279 279 274 276 280 274 280 280 280 278 276 279 280 279 275 273 278 280 279 280 279 280 280 276 278 277 276 274 279 280 278 279 280 271 275 279 280 276 280 279 278 277 279 273 279 276 281 278 279 280 281 280 273 280 279 277 279 273 278 273 274 279 276 275 274 280 273 280 273 272 278 280 275 276 280 276 278 278 276 280 273 271 273 278 279 279 278 278 280 276 280 278 276 280 276 278 274 276 276 278 274 280 280 273 278 279 274 279 279 277 278 281 279 277 279 278 276 275 280 278 280 275 280 280 276 281 279 278 279 281 278 279 281 280 275 279 280 280 279 276 279 275 277 278 280 278 278 278 280 275 274 274 278 276 279 279 280 278 273 279 273 280 276 278 276 279 281 276 273 273 279 279 280 279 278 278 278 280 278 273 280 278 274 281 275 280 273 278 274 279 280 275 280 273 275 280 276 275 279 279 281 273 278 280 280 274 277 273 277 274 279 279 280 275 280 276 280 280 280 280 275 279 279 275 278 279 279 280 280 279 276 278 276 279 280 279 276 274 273 273 278 275 278 273 275 274 279 273 273 272 278 278 279 276 281 273 279 280 278 279 276 279 280 278 277 275 279 278 280 280 276 273 274 280 276 280 276 279 280 279 275 279 273 278 280 273 274 280 279 279 281 278 281 281 278 279 279 277 279 280 280 279 280 278 280 271 274 279 277 280 279 276 274 279 276 280 278 280 276 276 280 275 278 281 278 279 280 276 272 274 279 280 281 280 278 278 276 280 277 279 281 279 279 278 271 273 278 281 276 274 278 278 273 274 279 276 280 275 278 280 280 276 278 276 275 279 281 280 281 280 274 276 279 278 278 277 278 280 276 278 276 281 278 275 280 280 278 280 276 278 279 279 281 279 280 274 276 279 276 276 275 281 275 277 279 275 273 277 280 276 274 279 280 278 280 275 280 280 273 281 280 279 273 276 280 280 274 278 273 277 275 274 279 273 276 274 280 280 279 280 279 278 273 279 274 279 280 278 278 280 272 273 279 279 278 279 281 280 280 279 275 279 275 275 277 280 276 281 278 274 278 276 276 273 274 272 277 278 280 281 280 280 278 276 280 279 279 278 273 281 280 277 277 278 276 280 280 279 276 277 278 280 276 277 279 279 280 274 281 280 281 276 276 277 278 272 275 280 280 276 274 280 273 279 279 278 277 279 281 279 280 279 273 280 281 276 279 278 279 274 280 280 279 278 275 273 279 280 278 275 279 280 278 280 277 275 276 278 280 279 278 273 279 280 273 277 278 274 273 279 280 276 272 276 274 275 281 279 278 280 279 281 280 276 276 276 278 280 276 279 281 275 279 280 278 273 273 279 278 281 281 275 278 278 281 279 278 280 276 281 275 276 274 272 273 274 280 277 280 279 276 280 280 279 280 280 276 279 280 279 280 275 278 273 275 276 280 281 278 273 274 280 273 279 274 278 276 278 280 280 281 276 279 280 281 278 278 279 277 279 279 280 278 281 279 279 277 273 280 279 273 280 274 278 272 280 280 280 274 280 279 279 279 276 274 272 280 276 280 278 277 274 277 280 276 276 280 275 279 274 277 278 278 279 281 280 276 281 280 280 276 277 278 279 280 280 279 275 279 277 278 280 275 274 275 279 273 280 279 279 273 276 278 280 279 278 275 274 281 274 278 280 276 277 273 276 281 278 273 281 281 280 279 279 277 276 279 280 273 280 274 279 278 280 275 278 278 279 277 278 279 280 275 278 278 277 280 278 279 273 280 274 279 280 280 271 281 274 280 273 274 277 276 281 280 276 278 278 279 280 280 276 279 279 278 280 272 279 274 274 276 280 280 272 278 278 276 276 280 272 279 280 278 278 279 280 278 276 278 281 280 276 280 280 281 281 279 275 278 279 278 280 275 275 281 279 273 278 276 273 273 277 278 281 281 280 279 275 278 275 278 277 273 275 279 279 279 273 280 278 278 278 278 280 278 275 274 279 281 278 280 280 280 280 273 276 279 272 279 280 275 280 275 280 280 279 277 279 280 278 277 280 279 281 281 280 274 279 280 276 279 278 277 277 273 274 278 278 280 280 273 281 274 276 273 276 273 276 279 277 275 280 276 280 276 274 280 280 279 276 273 276 276 278 279 273 275 278 278 280 281 280 275 277 277 270 280 280 279 274 281 276 274 280 280 280 275 279 277 279 278 278 278 280 275 280 273 280 273 273 279 277 278 280 279 278 281 276 281 280 280 276 276 280 278 278 279 274 279 278 278 277 281 280 281 281 276 280 279 280 274 276 278 279 278 277 275 276 279 280 274 279 279 273 274 277 279 274 280 279 279 273 280 279 278 280 280 276 274 280 278 280 280 276 280 280 281 279 278 281 280 278 279 279 280 280 279 280 278 276 279 280 276 276 278 278 273 275 273 276 276 273 277 280 273 273 275 280 277 281 279 279 280 276 272 278 277 281 279 278 278 280 279 273 273 275 276 279 280 276 274 278 281 280 280 281 280 278 273 276 272 274 276 280 275 280 278 277 280 279 278 278 280 278 275 276 278 279 278 278 278 274 273 280 274 280 279 277 280 280 279 280 273 275 279 275 280 276 281 279 280 280 276 279 276 279 273 278 275 279 279 280 274 279 281 272 279 280 276 278 280 276 280 280 276 280 279 276 276 274 279 279 280 279 273 274 279 281 280 275 280 278 278 277 278 281 280 280 278 280 276 276 276 279 279 278 278 280 278 281 280 280 275 278 275 276 278 276 279 274 280 280 276 279 279 279 273 280 273 279 280 281 280 280 280 278 275 275 276 281 279 280 280 275 279 273 280 279 272 276 280 280 279 277 278 278 276 279 280 279 274 280 278 273 274 276 276 276 280 276 280 280 275 280 278 273 281 278 274 275 278 279 280 272 273 278 280 281 278 279 280 280 280 280 273 273 276 276 280 281 274 273 279 278 280 280 281 277 278 278 280 272 280 278 278 281 276 276 276 275 279 280 273 277 278 279 276 276 280 275 278 279 272 279 281 280 273 280 275 279 275 278 279 279 278 278 281 280 278 276 274 278 280 279 278 279 279 278 280 275 275 278 278 273 281 279 273 277 278 279 281 279 277 277 276 275 276 279 279 281 279 276 280 280 272 274 276 279 280 276 280 272 279 273 280 281 276 278 280 279 281 274 281 273 276 277 278 274 280 280 281 279 276 274 277 279 275 281 276 280 280 280 280 278 276 276 279 278 275 278 279 278 276 280 274 278 279 281 276 272 281 278 280 279 273 281 273 280 273 277 279 274 276 281 278 278 280 276 279 279 277 278 275 276 280 279 280 274 279 281 278 279 279 280 273 280 279 281 281 277 278 276 280 278 280 274 272 273 279 277 280 279 276 279 276 277 279 276 281 279 279 278 275 275 278 281 279 278 274 280 280 276 278 273 279 280 276 276 274 278 273 276 273 279 276 276 273 280 275 281 275 278 281 278 278 280 276 273 279 280 278 276 277 280 280 280 273 279 276 277 274 280 276 276 276 278 275 281 279 280 276 278 278 280 278 279 272 275 279 279 273 271 274 279 273 281 280 280 281 277 279 274 280 278 277 279 276 276 278 275 279 276 280 279 279 279 276 279 276 278 276 278 273 274 279 276 275 280 276 275 276 276 277 279 280 276 276 281 280 276 274 281 275 272 278 273 276 280 276 276 280 279 277 281 279 280 281 276 280 280 278 280 279 280 275 278 272 278 278 280 280 276 278 273 277 278 277 280 280 279 276 277 281 279 276 278 280 275 276 280 279 281 274 279 279 276 281 277 278 274 279 275 273 272 271 279 280 280 276 281 280 280 276 278 275 279 279 276 279 276 280 276 279 280 278 275 278 279 279 279 275 279 276 280 279 279 280 279 273 271 275 276 274 273 274 276 278 279 279 280 276 276 275 280 276 280 273 279 280 279 278 275 274 278 279 274 280 276 279 280 280 279 277 275 281 277 276 278 276 276 280 279 280 278 278 276 276 279 275 276 276 281 273 281 279 275 281 278 279 278 280 279 280 274 279 273 272 278 279 281 281 276 276 278 280 280 277 276 279 275 280 279 276 275 278 274 277 276 274 273 280 280 279 276 275 276 278 279 281 280 279 279 279 272 280 275 276 276 273 273 281 279 279 276 276 276 281 280 276 276 273 275 279 274 280 276 275 276 279 280 279 279 276 277 275 279 280 280 281 275 279 278 280 275 276 279 275 281 279 276 278 279 278 281 275 280 281 279 281 278 273 279 278 273 280 279 277 280 276 276 279 279 272 274 276 275 278 281 278 279 276 279 279 276 276 277 275 280 281 279 278 277 273 278 273 276 280 275 281 276 276 276 277 281 279 281 278 277 280 280 276 276 280 276 273 275 280 280 278 281 278 280 281 273 279 279 280 280 276 274 278 277 279 277 279 281 280 281 281 278 277 280 276 276 277 281 277 276 276 276 275 280 280 276 280 278 272 279 278 279 278 279 279 280 280 278 279 280 280 280 277 280 273 278 280 276 274 270 276 275 275 276 275 279 277 281 274 273 281 275 276 272 280 278 274 280 280 280 281 281 279 276 275 280 280 275 276 280 279 275 278 279 278 278 280 275 277 273 276 276 274 281 280 280 272 281 277 277 279 281 279 273 279 275 278 281 279 278 280 279 281 274 279 279 278 278 279 276 278 281 279 281 277 274 275 276 280 280 276 280 281 276 275 272 280 278 276 277 275 277 279 273 280 280 280 272 280 274 281 277 276 276 273 276 281 276 281 276 280 280 276 274 280 280 279 279 273 280 279 275 280 275 276 277 277 281 275 280 280 278 276 279 279 276 279 280 280 279 276 278 275 278 277 278 279 280 277 274 279 273 271 280 279 281 278 275 281 274 276 280 280 276 280 275 276 281 274 278 281 279 276 276 281 280 279 276 280 276 275 279 277 273 273 279 276 275 275 279 278 279 278 279 276 277 279 278 281 281 278 275 276 276 279 278 279 277 279 276 276 276 276 279 280 279 280 279 276 281 278 278 280 279 276 280 280 276 281 280 273 274 275 281 280 275 276 281 277 279 280 280 279 281 278 275 281 279 274 272 279 279 272 280 276 275 280 274 272 277 276 280 280 277 281 275 280 278 281 279 274 281 276 280 280 280 276 276 278 277 280 274 271 278 278 276 279 275 278 273 276 276 280 280 280 280 280 280 281 279 272 273 281 279 280 271 276 276 276 277 278 278 274 279 273 280 281 276 277 280 281 276 278 276 275 276 278 279 280 280 281 277 276 281 276 279 279 276 276 274 277 278 273 280 279 276 277 280 279 280 277 281 280 276 276 281 280 278 280 280 281 278 276 275 273 280 281 277 279 278 278 281 276 280 279 275 274 281 273 278 279 280 281 278 277 273 281 276 279 280 279 278 278 278 278 279 275 278 279 280 280 281 280 278 278 275 280 281 273 280 274 278 280 280 279 278 278 277 272 274 279 276 276 276 280 275 276 276 274 281 280 279 280 281 281 279 279 281 276 280 280 280 280 278 276 276 281 278 274 279 274 275 277 275 276 276 273 273 279 277 280 274 281 279 276 280 279 276 276 281 278 275 273 275 274 274 280 280 281 278 281 271 276 280 274 277 274 277 280 279 276 280 278 276 281 279 276 275 276 276 276 275 276 279 280 275 279 280 275 278 280 273 281 278 272 280 280 281 280 279 278 280 281 281 280 278 281 279 281 278 280 278 279 278 279 276 280 273 276 280 281 281 278 280 281 280 276 280 276 277 276 273 277 276 279 277 281 277 278 281 278 275 281 276 276 279 277 273 275 281 277 274 281 275 279 279 276 276 276 274 278 273 280 280 279 278 276 275

Tree=0
num_leaves=2
num_cat=0
split_feature=187
split_gain=66.9665
threshold=0.23833671399594322
decision_type=2
left_child=-1
right_child=-2
leaf_value=-0.83449099655319614 -0.81478755008541193
leaf_count=415 1497
internal_value=0
internal_count=1912
shrinkage=1


Tree=1
num_leaves=2
num_cat=0
split_feature=184
split_gain=39.982
threshold=0.53571428571428581
decision_type=2
left_child=-1
right_child=-2
leaf_value=-0.00092932073055347652 0.042397610167938922
leaf_count=1871 41
internal_value=0
internal_count=1912
shrinkage=0.02


Tree=2
num_leaves=2
num_cat=0
split_feature=184
split_gain=37.9286
threshold=0.46666666666666673
decision_type=2
left_child=-1
right_child=-2
leaf_value=-0.0010974978224611678 0.034060022326796051
leaf_count=1853 59
internal_value=0
internal_count=1912
shrinkage=0.02


Tree=3
num_leaves=2
num_cat=0
split_feature=187
split_gain=64.5951
threshold=0.23833671399594322
decision_type=2
left_child=-1
right_child=-2
leaf_value=-0.015210600164758312 0.0041835861446626694
leaf_count=415 1497
internal_value=0
internal_count=1912
shrinkage=0.02


Tree=4
num_leaves=2
num_cat=0
split_feature=129
split_gain=30.7143
threshold=1.0000000180025095e-35
decision_type=2
left_child=-1
right_child=-2
leaf_value=-0.0024835038778952597 0.012188093771740755
leaf_count=1589 323
internal_value=0
internal_count=1912
shrinkage=0.02


Tree=5
num_leaves=2
num_cat=0
split_feature=184
split_gain=35.9911
threshold=0.53571428571428581
decision_type=2
left_child=-1
right_child=-2
leaf_value=-0.00089563251608401303 0.039631134722971854
leaf_count=1871 41
internal_value=0
internal_count=1912
shrinkage=0.02


Tree=6
num_leaves=2
num_cat=0
split_feature=187
split_gain=62.225
threshold=0.23833671399594322
decision_type=2
left_child=-1
right_child=-2
leaf_value=-0.014989687549533488 0.0040894796955416209
leaf_count=415 1497
internal_value=0
internal_count=1912
shrinkage=0.02


Tree=7
num_leaves=2
num_cat=0
split_feature=184
split_gain=34.2656
threshold=0.46666666666666673
decision_type=2
left_child=-1
right_child=-2
leaf_value=-0.0010567517901566602 0.031986259395558318
leaf_count=1853 59
internal_value=0
internal_count=1912
shrinkage=0.02


Tree=8
num_leaves=2
num_cat=0
split_feature=187
split_gain=60.0253
threshold=0.23833671399594322
decision_type=2
left_child=-1
right_child=-2
leaf_value=-0.014779989526716565 0.0040010793265861594
leaf_count=415 1497
internal_value=0
internal_count=1912
shrinkage=0.02


Tree=9
num_leaves=2
num_cat=0
split_feature=129
split_gain=28.9376
threshold=1.0000000180025095e-35
decision_type=2
left_child=-1
right_child=-2
leaf_value=-0.0024207321464955411 0.011786612180839753
leaf_count=1589 323
internal_value=0
internal_count=1912
shrinkage=0.02


Tree=10
num_leaves=2
num_cat=0
split_feature=187
split_gain=58.2551
threshold=0.30463917525773204
decision_type=2
left_child=-1
right_child=-2
leaf_value=-0.0092774733016450003 0.0061878017442829735
leaf_count=773 1139
internal_value=0
internal_count=1912
shrinkage=0.02


Tree=11
num_leaves=2
num_cat=0
split_feature=116
split_gain=28.9696
threshold=1.0000000180025095e-35
decision_type=2
left_child=-1
right_child=-2
leaf_value=0.0031283030151740645 -0.0091237294460728754
leaf_count=1423 489
internal_value=0
internal_count=1912
shrinkage=0.02


Tree=12
num_leaves=2
num_cat=0
split_feature=187
split_gain=56.5424
threshold=0.23833671399594322
decision_type=2
left_child=-1
right_child=-2
leaf_value=-0.014437633610818431 0.0038586055067358449
leaf_count=415 1497
internal_value=0
internal_count=1912
shrinkage=0.02


Tree=13
num_leaves=2
num_cat=0
split_feature=187
split_gain=54.8216
threshold=0.30463917525773204
decision_type=2
left_child=-1
right_child=-2
leaf_value=-0.0090445109813773149 0.0059741303492570775
leaf_count=773 1139
internal_value=0
internal_count=1912
shrinkage=0.02


Tree=14
num_leaves=2
num_cat=0
split_feature=187
split_gain=53.3284
threshold=0.23833671399594322
decision_type=2
left_child=-1
right_child=-2
leaf_value=-0.014109588171444346 0.0037244312081592262
leaf_count=415 1497
internal_value=0
internal_count=1912
shrinkage=0.02


Tree=15
num_leaves=2
num_cat=0
split_feature=114
split_gain=20.1618
threshold=1.0000000180025095e-35
decision_type=2
left_child=-1
right_child=-2
leaf_value=0.0019091249793250083 -0.01040216769437031
leaf_count=1615 297
internal_value=0
internal_count=1912
shrinkage=0.02


Tree=16
num_leaves=2
num_cat=0
split_feature=187
split_gain=51.7537
threshold=0.31116091438816679
decision_type=2
left_child=-1
right_child=-2
leaf_value=-0.0080323771135665765 0.0063524080206795938
leaf_count=860 1052
internal_value=0
internal_count=1912
shrinkage=0.02


Tree=17
num_leaves=2
num_cat=0
split_feature=115
split_gain=24.261
threshold=1.0000000180025095e-35
decision_type=2
left_child=-1
right_child=-2
leaf_value=0.0021957857332389249 -0.010885385600583134
leaf_count=1590 322
internal_value=0
internal_count=1912
shrinkage=0.02


Tree=18
num_leaves=2
num_cat=0
split_feature=187
split_gain=50.5798
threshold=0.23833671399594322
decision_type=2
left_child=-1
right_child=-2
leaf_value=-0.013819365813951269 0.0036073826368400834
leaf_count=415 1497
internal_value=0
internal_count=1912
shrinkage=0.02


Tree=19
num_leaves=2
num_cat=0
split_feature=99
split_gain=13.196
threshold=1.0000000180025095e-35
decision_type=2
left_child=-1
right_child=-2
leaf_value=0.0087469922032790866 -0.0014902895311552223
leaf_count=277 1635
internal_value=0
internal_count=1912
shrinkage=0.02


Tree=20
num_leaves=2
num_cat=0
split_feature=53
split_gain=20.7728
threshold=1.0000000180025095e-35
decision_type=2
left_child=-1
right_child=-2
leaf_value=-0.002877277002753721 0.0071249385600085828
leaf_count=1364 548
internal_value=0
internal_count=1912
shrinkage=0.02


Tree=21
num_leaves=2
num_cat=0
split_feature=116
split_gain=26.7397
threshold=1.0000000180025095e-35
decision_type=2
left_child=-1
right_child=-2
leaf_value=0.0029905301685181789 -0.0088138007762590485
leaf_count=1423 489
internal_value=0
internal_count=1912
shrinkage=0.02


Tree=22
num_leaves=2
num_cat=0
split_feature=116
split_gain=25.742
threshold=1.0000000180025095e-35
decision_type=2
left_child=-1
right_child=-2
leaf_value=0.002927329194709281 -0.0086682255283468245
leaf_count=1423 489
internal_value=0
internal_count=1912
shrinkage=0.02


Tree=23
num_leaves=2
num_cat=0
split_feature=187
split_gain=49.1444
threshold=0.30463917525773204
decision_type=2
left_child=-1
right_child=-2
leaf_value=-0.0086393650188081646 0.0056101083273014784
leaf_count=773 1139
internal_value=0
internal_count=1912
shrinkage=0.02


Tree=24
num_leaves=2
num_cat=0
split_feature=187
split_gain=47.7398
threshold=0.23833671399594322
decision_type=2
left_child=-1
right_child=-2
leaf_value=-0.013509309565636498 0.0034841358157301091
leaf_count=415 1497
internal_value=0
internal_count=1912
shrinkage=0.02


Tree=25
num_leaves=2
num_cat=0
split_feature=0
split_gain=23.4704
threshold=1.5000000000000002
decision_type=2
left_child=-1
right_child=-2
leaf_value=-0.0037561410818276104 0.006167930874264438
leaf_count=1191 721
internal_value=0
internal_count=1912
shrinkage=0.02


Tree=26
num_leaves=2
num_cat=0
split_feature=0
split_gain=22.5201
threshold=1.5000000000000002
decision_type=2
left_child=-1
right_child=-2
leaf_value=-0.0036864597711306962 0.0060301879150781289
leaf_count=1191 721
internal_value=0
internal_count=1912
shrinkage=0.02


Tree=27
num_leaves=2
num_cat=0
split_feature=0
split_gain=21.609
threshold=1.5000000000000002
decision_type=2
left_child=-1
right_child=-2
leaf_value=-0.0036179930723932623 0.0058959276173962492
leaf_count=1191 721
internal_value=0
internal_count=1912
shrinkage=0.02


Tree=28
num_leaves=2
num_cat=0
split_feature=166
split_gain=16.0728
threshold=1.0000000180025095e-35
decision_type=2
left_child=-1
right_child=-2
leaf_value=-0.0015482207050037298 0.010263124868973704
leaf_count=1663 249
internal_value=0
internal_count=1912
shrinkage=0.02


Tree=29
num_leaves=2
num_cat=0
split_feature=129
split_gain=25.7024
threshold=1.0000000180025095e-35
decision_type=2
left_child=-1
right_child=-2
leaf_value=-0.0023012716896573695 0.011034242669291707
leaf_count=1589 323
internal_value=0
internal_count=1912
shrinkage=0.02


Tree=30
num_leaves=2
num_cat=0
split_feature=129
split_gain=24.6054
threshold=1.0000000180025095e-35
decision_type=2
left_child=-1
right_child=-2
leaf_value=-0.0022573007929140286 0.010770015564071641
leaf_count=1589 323
internal_value=0
internal_count=1912
shrinkage=0.02


Tree=31
num_leaves=2
num_cat=0
split_feature=184
split_gain=32.0329
threshold=0.53571428571428581
decision_type=2
left_child=-1
right_child=-2
leaf_value=-0.00086055258315195348 0.036876186758260911
leaf_count=1871 41
internal_value=0
internal_count=1912
shrinkage=0.02


Tree=32
num_leaves=2
num_cat=0
split_feature=52
split_gain=12.4446
threshold=1.0000000180025095e-35
decision_type=2
left_child=-1
right_child=-2
leaf_value=-0.003149169706217821 0.0039012957550079771
leaf_count=1062 850
internal_value=0
internal_count=1912
shrinkage=0.02


Tree=33
num_leaves=2
num_cat=0
split_feature=129
split_gain=23.4477
threshold=1.0000000180025095e-35
decision_type=2
left_child=-1
right_child=-2
leaf_value=-0.0022095473923296203 0.010487040042193531
leaf_count=1589 323
internal_value=0
internal_count=1912
shrinkage=0.02


Tree=34
num_leaves=2
num_cat=0
split_feature=129
split_gain=22.4528
threshold=1.0000000180025095e-35
decision_type=2
left_child=-1
right_child=-2
leaf_value=-0.0021672598320019707 0.010239042799102116
leaf_count=1589 323
internal_value=0
internal_count=1912
shrinkage=0.02


Tree=35
num_leaves=2
num_cat=0
split_feature=129
split_gain=21.5025
threshold=1.0000000180025095e-35
decision_type=2
left_child=-1
right_child=-2
leaf_value=-0.0021257502953203602 0.0099982595602928787
leaf_count=1589 323
internal_value=0
internal_count=1912
shrinkage=0.02


Tree=36
num_leaves=2
num_cat=0
split_feature=129
split_gain=20.5946
threshold=1.0000000180025095e-35
decision_type=2
left_child=-1
right_child=-2
leaf_value=-0.0020850054834377217 0.0097644007792378994
leaf_count=1589 323
internal_value=0
internal_count=1912
shrinkage=0.02


Tree=37
num_leaves=2
num_cat=0
split_feature=115
split_gain=21.3967
threshold=1.0000000180025095e-35
decision_type=2
left_child=-1
right_child=-2
leaf_value=0.0020452672146091676 -0.010316303823742032
leaf_count=1590 322
internal_value=0
internal_count=1912
shrinkage=0.02


Tree=38
num_leaves=2
num_cat=0
split_feature=187
split_gain=45.9161
threshold=0.31116091438816679
decision_type=2
left_child=-1
right_child=-2
leaf_value=-0.0076375382022217334 0.0059356886876263792
leaf_count=860 1052
internal_value=0
internal_count=1912
shrinkage=0.02


Tree=39
num_leaves=2
num_cat=0
split_feature=184
split_gain=30.1421
threshold=0.58571428571428574
decision_type=2
left_child=-1
right_child=-2
leaf_value=-0.00076349424088905803 0.0391651437980595
leaf_count=1878 34
internal_value=0
internal_count=1912
shrinkage=0.02


Tree=40
num_leaves=2
num_cat=0
split_feature=187
split_gain=44.6496
threshold=0.23833671399594322
decision_type=2
left_child=-1
right_child=-2
leaf_value=-0.013161184428030564 0.0033481870258859686
leaf_count=415 1497
internal_value=0
internal_count=1912
shrinkage=0.02


Tree=41
num_leaves=2
num_cat=0
split_feature=184
split_gain=28.7081
threshold=0.53571428571428581
decision_type=2
left_child=-1
right_child=-2
leaf_value=-0.00082522697963467316 0.034515748806371524
leaf_count=1871 41
internal_value=0
internal_count=1912
shrinkage=0.02


Tree=42
num_leaves=2
num_cat=0
split_feature=187
split_gain=43.2833
threshold=0.35164835164835168
decision_type=2
left_child=-1
right_child=-2
leaf_value=-0.0047269264426564005 0.0090504026553981914
leaf_count=1273 639
internal_value=0
internal_count=1912
shrinkage=0.02


Tree=43
num_leaves=2
num_cat=0
split_feature=184
split_gain=27.5747
threshold=0.46666666666666673
decision_type=2
left_child=-1
right_child=-2
leaf_value=-0.00097246645593586497 0.028122885210326992
leaf_count=1853 59
internal_value=0
internal_count=1912
shrinkage=0.02


Tree=44
num_leaves=2
num_cat=0
split_feature=184
split_gain=26.4226
threshold=0.58571428571428574
decision_type=2
left_child=-1
right_child=-2
leaf_value=-0.00072555777130372547 0.036170442265450083
leaf_count=1878 34
internal_value=0
internal_count=1912
shrinkage=0.02


Tree=45
num_leaves=2
num_cat=0
split_feature=187
split_gain=42.5559
threshold=0.23833671399594322
decision_type=2
left_child=-1
right_child=-2
leaf_value=-0.012915954587913931 0.0032537043803539485
leaf_count=415 1497
internal_value=0
internal_count=1912
shrinkage=0.02


Tree=46
num_leaves=2
num_cat=0
split_feature=184
split_gain=25.3604
threshold=0.46666666666666673
decision_type=2
left_child=-1
right_child=-2
leaf_value=-0.00093938738872484287 0.026794160144359553
leaf_count=1853 59
internal_value=0
internal_count=1912
shrinkage=0.02


Tree=47
num_leaves=2
num_cat=0
split_feature=114
split_gain=16.6367
threshold=1.0000000180025095e-35
decision_type=2
left_child=-1
right_child=-2
leaf_value=0.0017147955005890783 -0.0095750435983882366
leaf_count=1615 297
internal_value=0
internal_count=1912
shrinkage=0.02


Tree=48
num_leaves=2
num_cat=0
split_feature=187
split_gain=41.3162
threshold=0.30463917525773204
decision_type=2
left_child=-1
right_child=-2
leaf_value=-0.0080327456465375292 0.0050843270832783638
leaf_count=773 1139
internal_value=0
internal_count=1912
shrinkage=0.02


Tree=49
num_leaves=2
num_cat=0
split_feature=184
split_gain=24.2713
threshold=0.58571428571428574
decision_type=2
left_child=-1
right_child=-2
leaf_value=-0.00070126735582518506 0.034416401677850636
leaf_count=1878 34
internal_value=0
internal_count=1912
shrinkage=0.02


Tree=50
num_leaves=2
num_cat=0
split_feature=187
split_gain=40.2391
threshold=0.23833671399594322
decision_type=2
left_child=-1
right_child=-2
leaf_value=-0.012634844539153048 0.0031472045959077357
leaf_count=415 1497
internal_value=0
internal_count=1912
shrinkage=0.02


Tree=51
num_leaves=2
num_cat=0
split_feature=187
split_gain=39.5544
threshold=0.35164835164835168
decision_type=2
left_child=-1
right_child=-2
leaf_value=-0.0045495392277284628 0.0086053567531260821
leaf_count=1273 639
internal_value=0
internal_count=1912
shrinkage=0.02


Tree=52
num_leaves=2
num_cat=0
split_feature=53
split_gain=18.4702
threshold=1.0000000180025095e-35
decision_type=2
left_child=-1
right_child=-2
leaf_value=-0.0027339395703396968 0.0066910493996734403
leaf_count=1364 548
internal_value=0
internal_count=1912
shrinkage=0.02


Tree=53
num_leaves=2
num_cat=0
split_feature=53
split_gain=17.7125
threshold=1.0000000180025095e-35
decision_type=2
left_child=-1
right_child=-2
leaf_value=-0.0026821459922722526 0.006540763511858937
leaf_count=1364 548
internal_value=0
internal_count=1912
shrinkage=0.02


Tree=54
num_leaves=2
num_cat=0
split_feature=115
split_gain=20.2795
threshold=1.0000000180025095e-35
decision_type=2
left_child=-1
right_child=-2
leaf_value=0.0019863622568015945 -0.010086983646146463
leaf_count=1590 322
internal_value=0
internal_count=1912
shrinkage=0.02


Tree=55
num_leaves=2
num_cat=0
split_feature=115
split_gain=19.5432
threshold=1.0000000180025095e-35
decision_type=2
left_child=-1
right_child=-2
leaf_value=0.0019451548255687539 -0.0099268471504145028
leaf_count=1590 322
internal_value=0
internal_count=1912
shrinkage=0.02


Tree=56
num_leaves=2
num_cat=0
split_feature=129
split_gain=18.3557
threshold=1.0000000180025095e-35
decision_type=2
left_child=-1
right_child=-2
leaf_value=-0.0019820185966506658 0.0091805102387372724
leaf_count=1589 323
internal_value=0
internal_count=1912
shrinkage=0.02


Tree=57
num_leaves=2
num_cat=0
split_feature=114
split_gain=14.8706
threshold=1.0000000180025095e-35
decision_type=2
left_child=-1
right_child=-2
leaf_value=0.0016108574728977427 -0.0091191236849174247
leaf_count=1615 297
internal_value=0
internal_count=1912
shrinkage=0.02


Tree=58
num_leaves=2
num_cat=0
split_feature=116
split_gain=20.9025
threshold=1.0000000180025095e-35
decision_type=2
left_child=-1
right_child=-2
leaf_value=0.0026103538837533294 -0.0079186311004999527
leaf_count=1423 489
internal_value=0
internal_count=1912
shrinkage=0.02


Tree=59
num_leaves=2
num_cat=0
split_feature=184
split_gain=23.0294
threshold=0.63333333333333341
decision_type=2
left_child=-1
right_child=-2
leaf_value=-0.00063343718952450117 0.03621557753580041
leaf_count=1883 29
internal_value=0
internal_count=1912
shrinkage=0.02


Tree=60
num_leaves=2
num_cat=0
split_feature=0
split_gain=19.8247
threshold=1.5000000000000002
decision_type=2
left_child=-1
right_child=-2
leaf_value=-0.0034860785972555398 0.0056330344258151621
leaf_count=1191 721
internal_value=0
internal_count=1912
shrinkage=0.02


Tree=61
num_leaves=2
num_cat=0
split_feature=116
split_gain=20.0137
threshold=1.0000000180025095e-35
decision_type=2
left_child=-1
right_child=-2
leaf_value=0.0025484746923481716 -0.0077679099327181865
leaf_count=1423 489
internal_value=0
internal_count=1912
shrinkage=0.02


Tree=62
num_leaves=2
num_cat=0
split_feature=187
split_gain=38.6667
threshold=0.30463917525773204
decision_type=2
left_child=-1
right_child=-2
leaf_value=-0.0078121939964442347 0.0048998606687551969
leaf_count=773 1139
internal_value=0
internal_count=1912
shrinkage=0.02


Tree=63
num_leaves=2
num_cat=0
split_feature=116
split_gain=19.3776
threshold=1.0000000180025095e-35
decision_type=2
left_child=-1
right_child=-2
leaf_value=0.0025035023019468724 -0.0076584370386664517
leaf_count=1423 489
internal_value=0
internal_count=1912
shrinkage=0.02


Tree=64
num_leaves=2
num_cat=0
split_feature=116
split_gain=18.6526
threshold=1.0000000180025095e-35
decision_type=2
left_child=-1
right_child=-2
leaf_value=0.0024511359313056538 -0.0075300053245619331
leaf_count=1423 489
internal_value=0
internal_count=1912
shrinkage=0.02


Tree=65
num_leaves=2
num_cat=0
split_feature=184
split_gain=22.096
threshold=0.46666666666666673
decision_type=2
left_child=-1
right_child=-2
leaf_value=-0.00088664597354100164 0.024797651819860142
leaf_count=1853 59
internal_value=0
internal_count=1912
shrinkage=0.02


Tree=66
num_leaves=2
num_cat=0
split_feature=184
split_gain=21.1519
threshold=0.63333333333333341
decision_type=2
left_child=-1
right_child=-2
leaf_value=-0.00061138698801143363 0.034500981075768697
leaf_count=1883 29
internal_value=0
internal_count=1912
shrinkage=0.02


Tree=67
num_leaves=2
num_cat=0
split_feature=116
split_gain=17.8486
threshold=1.0000000180025095e-35
decision_type=2
left_child=-1
right_child=-2
leaf_value=0.002392802659105409 -0.007383913194652667
leaf_count=1423 489
internal_value=0
internal_count=1912
shrinkage=0.02


Tree=68
num_leaves=2
num_cat=0
split_feature=116
split_gain=17.1803
threshold=1.0000000180025095e-35
decision_type=2
left_child=-1
right_child=-2
leaf_value=0.0023428622252012346 -0.0072595830333402212
leaf_count=1423 489
internal_value=0
internal_count=1912
shrinkage=0.02


Tree=69
num_leaves=2
num_cat=0
split_feature=184
split_gain=20.3327
threshold=0.46666666666666673
decision_type=2
left_child=-1
right_child=-2
leaf_value=-0.00085490010512150234 0.023679867429203093
leaf_count=1853 59
internal_value=0
internal_count=1912
shrinkage=0.02


Tree=70
num_leaves=2
num_cat=0
split_feature=187
split_gain=38.2966
threshold=0.14583333333333334
decision_type=2
left_child=-1
right_child=-2
leaf_value=-0.023357567411249988 0.0016218403541370932
leaf_count=136 1776
internal_value=0
internal_count=1912
shrinkage=0.02


Tree=71
num_leaves=2
num_cat=0
split_feature=116
split_gain=16.5415
threshold=1.0000000180025095e-35
decision_type=2
left_child=-1
right_child=-2
leaf_value=0.0022949638680156551 -0.0071383474964109989
leaf_count=1423 489
internal_value=0
internal_count=1912
shrinkage=0.02


Tree=72
num_leaves=2
num_cat=0
split_feature=115
split_gain=15.1956
threshold=1.0000000180025095e-35
decision_type=2
left_child=-1
right_child=-2
leaf_value=0.0016897128823776348 -0.0089010310908854539
leaf_count=1590 322
internal_value=0
internal_count=1912
shrinkage=0.02


Tree=73
num_leaves=2
num_cat=0
split_feature=187
split_gain=37.5614
threshold=0.35164835164835168
decision_type=2
left_child=-1
right_child=-2
leaf_value=-0.0044533138687753758 0.008368468639940535
leaf_count=1273 639
internal_value=0
internal_count=1912
shrinkage=0.02


Tree=74
num_leaves=2
num_cat=0
split_feature=184
split_gain=19.4756
threshold=0.58571428571428574
decision_type=2
left_child=-1
right_child=-2
leaf_value=-0.00063922360991210375 0.030409181079359141
leaf_count=1878 34
internal_value=0
internal_count=1912
shrinkage=0.02


Tree=75
num_leaves=2
num_cat=0
split_feature=184
split_gain=18.7341
threshold=0.46666666666666673
decision_type=2
left_child=-1
right_child=-2
leaf_value=-0.00082454276398821443 0.022645899875349033
leaf_count=1853 59
internal_value=0
internal_count=1912
shrinkage=0.02


Tree=76
num_leaves=2
num_cat=0
split_feature=0
split_gain=18.7673
threshold=1.5000000000000002
decision_type=2
left_child=-1
right_child=-2
leaf_value=-0.0034045182379482679 0.005472181569135307
leaf_count=1191 721
internal_value=0
internal_count=1912
shrinkage=0.02


Tree=77
num_leaves=2
num_cat=0
split_feature=116
split_gain=15.4239
threshold=1.0000000180025095e-35
decision_type=2
left_child=-1
right_child=-2
leaf_value=0.0022092277960320465 -0.0069195865423476513
leaf_count=1423 489
internal_value=0
internal_count=1912
shrinkage=0.02


Tree=78
num_leaves=2
num_cat=0
split_feature=0
split_gain=17.9638
threshold=1.5000000000000002
decision_type=2
left_child=-1
right_child=-2
leaf_value=-0.0033371608645457801 0.0053446586137384858
leaf_count=1191 721
internal_value=0
internal_count=1912
shrinkage=0.02


Tree=79
num_leaves=2
num_cat=0
split_feature=184
split_gain=18.1255
threshold=0.63333333333333341
decision_type=2
left_child=-1
right_child=-2
leaf_value=-0.00057167430592729661 0.031680560763215397
leaf_count=1883 29
internal_value=0
internal_count=1912
shrinkage=0.02


Tree=80
num_leaves=2
num_cat=0
split_feature=129
split_gain=15.9832
threshold=1.0000000180025095e-35
decision_type=2
left_child=-1
right_child=-2
leaf_value=-0.0018627690058944804 0.0085312061281328996
leaf_count=1589 323
internal_value=0
internal_count=1912
shrinkage=0.02


Tree=81
num_leaves=2
num_cat=0
split_feature=184
split_gain=17.9438
threshold=0.15073529411764711
decision_type=2
left_child=-1
right_child=-2
leaf_value=-0.025812234465291108 0.00068645236838011422
leaf_count=53 1859
internal_value=0
internal_count=1912
shrinkage=0.02


Tree=82
num_leaves=2
num_cat=0
split_feature=184
split_gain=17.4339
threshold=0.15073529411764711
decision_type=2
left_child=-1
right_child=-2
leaf_value=-0.025595458688579899 0.00067254572028553942
leaf_count=53 1859
internal_value=0
internal_count=1912
shrinkage=0.02


Tree=83
num_leaves=2
num_cat=0
split_feature=129
split_gain=15.2495
threshold=1.0000000180025095e-35
decision_type=2
left_child=-1
right_child=-2
leaf_value=-0.0018232533045367298 0.0083181297650608641
leaf_count=1589 323
internal_value=0
internal_count=1912
shrinkage=0.02


Tree=84
num_leaves=2
num_cat=0
split_feature=184
split_gain=17.2585
threshold=0.58571428571428574
decision_type=2
left_child=-1
right_child=-2
leaf_value=-0.00060532674631350047 0.028487315713458472
leaf_count=1878 34
internal_value=0
internal_count=1912
shrinkage=0.02


Tree=85
num_leaves=2
num_cat=0
split_feature=166
split_gain=14.9867
threshold=1.0000000180025095e-35
decision_type=2
left_child=-1
right_child=-2
leaf_value=-0.0015042382403314789 0.0099161815154210128
leaf_count=1663 249
internal_value=0
internal_count=1912
shrinkage=0.02


Tree=86
num_leaves=2
num_cat=0
split_feature=187
split_gain=36.7241
threshold=0.14583333333333334
decision_type=2
left_child=-1
right_child=-2
leaf_value=-0.023085034386602869 0.0015765872630399047
leaf_count=136 1776
internal_value=0
internal_count=1912
shrinkage=0.02


Tree=87
num_leaves=2
num_cat=0
split_feature=53
split_gain=14.9094
threshold=1.0000000180025095e-35
decision_type=2
left_child=-1
right_child=-2
leaf_value=-0.0024840408429514234 0.0059678218261564409
leaf_count=1364 548
internal_value=0
internal_count=1912
shrinkage=0.02


Tree=88
num_leaves=2
num_cat=0
split_feature=184
split_gain=16.7886
threshold=0.15073529411764711
decision_type=2
left_child=-1
right_child=-2
leaf_value=-0.025327732244184747 0.00065482349788662799
leaf_count=53 1859
internal_value=0
internal_count=1912
shrinkage=0.02


Tree=89
num_leaves=2
num_cat=0
split_feature=187
split_gain=35.7636
threshold=0.31116091438816679
decision_type=2
left_child=-1
right_child=-2
leaf_value=-0.0068738229424389887 0.0051682288870859572
leaf_count=860 1052
internal_value=0
internal_count=1912
shrinkage=0.02


Tree=90
num_leaves=2
num_cat=0
split_feature=184
split_gain=16.5901
threshold=0.46666666666666673
decision_type=2
left_child=-1
right_child=-2
leaf_value=-0.00078039848301961971 0.021227461895616351
leaf_count=1853 59
internal_value=0
internal_count=1912
shrinkage=0.02


Tree=91
num_leaves=2
num_cat=0
split_feature=116
split_gain=14.6227
threshold=1.0000000180025095e-35
decision_type=2
left_child=-1
right_child=-2
leaf_value=0.0021480764429195952 -0.0067580674977245738
leaf_count=1423 489
internal_value=0
internal_count=1912
shrinkage=0.02


Tree=92
num_leaves=2
num_cat=0
split_feature=53
split_gain=14.1986
threshold=1.0000000180025095e-35
decision_type=2
left_child=-1
right_child=-2
leaf_value=-0.002429569580123061 0.0058149220210430771
leaf_count=1364 548
internal_value=0
internal_count=1912
shrinkage=0.02


Tree=93
num_leaves=2
num_cat=0
split_feature=187
split_gain=35.2951
threshold=0.14583333333333334
decision_type=2
left_child=-1
right_child=-2
leaf_value=-0.022821639028890988 0.0015340283907779285
leaf_count=136 1776
internal_value=0
internal_count=1912
shrinkage=0.02


Tree=94
num_leaves=2
num_cat=0
split_feature=187
split_gain=34.6239
threshold=0.35164835164835168
decision_type=2
left_child=-1
right_child=-2
leaf_value=-0.0043037063208387254 0.0080030130937075693
leaf_count=1273 639
internal_value=0
internal_count=1912
shrinkage=0.02


Tree=95
num_leaves=2
num_cat=0
split_feature=184
split_gain=16.1047
threshold=0.15073529411764711
decision_type=2
left_child=-1
right_child=-2
leaf_value=-0.02505116897910244 0.00063554872220441822
leaf_count=53 1859
internal_value=0
internal_count=1912
shrinkage=0.02


Tree=96
num_leaves=2
num_cat=0
split_feature=184
split_gain=16.0738
threshold=0.63333333333333341
decision_type=2
left_child=-1
right_child=-2
leaf_value=-0.00054151949241350002 0.029734119440653291
leaf_count=1883 29
internal_value=0
internal_count=1912
shrinkage=0.02


Tree=97
num_leaves=2
num_cat=0
split_feature=184
split_gain=15.6465
threshold=0.15073529411764711
decision_type=2
left_child=-1
right_child=-2
leaf_value=-0.024850497077059334 0.00062258520974072288
leaf_count=53 1859
internal_value=0
internal_count=1912
shrinkage=0.02


Tree=98
num_leaves=2
num_cat=0
split_feature=166
split_gain=14.1669
threshold=1.0000000180025095e-35
decision_type=2
left_child=-1
right_child=-2
leaf_value=-0.0014679696077763021 0.0096224357882883568
leaf_count=1663 249
internal_value=0
internal_count=1912
shrinkage=0.02


Tree=99
num_leaves=2
num_cat=0
split_feature=187
split_gain=33.8574
threshold=0.14583333333333334
decision_type=2
left_child=-1
right_child=-2
leaf_value=-0.02255405599488261 0.0014899144102126724
leaf_count=136 1776
internal_value=0
internal_count=1912
shrinkage=0.02


Tree=100
num_leaves=2
num_cat=0
split_feature=187
split_gain=32.8777
threshold=0.14583333333333334
decision_type=2
left_child=-1
right_child=-2
leaf_value=-0.022362724750096454 0.0014592982752412323
leaf_count=136 1776
internal_value=0
internal_count=1912
shrinkage=0.02


Tree=101
num_leaves=2
num_cat=0
split_feature=184
split_gain=15.4031
threshold=0.63333333333333341
decision_type=2
left_child=-1
right_child=-2
leaf_value=-0.00053090595650181886 0.02909160949540671
leaf_count=1883 29
internal_value=0
internal_count=1912
shrinkage=0.02


Tree=102
num_leaves=2
num_cat=0
split_feature=184
split_gain=14.9919
threshold=0.15073529411764711
decision_type=2
left_child=-1
right_child=-2
leaf_value=-0.024578768932277617 0.0006033381384115597
leaf_count=53 1859
internal_value=0
internal_count=1912
shrinkage=0.02


Tree=103
num_leaves=2
num_cat=0
split_feature=187
split_gain=32.5431
threshold=0.35164835164835168
decision_type=2
left_child=-1
right_child=-2
leaf_value=-0.0041907773349823194 0.0077340112516969929
leaf_count=1273 639
internal_value=0
internal_count=1912
shrinkage=0.02


Tree=104
num_leaves=2
num_cat=0
split_feature=0
split_gain=16.4859
threshold=1.5000000000000002
decision_type=2
left_child=-1
right_child=-2
leaf_value=-0.0032154748017578574 0.0051075333277164478
leaf_count=1191 721
internal_value=0
internal_count=1912
shrinkage=0.02


Tree=105
num_leaves=2
num_cat=0
split_feature=0
split_gain=15.823
threshold=1.5000000000000002
decision_type=2
left_child=-1
right_child=-2
leaf_value=-0.0031552147771035798 0.0049961895484968537
leaf_count=1191 721
internal_value=0
internal_count=1912
shrinkage=0.02


Tree=106
num_leaves=2
num_cat=0
split_feature=187
split_gain=31.7241
threshold=0.2437665782493369
decision_type=2
left_child=-1
right_child=-2
leaf_value=-0.010578167935213337 0.0029838909649828661
leaf_count=469 1443
internal_value=0
internal_count=1912
shrinkage=0.02


Tree=107
num_leaves=2
num_cat=0
split_feature=0
split_gain=15.152
threshold=1.5000000000000002
decision_type=2
left_child=-1
right_child=-2
leaf_value=-0.0030933014033722749 0.004882065650090554
leaf_count=1191 721
internal_value=0
internal_count=1912
shrinkage=0.02


Tree=108
num_leaves=2
num_cat=0
split_feature=115
split_gain=14.0891
threshold=1.0000000180025095e-35
decision_type=2
left_child=-1
right_child=-2
leaf_value=0.0016254180723579324 -0.008618774138608459
leaf_count=1590 322
internal_value=0
internal_count=1912
shrinkage=0.02


Tree=109
num_leaves=2
num_cat=0
split_feature=116
split_gain=13.6882
threshold=1.0000000180025095e-35
decision_type=2
left_child=-1
right_child=-2
leaf_value=0.0020747964903445777 -0.00656507291437763
leaf_count=1423 489
internal_value=0
internal_count=1912
shrinkage=0.02


Tree=110
num_leaves=2
num_cat=0
split_feature=166
split_gain=13.3768
threshold=1.0000000180025095e-35
decision_type=2
left_child=-1
right_child=-2
leaf_value=-0.0014316254381782512 0.0093332552468344786
leaf_count=1663 249
internal_value=0
internal_count=1912
shrinkage=0.02


Tree=111
num_leaves=2
num_cat=0
split_feature=0
split_gain=14.4227
threshold=1.5000000000000002
decision_type=2
left_child=-1
right_child=-2
leaf_value=-0.0030239177033786848 0.0047555016514924985
leaf_count=1191 721
internal_value=0
internal_count=1912
shrinkage=0.02


Tree=112
num_leaves=2
num_cat=0
split_feature=115
split_gain=13.2428
threshold=1.0000000180025095e-35
decision_type=2
left_child=-1
right_child=-2
leaf_value=0.0015703353432450537 -0.008388225787262768
leaf_count=1590 322
internal_value=0
internal_count=1912
shrinkage=0.02


Tree=113
num_leaves=2
num_cat=0
split_feature=187
split_gain=31.2007
threshold=0.14583333333333334
decision_type=2
left_child=-1
right_child=-2
leaf_value=-0.022039799906475806 0.001407497309712774
leaf_count=136 1776
internal_value=0
internal_count=1912
shrinkage=0.02


Tree=114
num_leaves=2
num_cat=0
split_feature=53
split_gain=13.3537
threshold=1.0000000180025095e-35
decision_type=2
left_child=-1
right_child=-2
leaf_value=-0.0023653825736624705 0.005634038952285491
leaf_count=1364 548
internal_value=0
internal_count=1912
shrinkage=0.02


Tree=115
num_leaves=2
num_cat=0
split_feature=166
split_gain=12.8614
threshold=1.0000000180025095e-35
decision_type=2
left_child=-1
right_child=-2
leaf_value=-0.0014067248912712142 0.0091377063108754025
leaf_count=1663 249
internal_value=0
internal_count=1912
shrinkage=0.02


Tree=116
num_leaves=2
num_cat=0
split_feature=0
split_gain=13.6476
threshold=1.5000000000000002
decision_type=2
left_child=-1
right_child=-2
leaf_value=-0.0029482598030544406 0.0046179569312367946
leaf_count=1191 721
internal_value=0
internal_count=1912
shrinkage=0.02


Tree=117
num_leaves=2
num_cat=0
split_feature=0
split_gain=13.1003
threshold=1.5000000000000002
decision_type=2
left_child=-1
right_child=-2
leaf_value=-0.0028927414526973803 0.0045182991615773643
leaf_count=1191 721
internal_value=0
internal_count=1912
shrinkage=0.02


Tree=118
num_leaves=2
num_cat=0
split_feature=143
split_gain=10.3995
threshold=1.0000000180025095e-35
decision_type=2
left_child=-1
right_child=-2
leaf_value=-0.00035285086041442979 0.029712620886983739
leaf_count=1891 21
internal_value=0
internal_count=1912
shrinkage=0.02


Tree=119
num_leaves=2
num_cat=0
split_feature=187
split_gain=30.6389
threshold=0.31366459627329196
decision_type=2
left_child=-1
right_child=-2
leaf_value=-0.0057460990874590358 0.005317715670661533
leaf_count=965 947
internal_value=0
internal_count=1912
shrinkage=0.02


Tree=120
num_leaves=2
num_cat=0
split_feature=129
split_gain=13.1775
threshold=1.0000000180025095e-35
decision_type=2
left_child=-1
right_child=-2
leaf_value=-0.0017084824960396448 0.0077080825990315472
leaf_count=1589 323
internal_value=0
internal_count=1912
shrinkage=0.02


Tree=121
num_leaves=2
num_cat=0
split_feature=54
split_gain=9.77389
threshold=1.0000000180025095e-35
decision_type=2
left_child=-1
right_child=-2
leaf_value=-0.0024690675160842991 0.0039519784996972975
leaf_count=1191 721
internal_value=0
internal_count=1912
shrinkage=0.02


Tree=122
num_leaves=2
num_cat=0
split_feature=184
split_gain=14.9464
threshold=0.58571428571428574
decision_type=2
left_child=-1
right_child=-2
leaf_value=-0.00056692368664542931 0.026478011830328056
leaf_count=1878 34
internal_value=0
internal_count=1912
shrinkage=0.02


Tree=123
num_leaves=2
num_cat=0
split_feature=115
split_gain=12.592
threshold=1.0000000180025095e-35
decision_type=2
left_child=-1
right_child=-2
leaf_value=0.0015283714070153335 -0.0082062210360935341
leaf_count=1590 322
internal_value=0
internal_count=1912
shrinkage=0.02


Tree=124
num_leaves=2
num_cat=0
split_feature=143
split_gain=9.84707
threshold=1.0000000180025095e-35
decision_type=2
left_child=-1
right_child=-2
leaf_value=-0.00034525427677546184 0.028769802729925173
leaf_count=1891 21
internal_value=0
internal_count=1912
shrinkage=0.02


Tree=125
num_leaves=2
num_cat=0
split_feature=0
split_gain=12.5431
threshold=1.5000000000000002
decision_type=2
left_child=-1
right_child=-2
leaf_value=-0.0028361307457783593 0.0044164469318999592
leaf_count=1191 721
internal_value=0
internal_count=1912
shrinkage=0.02


Tree=126
num_leaves=2
num_cat=0
split_feature=187
split_gain=29.9888
threshold=0.14583333333333334
decision_type=2
left_child=-1
right_child=-2
leaf_value=-0.021800267288319179 0.0013698374859701041
leaf_count=136 1776
internal_value=0
internal_count=1912
shrinkage=0.02


Tree=127
num_leaves=2
num_cat=0
split_feature=184
split_gain=14.4341
threshold=0.36442648361381763
decision_type=2
left_child=-1
right_child=-2
leaf_value=-0.00094753094979908956 0.015265900769632499
leaf_count=1810 102
internal_value=0
internal_count=1912
shrinkage=0.02


Tree=128
num_leaves=2
num_cat=0
split_feature=53
split_gain=12.4634
threshold=1.0000000180025095e-35
decision_type=2
left_child=-1
right_child=-2
leaf_value=-0.00229259006000562 0.0054339687123092584
leaf_count=1364 548
internal_value=0
internal_count=1912
shrinkage=0.02


Tree=129
num_leaves=2
num_cat=0
split_feature=184
split_gain=14.1087
threshold=0.15073529411764711
decision_type=2
left_child=-1
right_child=-2
leaf_value=-0.024244237219489841 0.00057766101250666393
leaf_count=53 1859
internal_value=0
internal_count=1912
shrinkage=0.02


Tree=130
num_leaves=2
num_cat=0
split_feature=115
split_gain=12.0406
threshold=1.0000000180025095e-35
decision_type=2
left_child=-1
right_child=-2
leaf_value=0.0014916318749236359 -0.0080465120202517903
leaf_count=1590 322
internal_value=0
internal_count=1912
shrinkage=0.02


Tree=131
num_leaves=2
num_cat=0
split_feature=116
split_gain=11.7456
threshold=1.0000000180025095e-35
decision_type=2
left_child=-1
right_child=-2
leaf_value=0.0019114204083161535 -0.0061304165027004634
leaf_count=1423 489
internal_value=0
internal_count=1912
shrinkage=0.02


Tree=132
num_leaves=2
num_cat=0
split_feature=184
split_gain=13.9876
threshold=0.63333333333333341
decision_type=2
left_child=-1
right_child=-2
leaf_value=-0.00050734099522487409 0.027737303160341616
leaf_count=1883 29
internal_value=0
internal_count=1912
shrinkage=0.02


Tree=133
num_leaves=2
num_cat=0
split_feature=187
split_gain=29.544
threshold=0.35164835164835168
decision_type=2
left_child=-1
right_child=-2
leaf_value=-0.0040225919479257707 0.0073419986599268352
leaf_count=1273 639
internal_value=0
internal_count=1912
shrinkage=0.02


Tree=134
num_leaves=2
num_cat=0
split_feature=166
split_gain=12.1944
threshold=1.0000000180025095e-35
decision_type=2
left_child=-1
right_child=-2
leaf_value=-0.0013738371002547474 0.008891050676124522
leaf_count=1663 249
internal_value=0
internal_count=1912
shrinkage=0.02


Tree=135
num_leaves=2
num_cat=0
split_feature=184
split_gain=13.6894
threshold=0.15073529411764711
decision_type=2
left_child=-1
right_child=-2
leaf_value=-0.024058560958102049 0.00056530001879755555
leaf_count=53 1859
internal_value=0
internal_count=1912
shrinkage=0.02


Tree=136
num_leaves=2
num_cat=0
split_feature=184
split_gain=13.4819
threshold=0.46666666666666673
decision_type=2
left_child=-1
right_child=-2
leaf_value=-0.00070935410464625307 0.019090087369609765
leaf_count=1853 59
internal_value=0
internal_count=1912
shrinkage=0.02


Tree=137
num_leaves=2
num_cat=0
split_feature=187
split_gain=28.9073
threshold=0.14583333333333334
decision_type=2
left_child=-1
right_child=-2
leaf_value=-0.021592874645293258 0.0013352553480391249
leaf_count=136 1776
internal_value=0
internal_count=1912
shrinkage=0.02


Tree=138
num_leaves=2
num_cat=0
split_feature=184
split_gain=13.2315
threshold=0.15073529411764711
decision_type=2
left_child=-1
right_child=-2
leaf_value=-0.023857128214743905 0.00055117227932051556
leaf_count=53 1859
internal_value=0
internal_count=1912
shrinkage=0.02


Tree=139
num_leaves=2
num_cat=0
split_feature=184
split_gain=13.0486
threshold=0.63333333333333341
decision_type=2
left_child=-1
right_child=-2
leaf_value=-0.00049055228704097194 0.026794370893120582
leaf_count=1883 29
internal_value=0
internal_count=1912
shrinkage=0.02


Tree=140
num_leaves=2
num_cat=0
split_feature=184
split_gain=12.8661
threshold=0.15073529411764711
decision_type=2
left_child=-1
right_child=-2
leaf_value=-0.02368549228370544 0.0005399832831266846
leaf_count=53 1859
internal_value=0
internal_count=1912
shrinkage=0.02


Tree=141
num_leaves=2
num_cat=0
split_feature=129
split_gain=11.9972
threshold=1.0000000180025095e-35
decision_type=2
left_child=-1
right_child=-2
leaf_value=-0.0016373325448502322 0.0073425957206653012
leaf_count=1589 323
internal_value=0
internal_count=1912
shrinkage=0.02


Tree=142
num_leaves=2
num_cat=0
split_feature=184
split_gain=12.5921
threshold=0.36442648361381763
decision_type=2
left_child=-1
right_child=-2
leaf_value=-0.00088902306721750615 0.014224030910318514
leaf_count=1810 102
internal_value=0
internal_count=1912
shrinkage=0.02


Tree=143
num_leaves=2
num_cat=0
split_feature=184
split_gain=12.4908
threshold=0.15073529411764711
decision_type=2
left_child=-1
right_child=-2
leaf_value=-0.023507671318058337 0.00052841396180068416
leaf_count=53 1859
internal_value=0
internal_count=1912
shrinkage=0.02


Tree=144
num_leaves=2
num_cat=0
split_feature=53
split_gain=11.9162
threshold=1.0000000180025095e-35
decision_type=2
left_child=-1
right_child=-2
leaf_value=-0.0022475516293456511 0.005310991584056071
leaf_count=1364 548
internal_value=0
internal_count=1912
shrinkage=0.02


Tree=145
num_leaves=2
num_cat=0
split_feature=184
split_gain=12.2296
threshold=0.63333333333333341
decision_type=2
left_child=-1
right_child=-2
leaf_value=-0.00047509781322070975 0.025947014927798419
leaf_count=1883 29
internal_value=0
internal_count=1912
shrinkage=0.02


Tree=146
num_leaves=2
num_cat=0
split_feature=184
split_gain=12.1619
threshold=0.15073529411764711
decision_type=2
left_child=-1
right_child=-2
leaf_value=-0.023351032553759837 0.00051817462980735681
leaf_count=53 1859
internal_value=0
internal_count=1912
shrinkage=0.02


Tree=147
num_leaves=2
num_cat=0
split_feature=0
split_gain=11.6464
threshold=1.5000000000000002
decision_type=2
left_child=-1
right_child=-2
leaf_value=-0.0027456528031702594 0.0042487923739550652
leaf_count=1191 721
internal_value=0
internal_count=1912
shrinkage=0.02


Tree=148
num_leaves=2
num_cat=0
split_feature=184
split_gain=11.8121
threshold=0.15073529411764711
decision_type=2
left_child=-1
right_child=-2
leaf_value=-0.023182828681276749 0.00050697735631642725
leaf_count=53 1859
internal_value=0
internal_count=1912
shrinkage=0.02


Tree=149
num_leaves=2
num_cat=0
split_feature=53
split_gain=11.4173
threshold=1.0000000180025095e-35
decision_type=2
left_child=-1
right_child=-2
leaf_value=-0.0022035808128195579 0.0051931636822159025
leaf_count=1364 548
internal_value=0
internal_count=1912
shrinkage=0.02


Tree=150
num_leaves=2
num_cat=0
split_feature=184
split_gain=11.7685
threshold=0.58571428571428574
decision_type=2
left_child=-1
right_child=-2
leaf_value=-0.00050498280203772189 0.023489308221577871
leaf_count=1878 34
internal_value=0
internal_count=1912
shrinkage=0.02


Tree=151
num_leaves=2
num_cat=0
split_feature=129
split_gain=11.2393
threshold=1.0000000180025095e-35
decision_type=2
left_child=-1
right_child=-2
leaf_value=-0.0015887203660994828 0.0070977791771809377
leaf_count=1589 323
internal_value=0
internal_count=1912
shrinkage=0.02


Tree=152
num_leaves=2
num_cat=0
split_feature=184
split_gain=11.4888
threshold=0.15073529411764711
decision_type=2
left_child=-1
right_child=-2
leaf_value=-0.023025629086469004 0.00049678959352996831
leaf_count=53 1859
internal_value=0
internal_count=1912
shrinkage=0.02


Tree=153
num_leaves=2
num_cat=0
split_feature=166
split_gain=11.4068
threshold=1.0000000180025095e-35
decision_type=2
left_child=-1
right_child=-2
leaf_value=-0.00133362747317784 0.0085875627235020464
leaf_count=1663 249
internal_value=0
internal_count=1912
shrinkage=0.02


Tree=154
num_leaves=2
num_cat=0
split_feature=54
split_gain=8.73112
threshold=1.0000000180025095e-35
decision_type=2
left_child=-1
right_child=-2
leaf_value=-0.0023463423896711876 0.0037306260857999729
leaf_count=1191 721
internal_value=0
internal_count=1912
shrinkage=0.02


Tree=155
num_leaves=2
num_cat=0
split_feature=187
split_gain=27.9442
threshold=0.35164835164835168
decision_type=2
left_child=-1
right_child=-2
leaf_value=-0.0039313164555086688 0.007125559749965758
leaf_count=1273 639
internal_value=0
internal_count=1912
shrinkage=0.02


Tree=156
num_leaves=2
num_cat=0
split_feature=187
split_gain=27.5339
threshold=0.18089430894308947
decision_type=2
left_child=-1
right_child=-2
leaf_value=-0.020789671541635985 0.0013245348274757776
leaf_count=142 1770
internal_value=0
internal_count=1912
shrinkage=0.02


Tree=157
num_leaves=2
num_cat=0
split_feature=115
split_gain=11.2668
threshold=1.0000000180025095e-35
decision_type=2
left_child=-1
right_child=-2
leaf_value=0.0014421802673129625 -0.0078181054279326465
leaf_count=1590 322
internal_value=0
internal_count=1912
shrinkage=0.02


Tree=158
num_leaves=2
num_cat=0
split_feature=187
split_gain=26.9224
threshold=0.30463917525773204
decision_type=2
left_child=-1
right_child=-2
leaf_value=-0.0067185760902076777 0.0040167019321336005
leaf_count=773 1139
internal_value=0
internal_count=1912
shrinkage=0.02


Tree=159
num_leaves=2
num_cat=0
split_feature=184
split_gain=11.406
threshold=0.36442648361381763
decision_type=2
left_child=-1
right_child=-2
leaf_value=-0.00084894223770070514 0.013525091840209681
leaf_count=1810 102
internal_value=0
internal_count=1912
shrinkage=0.02


Tree=160
num_leaves=2
num_cat=0
split_feature=187
split_gain=26.5602
threshold=0.14583333333333334
decision_type=2
left_child=-1
right_child=-2
leaf_value=-0.021132384060779313 0.0012578065519757904
leaf_count=136 1776
internal_value=0
internal_count=1912
shrinkage=0.02


Tree=161
num_leaves=2
num_cat=0
split_feature=0
split_gain=10.9119
threshold=1.5000000000000002
decision_type=2
left_child=-1
right_child=-2
leaf_value=-0.0026669569503729481 0.0041073383342769892
leaf_count=1191 721
internal_value=0
internal_count=1912
shrinkage=0.02


Tree=162
num_leaves=2
num_cat=0
split_feature=115
split_gain=10.929
threshold=1.0000000180025095e-35
decision_type=2
left_child=-1
right_child=-2
leaf_value=0.0014190020403356829 -0.0077146008117592929
leaf_count=1590 322
internal_value=0
internal_count=1912
shrinkage=0.02


Tree=163
num_leaves=2
num_cat=0
split_feature=184
split_gain=11.1374
threshold=0.63333333333333341
decision_type=2
left_child=-1
right_child=-2
leaf_value=-0.00045356965474814613 0.024821424999879219
leaf_count=1883 29
internal_value=0
internal_count=1912
shrinkage=0.02


Tree=164
num_leaves=2
num_cat=0
split_feature=53
split_gain=10.7304
threshold=1.0000000180025095e-35
decision_type=2
left_child=-1
right_child=-2
leaf_value=-0.0021432640494581968 0.0050302691290226168
leaf_count=1364 548
internal_value=0
internal_count=1912
shrinkage=0.02


Tree=165
num_leaves=2
num_cat=0
split_feature=115
split_gain=10.4419
threshold=1.0000000180025095e-35
decision_type=2
left_child=-1
right_child=-2
leaf_value=0.0013840186358769191 -0.007560391264113603
leaf_count=1590 322
internal_value=0
internal_count=1912
shrinkage=0.02


Tree=166
num_leaves=2
num_cat=0
split_feature=184
split_gain=10.9947
threshold=0.15073529411764711
decision_type=2
left_child=-1
right_child=-2
leaf_value=-0.022813721952238627 0.00048080775919930762
leaf_count=53 1859
internal_value=0
internal_count=1912
shrinkage=0.02


Tree=167
num_leaves=2
num_cat=0
split_feature=184
split_gain=10.7033
threshold=0.15073529411764711
decision_type=2
left_child=-1
right_child=-2
leaf_value=-0.022665800639381981 0.00047110695972256574
leaf_count=53 1859
internal_value=0
internal_count=1912
shrinkage=0.02


Tree=168
num_leaves=2
num_cat=0
split_feature=187
split_gain=25.9477
threshold=0.35164835164835168
decision_type=2
left_child=-1
right_child=-2
leaf_value=-0.0038078453037445519 0.0068462114460153727
leaf_count=1273 639
internal_value=0
internal_count=1912
shrinkage=0.02


Tree=169
num_leaves=2
num_cat=0
split_feature=0
split_gain=10.3105
threshold=1.5000000000000002
decision_type=2
left_child=-1
right_child=-2
leaf_value=-0.00259883811627229 0.0039871529743250918
leaf_count=1191 721
internal_value=0
internal_count=1912
shrinkage=0.02


Tree=170
num_leaves=2
num_cat=0
split_feature=184
split_gain=10.7299
threshold=0.63333333333333341
decision_type=2
left_child=-1
right_child=-2
leaf_value=-0.00044520672664985169 0.024384177194297293
leaf_count=1883 29
internal_value=0
internal_count=1912
shrinkage=0.02


Tree=171
num_leaves=2
num_cat=0
split_feature=184
split_gain=10.4445
threshold=0.36442648361381763
decision_type=2
left_child=-1
right_child=-2
leaf_value=-0.00081423048563595071 0.012936093499843442
leaf_count=1810 102
internal_value=0
internal_count=1912
shrinkage=0.02


Tree=172
num_leaves=2
num_cat=0
split_feature=115
split_gain=10.0564
threshold=1.0000000180025095e-35
decision_type=2
left_child=-1
right_child=-2
leaf_value=0.0013566598987535142 -0.007436309091058726
leaf_count=1590 322
internal_value=0
internal_count=1912
shrinkage=0.02


Tree=173
num_leaves=2
num_cat=0
split_feature=0
split_gain=9.91866
threshold=1.5000000000000002
decision_type=2
left_child=-1
right_child=-2
leaf_value=-0.0025529404015734269 0.0039069341378724825
leaf_count=1191 721
internal_value=0
internal_count=1912
shrinkage=0.02


Tree=174
num_leaves=2
num_cat=0
split_feature=184
split_gain=10.354
threshold=0.15073529411764711
decision_type=2
left_child=-1
right_child=-2
leaf_value=-0.022493167790178927 0.00045979803469657258
leaf_count=53 1859
internal_value=0
internal_count=1912
shrinkage=0.02


Tree=175
num_leaves=2
num_cat=0
split_feature=53
split_gain=10.1256
threshold=1.0000000180025095e-35
decision_type=2
left_child=-1
right_child=-2
leaf_value=-0.0020872969504184924 0.0048813451710869489
leaf_count=1364 548
internal_value=0
internal_count=1912
shrinkage=0.02


Tree=176
num_leaves=2
num_cat=0
split_feature=166
split_gain=10.9243
threshold=1.0000000180025095e-35
decision_type=2
left_child=-1
right_child=-2
leaf_value=-0.0013092124597744209 0.0084063999498203389
leaf_count=1663 249
internal_value=0
internal_count=1912
shrinkage=0.02


Tree=177
num_leaves=2
num_cat=0
split_feature=129
split_gain=10.0353
threshold=1.0000000180025095e-35
decision_type=2
left_child=-1
right_child=-2
leaf_value=-0.0015092478586104922 0.0066964277377281334
leaf_count=1589 323
internal_value=0
internal_count=1912
shrinkage=0.02


Tree=178
num_leaves=2
num_cat=0
split_feature=116
split_gain=9.58728
threshold=1.0000000180025095e-35
decision_type=2
left_child=-1
right_child=-2
leaf_value=0.0017203544266758478 -0.0055981175812429606
leaf_count=1423 489
internal_value=0
internal_count=1912
shrinkage=0.02


Tree=179
num_leaves=2
num_cat=0
split_feature=143
split_gain=9.50772
threshold=1.0000000180025095e-35
decision_type=2
left_child=-1
right_child=-2
leaf_value=-0.00034085307713867447 0.028298312854220402
leaf_count=1891 21
internal_value=0
internal_count=1912
shrinkage=0.02


Tree=180
num_leaves=2
num_cat=0
split_feature=184
split_gain=10.0983
threshold=0.15073529411764711
decision_type=2
left_child=-1
right_child=-2
leaf_value=-0.022368865321769339 0.00045127498164348096
leaf_count=53 1859
internal_value=0
internal_count=1912
shrinkage=0.02


Tree=181
num_leaves=2
num_cat=0
split_feature=166
split_gain=10.4334
threshold=1.0000000180025095e-35
decision_type=2
left_child=-1
right_child=-2
leaf_value=-0.0012819697733885179 0.0082032979648969089
leaf_count=1663 249
internal_value=0
internal_count=1912
shrinkage=0.02


Tree=182
num_leaves=2
num_cat=0
split_feature=187
split_gain=25.5203
threshold=0.18089430894308947
decision_type=2
left_child=-1
right_child=-2
leaf_value=-0.020379168135520591 0.0012571911728258692
leaf_count=142 1770
internal_value=0
internal_count=1912
shrinkage=0.02


Tree=183
num_leaves=2
num_cat=0
split_feature=187
split_gain=24.8102
threshold=0.14583333333333334
decision_type=2
left_child=-1
right_child=-2
leaf_value=-0.020773855414343474 0.0011990734296626888
leaf_count=136 1776
internal_value=0
internal_count=1912
shrinkage=0.02


Tree=184
num_leaves=2
num_cat=0
split_feature=187
split_gain=24.4726
threshold=0.35164835164835168
decision_type=2
left_child=-1
right_child=-2
leaf_value=-0.0037137624613892369 0.0066355455011547692
leaf_count=1273 639
internal_value=0
internal_count=1912
shrinkage=0.02


Tree=185
num_leaves=2
num_cat=0
split_feature=187
split_gain=23.985
threshold=0.14583333333333334
decision_type=2
left_child=-1
right_child=-2
leaf_value=-0.02058094428265593 0.001170478690056374
leaf_count=136 1776
internal_value=0
internal_count=1912
shrinkage=0.02


Tree=186
num_leaves=2
num_cat=0
split_feature=187
split_gain=23.6157
threshold=0.30463917525773204
decision_type=2
left_child=-1
right_child=-2
leaf_value=-0.0063575865675485734 0.0037396557301600849
leaf_count=773 1139
internal_value=0
internal_count=1912
shrinkage=0.02


Tree=187
num_leaves=2
num_cat=0
split_feature=187
split_gain=23.1022
threshold=0.14583333333333334
decision_type=2
left_child=-1
right_child=-2
leaf_value=-0.020369985390996468 0.0011395382153081795
leaf_count=136 1776
internal_value=0
internal_count=1912
shrinkage=0.02


Tree=188
num_leaves=2
num_cat=0
split_feature=187
split_gain=22.6115
threshold=0.35164835164835168
decision_type=2
left_child=-1
right_child=-2
leaf_value=-0.003585798302233319 0.0063568275655749816
leaf_count=1273 639
internal_value=0
internal_count=1912
shrinkage=0.02


Tree=189
num_leaves=2
num_cat=0
split_feature=184
split_gain=10.1669
threshold=0.63333333333333341
decision_type=2
left_child=-1
right_child=-2
leaf_value=-0.0004333432447353458 0.023824655185407738
leaf_count=1883 29
internal_value=0
internal_count=1912
shrinkage=0.02


Tree=190
num_leaves=2
num_cat=0
split_feature=187
split_gain=22.3574
threshold=0.14583333333333334
decision_type=2
left_child=-1
right_child=-2
leaf_value=-0.020192401025804618 0.0011132087456198706
leaf_count=136 1776
internal_value=0
internal_count=1912
shrinkage=0.02


Tree=191
num_leaves=2
num_cat=0
split_feature=143
split_gain=8.71432
threshold=1.0000000180025095e-35
decision_type=2
left_child=-1
right_child=-2
leaf_value=-0.00032976437728469645 0.026911901673164255
leaf_count=1891 21
internal_value=0
internal_count=1912
shrinkage=0.02


Tree=192
num_leaves=2
num_cat=0
split_feature=53
split_gain=9.9305
threshold=1.0000000180025095e-35
decision_type=2
left_child=-1
right_child=-2
leaf_value=-0.0020716129681372401 0.0048384068051486959
leaf_count=1364 548
internal_value=0
internal_count=1912
shrinkage=0.02


Tree=193
num_leaves=2
num_cat=0
split_feature=116
split_gain=9.38989
threshold=1.0000000180025095e-35
decision_type=2
left_child=-1
right_child=-2
leaf_value=0.0017043738460899402 -0.0055491648384712704
leaf_count=1423 489
internal_value=0
internal_count=1912
shrinkage=0.02


Tree=194
num_leaves=2
num_cat=0
split_feature=187
split_gain=21.8956
threshold=0.2437665782493369
decision_type=2
left_child=-1
right_child=-2
leaf_value=-0.0091405683317450324 0.0024139559130060702
leaf_count=469 1443
internal_value=0
internal_count=1912
shrinkage=0.02


Tree=195
num_leaves=2
num_cat=0
split_feature=53
split_gain=9.4335
threshold=1.0000000180025095e-35
decision_type=2
left_child=-1
right_child=-2
leaf_value=-0.0020229068398367957 0.0047098307562805919
leaf_count=1364 548
internal_value=0
internal_count=1912
shrinkage=0.02


Tree=196
num_leaves=2
num_cat=0
split_feature=184
split_gain=9.81758
threshold=0.63333333333333341
decision_type=2
left_child=-1
right_child=-2
leaf_value=-0.00042561288485266268 0.023450666482339403
leaf_count=1883 29
internal_value=0
internal_count=1912
shrinkage=0.02


Tree=197
num_leaves=2
num_cat=0
split_feature=184
split_gain=9.53897
threshold=0.36442648361381763
decision_type=2
left_child=-1
right_child=-2
leaf_value=-0.00078066871609813 0.012379612353557105
leaf_count=1810 102
internal_value=0
internal_count=1912
shrinkage=0.02


Tree=198
num_leaves=2
num_cat=0
split_feature=166
split_gain=9.82431
threshold=1.0000000180025095e-35
decision_type=2
left_child=-1
right_child=-2
leaf_value=-0.0012491406285532868 0.0079563133905496061
leaf_count=1663 249
internal_value=0
internal_count=1912
shrinkage=0.02


Tree=199
num_leaves=2
num_cat=0
split_feature=115
split_gain=9.45567
threshold=1.0000000180025095e-35
decision_type=2
left_child=-1
right_child=-2
leaf_value=0.0013158926281525583 -0.0072409945843748772
leaf_count=1590 322
internal_value=0
internal_count=1912
shrinkage=0.02


Tree=200
num_leaves=2
num_cat=0
split_feature=187
split_gain=21.5622
threshold=0.10555555555555557
decision_type=2
left_child=-1
right_child=-2
leaf_value=-0.022368248490967794 0.00097045519064137861
leaf_count=111 1801
internal_value=0
internal_count=1912
shrinkage=0.02


Tree=201
num_leaves=2
num_cat=0
split_feature=115
split_gain=9.14093
threshold=1.0000000180025095e-35
decision_type=2
left_child=-1
right_child=-2
leaf_value=0.0012917999860532178 -0.007132730038408675
leaf_count=1590 322
internal_value=0
internal_count=1912
shrinkage=0.02


Tree=202
num_leaves=2
num_cat=0
split_feature=166
split_gain=9.49208
threshold=1.0000000180025095e-35
decision_type=2
left_child=-1
right_child=-2
leaf_value=-0.0012296803578374939 0.0078137644663094953
leaf_count=1663 249
internal_value=0
internal_count=1912
shrinkage=0.02


Tree=203
num_leaves=2
num_cat=0
split_feature=184
split_gain=9.4519
threshold=0.15073529411764711
decision_type=2
left_child=-1
right_child=-2
leaf_value=-0.022119812024452772 0.0004286679824091514
leaf_count=53 1859
internal_value=0
internal_count=1912
shrinkage=0.02


Tree=204
num_leaves=2
num_cat=0
split_feature=129
split_gain=9.05605
threshold=1.0000000180025095e-35
decision_type=2
left_child=-1
right_child=-2
leaf_value=-0.0014418741399149396 0.0063558168461238518
leaf_count=1589 323
internal_value=0
internal_count=1912
shrinkage=0.02


Tree=205
num_leaves=2
num_cat=0
split_feature=0
split_gain=8.96081
threshold=6.5000000000000009
decision_type=2
left_child=-1
right_child=-2
leaf_value=0.00083201420286538362 -0.010846429416681879
leaf_count=1779 133
internal_value=0
internal_count=1912
shrinkage=0.02


Tree=206
num_leaves=2
num_cat=0
split_feature=0
split_gain=9.07522
threshold=1.5000000000000002
decision_type=2
left_child=-1
right_child=-2
leaf_value=-0.0024562922479024999 0.0037348313678639677
leaf_count=1191 721
internal_value=0
internal_count=1912
shrinkage=0.02


Tree=207
num_leaves=2
num_cat=0
split_feature=184
split_gain=9.19981
threshold=0.58571428571428574
decision_type=2
left_child=-1
right_child=-2
leaf_value=-0.00044631216547710026 0.020966701294759357
leaf_count=1878 34
internal_value=0
internal_count=1912
shrinkage=0.02


Tree=208
num_leaves=2
num_cat=0
split_feature=154
split_gain=7.0533
threshold=1.0000000180025095e-35
decision_type=2
left_child=-1
right_child=-2
leaf_value=-0.001342310388648929 0.0053197622972012146
leaf_count=1540 372
internal_value=0
internal_count=1912
shrinkage=0.02


Tree=209
num_leaves=2
num_cat=0
split_feature=116
split_gain=8.40499
threshold=1.0000000180025095e-35
decision_type=2
left_child=-1
right_child=-2
leaf_value=0.0016080151207638208 -0.0052770267616778508
leaf_count=1423 489
internal_value=0
internal_count=1912
shrinkage=0.02


Tree=210
num_leaves=2
num_cat=0
split_feature=184
split_gain=9.1896
threshold=0.15073529411764711
decision_type=2
left_child=-1
right_child=-2
leaf_value=-0.021978058529755401 0.00041993929731037882
leaf_count=53 1859
internal_value=0
internal_count=1912
shrinkage=0.02


Tree=211
num_leaves=2
num_cat=0
split_feature=116
split_gain=8.09388
threshold=1.0000000180025095e-35
decision_type=2
left_child=-1
right_child=-2
leaf_value=0.001575846471796338 -0.0051867593663207194
leaf_count=1423 489
internal_value=0
internal_count=1912
shrinkage=0.02


Tree=212
num_leaves=2
num_cat=0
split_feature=187
split_gain=21.2161
threshold=0.31366459627329196
decision_type=2
left_child=-1
right_child=-2
leaf_value=-0.004914434384252599 0.0043654529548772881
leaf_count=965 947
internal_value=0
internal_count=1912
shrinkage=0.02


Tree=213
num_leaves=2
num_cat=0
split_feature=187
split_gain=20.8197
threshold=0.10555555555555557
decision_type=2
left_child=-1
right_child=-2
leaf_value=-0.022208366323850176 0.00094560016114972464
leaf_count=111 1801
internal_value=0
internal_count=1912
shrinkage=0.02


Tree=214
num_leaves=2
num_cat=0
split_feature=0
split_gain=8.74368
threshold=6.5000000000000009
decision_type=2
left_child=-1
right_child=-2
leaf_value=0.00082144028041447896 -0.010735001572851463
leaf_count=1779 133
internal_value=0
internal_count=1912
shrinkage=0.02


Tree=215
num_leaves=2
num_cat=0
split_feature=166
split_gain=9.0765
threshold=1.0000000180025095e-35
decision_type=2
left_child=-1
right_child=-2
leaf_value=-0.0012051934471621912 0.0076355581028588202
leaf_count=1663 249
internal_value=0
internal_count=1912
shrinkage=0.02


Tree=216
num_leaves=2
num_cat=0
split_feature=53
split_gain=8.67041
threshold=1.0000000180025095e-35
decision_type=2
left_child=-1
right_child=-2
leaf_value=-0.0019468817366339239 0.0045101747541676776
leaf_count=1364 548
internal_value=0
internal_count=1912
shrinkage=0.02


Tree=217
num_leaves=2
num_cat=0
split_feature=0
split_gain=8.69692
threshold=1.5000000000000002
decision_type=2
left_child=-1
right_child=-2
leaf_value=-0.0024095295265250268 0.0036541335143909816
leaf_count=1191 721
internal_value=0
internal_count=1912
shrinkage=0.02


Tree=218
num_leaves=2
num_cat=0
split_feature=187
split_gain=20.4781
threshold=0.35164835164835168
decision_type=2
left_child=-1
right_child=-2
leaf_value=-0.0034370227409439287 0.0060323804316936257
leaf_count=1273 639
internal_value=0
internal_count=1912
shrinkage=0.02


Tree=219
num_leaves=2
num_cat=0
split_feature=53
split_gain=8.31072
threshold=1.0000000180025095e-35
decision_type=2
left_child=-1
right_child=-2
leaf_value=-0.0019087511467661986 0.0044116210598408754
leaf_count=1364 548
internal_value=0
internal_count=1912
shrinkage=0.02


Tree=220
num_leaves=2
num_cat=0
split_feature=184
split_gain=8.87769
threshold=0.15073529411764711
decision_type=2
left_child=-1
right_child=-2
leaf_value=-0.021827233820440457 0.00040906140534899878
leaf_count=53 1859
internal_value=0
internal_count=1912
shrinkage=0.02


Tree=221
num_leaves=2
num_cat=0
split_feature=187
split_gain=20.1406
threshold=0.18089430894308947
decision_type=2
left_child=-1
right_child=-2
leaf_value=-0.019097449334295389 0.0010652716156905706
leaf_count=142 1770
internal_value=0
internal_count=1912
shrinkage=0.02


Tree=222
num_leaves=2
num_cat=0
split_feature=187
split_gain=19.6696
threshold=0.10555555555555557
decision_type=2
left_child=-1
right_child=-2
leaf_value=-0.021931567472622183 0.00090565992645841905
leaf_count=111 1801
internal_value=0
internal_count=1912
shrinkage=0.02


Tree=223
num_leaves=2
num_cat=0
split_feature=187
split_gain=19.3988
threshold=0.35164835164835168
decision_type=2
left_child=-1
right_child=-2
leaf_value=-0.0033554818645812135 0.0058592749103522157
leaf_count=1273 639
internal_value=0
internal_count=1912
shrinkage=0.02


Tree=224
num_leaves=2
num_cat=0
split_feature=53
split_gain=8.0435
threshold=1.0000000180025095e-35
decision_type=2
left_child=-1
right_child=-2
leaf_value=-0.0018803327120879699 0.0043388438002141894
leaf_count=1364 548
internal_value=0
internal_count=1912
shrinkage=0.02


Tree=225
num_leaves=2
num_cat=0
split_feature=187
split_gain=19.0786
threshold=0.10555555555555557
decision_type=2
left_child=-1
right_child=-2
leaf_value=-0.021782779354398221 0.00088489605917833273
leaf_count=111 1801
internal_value=0
internal_count=1912
shrinkage=0.02


Tree=226
num_leaves=2
num_cat=0
split_feature=184
split_gain=8.92535
threshold=0.63333333333333341
decision_type=2
left_child=-1
right_child=-2
leaf_value=-0.00040515644804810138 0.022494735234966576
leaf_count=1883 29
internal_value=0
internal_count=1912
shrinkage=0.02


Tree=227
num_leaves=2
num_cat=0
split_feature=0
split_gain=8.4402
threshold=6.5000000000000009
decision_type=2
left_child=-1
right_child=-2
leaf_value=0.00080625848474688664 -0.010579239300914785
leaf_count=1779 133
internal_value=0
internal_count=1912
shrinkage=0.02


Tree=228
num_leaves=2
num_cat=0
split_feature=166
split_gain=8.68996
threshold=1.0000000180025095e-35
decision_type=2
left_child=-1
right_child=-2
leaf_value=-0.0011824865492683241 0.0074666951173676353
leaf_count=1663 249
internal_value=0
internal_count=1912
shrinkage=0.02


Tree=229
num_leaves=2
num_cat=0
split_feature=184
split_gain=8.56531
threshold=0.63333333333333341
decision_type=2
left_child=-1
right_child=-2
leaf_value=-0.00039627321990676271 0.022073574080638553
leaf_count=1883 29
internal_value=0
internal_count=1912
shrinkage=0.02


Tree=230
num_leaves=2
num_cat=0
split_feature=187
split_gain=18.6828
threshold=0.30463917525773204
decision_type=2
left_child=-1
right_child=-2
leaf_value=-0.0057519585326235058 0.003293068776003702
leaf_count=773 1139
internal_value=0
internal_count=1912
shrinkage=0.02


Tree=231
num_leaves=2
num_cat=0
split_feature=187
split_gain=18.4551
threshold=0.10555555555555557
decision_type=2
left_child=-1
right_child=-2
leaf_value=-0.021631285330533351 0.00086288255440852227
leaf_count=111 1801
internal_value=0
internal_count=1912
shrinkage=0.02


Tree=232
num_leaves=2
num_cat=0
split_feature=166
split_gain=8.26608
threshold=1.0000000180025095e-35
decision_type=2
left_child=-1
right_child=-2
leaf_value=-0.0011556058272154371 0.0072740761384832084
leaf_count=1663 249
internal_value=0
internal_count=1912
shrinkage=0.02


Tree=233
num_leaves=2
num_cat=0
split_feature=184
split_gain=8.46319
threshold=0.15073529411764711
decision_type=2
left_child=-1
right_child=-2
leaf_value=-0.021639655723616574 0.0003941241400128129
leaf_count=53 1859
internal_value=0
internal_count=1912
shrinkage=0.02


Tree=234
num_leaves=2
num_cat=0
split_feature=187
split_gain=17.9696
threshold=0.35164835164835168
decision_type=2
left_child=-1
right_child=-2
leaf_value=-0.0032438631677511867 0.0056246491263627534
leaf_count=1273 639
internal_value=0
internal_count=1912
shrinkage=0.02


Tree=235
num_leaves=2
num_cat=0
split_feature=184
split_gain=8.38146
threshold=0.36442648361381763
decision_type=2
left_child=-1
right_child=-2
leaf_value=-0.00073437920791905812 0.011629277561486974
leaf_count=1810 102
internal_value=0
internal_count=1912
shrinkage=0.02


Tree=236
num_leaves=2
num_cat=0
split_feature=184
split_gain=8.21941
threshold=0.15073529411764711
decision_type=2
left_child=-1
right_child=-2
leaf_value=-0.021498519587926888 0.00038547665742788291
leaf_count=53 1859
internal_value=0
internal_count=1912
shrinkage=0.02


Tree=237
num_leaves=2
num_cat=0
split_feature=115
split_gain=8.65615
threshold=1.0000000180025095e-35
decision_type=2
left_child=-1
right_child=-2
leaf_value=0.001259260452283291 -0.0069681767350532331
leaf_count=1590 322
internal_value=0
internal_count=1912
shrinkage=0.02


Tree=238
num_leaves=2
num_cat=0
split_feature=0
split_gain=8.24904
threshold=1.5000000000000002
decision_type=2
left_child=-1
right_child=-2
leaf_value=-0.0023555455912116644 0.0035583372666045604
leaf_count=1191 721
internal_value=0
internal_count=1912
shrinkage=0.02


Tree=239
num_leaves=2
num_cat=0
split_feature=115
split_gain=8.30788
threshold=1.0000000180025095e-35
decision_type=2
left_child=-1
right_child=-2
leaf_value=0.0012312932954760874 -0.0068414204849593999
leaf_count=1590 322
internal_value=0
internal_count=1912
shrinkage=0.02


Tree=240
num_leaves=2
num_cat=0
split_feature=184
split_gain=8.10417
threshold=0.63333333333333341
decision_type=2
left_child=-1
right_child=-2
leaf_value=-0.00038487645062859621 0.021543194318097987
leaf_count=1883 29
internal_value=0
internal_count=1912
shrinkage=0.02


Tree=241
num_leaves=2
num_cat=0
split_feature=129
split_gain=8.03241
threshold=1.0000000180025095e-35
decision_type=2
left_child=-1
right_child=-2
leaf_value=-0.0013661245626811194 0.0059837524067704109
leaf_count=1589 323
internal_value=0
internal_count=1912
shrinkage=0.02


Tree=242
num_leaves=2
num_cat=0
split_feature=187
split_gain=17.8612
threshold=0.10555555555555557
decision_type=2
left_child=-1
right_child=-2
leaf_value=-0.021493915030876921 0.00084201445482066462
leaf_count=111 1801
internal_value=0
internal_count=1912
shrinkage=0.02


Tree=243
num_leaves=2
num_cat=0
split_feature=187
split_gain=17.4034
threshold=0.18089430894308947
decision_type=2
left_child=-1
right_child=-2
leaf_value=-0.018364216662934096 0.00096082045528405366
leaf_count=142 1770
internal_value=0
internal_count=1912
shrinkage=0.02


Tree=244
num_leaves=2
num_cat=0
split_feature=0
split_gain=8.28077
threshold=6.5000000000000009
decision_type=2
left_child=-1
right_child=-2
leaf_value=0.00079910421011495768 -0.010503536120290155
leaf_count=1779 133
internal_value=0
internal_count=1912
shrinkage=0.02


Tree=245
num_leaves=2
num_cat=0
split_feature=187
split_gain=17.0858
threshold=0.35164835164835168
decision_type=2
left_child=-1
right_child=-2
leaf_value=-0.0031730500566451458 0.0054773346215305409
leaf_count=1273 639
internal_value=0
internal_count=1912
shrinkage=0.02


Tree=246
num_leaves=2
num_cat=0
split_feature=115
split_gain=8.05925
threshold=1.0000000180025095e-35
decision_type=2
left_child=-1
right_child=-2
leaf_value=0.0012121235684631258 -0.0067501228717159901
leaf_count=1590 322
internal_value=0
internal_count=1912
shrinkage=0.02


Tree=247
num_leaves=2
num_cat=0
split_feature=53
split_gain=7.61517
threshold=1.0000000180025095e-35
decision_type=2
left_child=-1
right_child=-2
leaf_value=-0.0018357487683405361 0.0042234204220834891
leaf_count=1364 548
internal_value=0
internal_count=1912
shrinkage=0.02


Tree=248
num_leaves=2
num_cat=0
split_feature=0
split_gain=7.95311
threshold=6.5000000000000009
decision_type=2
left_child=-1
right_child=-2
leaf_value=0.00078160848621497989 -0.010319196881294582
leaf_count=1779 133
internal_value=0
internal_count=1912
shrinkage=0.02


Tree=249
num_leaves=2
num_cat=0
split_feature=0
split_gain=8.00068
threshold=1.5000000000000002
decision_type=2
left_child=-1
right_child=-2
leaf_value=-0.0023236849763734846 0.0035042741793909586
leaf_count=1191 721
internal_value=0
internal_count=1912
shrinkage=0.02


Tree=250
num_leaves=2
num_cat=0
split_feature=184
split_gain=7.94975
threshold=0.15073529411764711
decision_type=2
left_child=-1
right_child=-2
leaf_value=-0.021365185787141822 0.00037599661551435245
leaf_count=53 1859
internal_value=0
internal_count=1912
shrinkage=0.02


Tree=251
num_leaves=2
num_cat=0
split_feature=143
split_gain=7.96373
threshold=1.0000000180025095e-35
decision_type=2
left_child=-1
right_child=-2
leaf_value=-0.0003185655078943727 0.025649504946404052
leaf_count=1891 21
internal_value=0
internal_count=1912
shrinkage=0.02


Tree=252
num_leaves=2
num_cat=0
split_feature=166
split_gain=7.96526
threshold=1.0000000180025095e-35
decision_type=2
left_child=-1
right_child=-2
leaf_value=-0.0011369614279304811 0.007143203986419021
leaf_count=1663 249
internal_value=0
internal_count=1912
shrinkage=0.02


Tree=253
num_leaves=2
num_cat=0
split_feature=187
split_gain=16.8975
threshold=0.10555555555555557
decision_type=2
left_child=-1
right_child=-2
leaf_value=-0.021240496603044008 0.00080713985553001512
leaf_count=111 1801
internal_value=0
internal_count=1912
shrinkage=0.02


