tree
version=v2
num_class=1
num_tree_per_iteration=1
label_index=0
max_feature_idx=219
objective=binary sigmoid:1
feature_names=Column_0 Column_1 Column_2 Column_3 Column_4 Column_5 Column_6 Column_7 Column_8 Column_9 Column_10 Column_11 Column_12 Column_13 Column_14 Column_15 Column_16 Column_17 Column_18 Column_19 Column_20 Column_21 Column_22 Column_23 Column_24 Column_25 Column_26 Column_27 Column_28 Column_29 Column_30 Column_31 Column_32 Column_33 Column_34 Column_35 Column_36 Column_37 Column_38 Column_39 Column_40 Column_41 Column_42 Column_43 Column_44 Column_45 Column_46 Column_47 Column_48 Column_49 Column_50 Column_51 Column_52 Column_53 Column_54 Column_55 Column_56 Column_57 Column_58 Column_59 Column_60 Column_61 Column_62 Column_63 Column_64 Column_65 Column_66 Column_67 Column_68 Column_69 Column_70 Column_71 Column_72 Column_73 Column_74 Column_75 Column_76 Column_77 Column_78 Column_79 Column_80 Column_81 Column_82 Column_83 Column_84 Column_85 Column_86 Column_87 Column_88 Column_89 Column_90 Column_91 Column_92 Column_93 Column_94 Column_95 Column_96 Column_97 Column_98 Column_99 Column_100 Column_101 Column_102 Column_103 Column_104 Column_105 Column_106 Column_107 Column_108 Column_109 Column_110 Column_111 Column_112 Column_113 Column_114 Column_115 Column_116 Column_117 Column_118 Column_119 Column_120 Column_121 Column_122 Column_123 Column_124 Column_125 Column_126 Column_127 Column_128 Column_129 Column_130 Column_131 Column_132 Column_133 Column_134 Column_135 Column_136 Column_137 Column_138 Column_139 Column_140 Column_141 Column_142 Column_143 Column_144 Column_145 Column_146 Column_147 Column_148 Column_149 Column_150 Column_151 Column_152 Column_153 Column_154 Column_155 Column_156 Column_157 Column_158 Column_159 Column_160 Column_161 Column_162 Column_163 Column_164 Column_165 Column_166 Column_167 Column_168 Column_169 Column_170 Column_171 Column_172 Column_173 Column_174 Column_175 Column_176 Column_177 Column_178 Column_179 Column_180 Column_181 Column_182 Column_183 Column_184 Column_185 Column_186 Column_187 Column_188 Column_189 Column_190 Column_191 Column_192 Column_193 Column_194 Column_195 Column_196 Column_197 Column_198 Column_199 Column_200 Column_201 Column_202 Column_203 Column_204 Column_205 Column_206 Column_207 Column_208 Column_209 Column_210 Column_211 Column_212 Column_213 Column_214 Column_215 Column_216 Column_217 Column_218 Column_219
feature_infos=[1:22] none none none none none none none none none [0:1] none none [0:1] none none none none none none [0:1] none none none [0:1] none none none [0:1] [0:1] none [0:1] [0:1] [0:1] none none none none none [0:1] [0:1] [0:1] [0:1] none [0:1] [0:1] [0:1] [0:1] [0:1] none none none [0:1] [0:1] [0:1] [0:1] [0:1] [0:1] [0:1] none [0:1] none [0:1] none [0:1] none none [0:1] [0:1] none none [0:1] none [0:1] [0:1] none none none [0:1] none [0:1] none none none none none none [0:1] none none [0:1] none none none none none none [0:1] [0:1] [0:1] [0:1] none [0:1] none none none none none none none none none [0:1] [0:1] [0:1] [0:1] [0:1] [0:1] [0:1] none [0:1] none [0:1] [0:1] none none [0:1] [0:1] [0:1] [0:1] [0:1] none [0:1] none none [0:1] none none none [0:1] [0:1] [0:1] none [0:1] none [0:1] [0:1] none none none [0:1] none none [0:1] [0:1] [0:1] [0:1] [0:1] [0:1] none none none none none none [0:1] [0:1] [0:1] [0:1] [0:1] [0:1] [0:1] [0:1] none [0:1] [0:1] [0:1] [0:1] [0:1] none none [1:1852] [0:265] [0.31168831168831168:0.44444444444444442] [0:1] [0:0.72222222222222221] [0.14999999999999999:0.57692307692307687] [0:1] [0:1] none [0:1] none [0:1] none [0:1] none none none none none [0:1] none none [0:1] none none none none none none none none none [0:1] [0:1] [0:1] [0:1] [0:1] none [0:14194.91906662459]
tree_sizes=265 271 274 273 270 269 274 269 270 270 275 276 276 271 276 271 275 269 275 276 272 276 275 276 271 272 272 268 273 270 274 272 272 272 275 276 272 272 272 275 275 276 276 275 273 276 275 275 275 270 275 275 272 272 275 271 272 269 272 276 272 276 274 272 274 276 272 272 272 275 272 272 275 273 272 272 274 276 276 267 276 274 271 271 275 272 276 271 275 276 271 276 272 276 275 270 272 271 272 276 273 275 272 276 277 276 272 274 273 274 272 277 273 273 270 274 277 277 276 273 277 273 277 277 275 277 273 276 273 273 275 273 269 271 274 273 277 274 273 277 273 276 277 276 276 277 276 277 276 277 276 273 273 276 276 277 276 273 277 273 276 277 269 273 277 273 273 275 274 274 273 276 273 276 273 273 274 273 271 277 276 271 275 274 275 272 276 273 272 271 277 273 276 273 272 277 277 270 276 277 277 274 272 276 273 275 276 277 277 274 275 273 274 275 272 273 276 274 273 272 270 273 276 277 272 274 273 276 277 271 275 271 277 273 273 277 271 276 277 271 274 273 277 273 272 273 273 277 273 274 272 277 274 277 277 276 274 277 277 276 274 274 276 277 274 272 275 274 276 274 273 275 274 276 277 271 274 273 276 272 273 276 277 271 272 273 276 274 274 273 273 275 273 273 277 271 277 271 276 273 274 274 273 274 277 277 275 273 273 276 272 273 274 272 277 274 272 273 274 275 271 274 274 273 273 273 273 273 271 274 274 274 275 277 273 276 272 273 275 273 274 273 277 268 273 273 278 273 276 271 272 275 273 272 273 272 272 272 273 275 273 278 273 270 273 278 276 276 273 273 273 276 272 273 271 273 277 274 272 275 273 277 271 272 273 274 273 274 277 277 278 277 275 272 275 274 273 274 273 271 277 278 277 272 274 273 278 274 272 274 273 276 272 276 278 274 275 271 273 276 273 275 276 276 273 274 275 274 274 272 273 276 277 278 274 274 277 271 273 273 275 272 273 275 277 275 275 276 271 275 273 273 270 277 277 276 273 275 272 274 276 274 272 277 271 275 278 272 271 276 272 277 276 274 275 272 273 277 276 274 276 278 276 273 271 275 272 276 272 273 275 276 275 276 275 277 273 276 275 274 274 278 273 278 275 271 275 277 272 273 270 271 277 273 275 275 274 273 272 272 275 275 276 273 276 273 275 277 275 274 276 277 276 273 276 273 270 271 277 273 275 275 275 276 272 274 275 276 276 273 273 277 274 276 273 273 274 276 274 278 276 276 273 275 275 276 272 273 271 272 276 273 276 275 276 278 277 272 275 278 274 273 274 273 276 274 275 275 278 272 278 277 277 273 275 276 272 273 276 276 276 274 271 274 275 276 276 272 273 275 272 273 278 276 276 274 271 276 271 274 277 275 272 272 276 275 276 275 274 273 274 276 274 277 275 276 276 276 275 275 275 274 277 275 276 275 275 276 276 277 271 273 276 271 276 275 272 273 275 273 276 272 271 276 276 272 276 274 273 277 278 272 274 278 276 273 275 271 276 276 275 277 278 276 272 275 271 273 275 276 274 276 277 275 276 276 277 275 275 278 273 272 271 275 275 275 273 276 276 275 274 273 277 270 274 277 276 274 273 276 276 274 276 274 275 277 275 277 276 277 276 275 276 275 273 278 278 273 273 276 272 277 271 273 276 272 275 276 276 271 275 271 278 271 272 273 275 275 276 276 276 275 272 276 273 276 273 271 278 276 278 276 272 275 273 276 275 276 276 278 275 270 277 274 273 275 275 276 277 276 276 273 276 275 271 275 276 277 275 271 277 276 273 276 273 272 269 275 277 272 276 275 276 276 273 275 276 276 276 278 275 275 273 271 272 274 276 277 276 276 276 272 277 277 275 275 271 275 276 270 276 276 277 276 275 278 272 275 278 274 275 272 278 271 276 276 275 272 276 276 273 277 276 276 276 276 272 272 278 274 276 276 275 276 276 277 276 271 268 276 272 276 277 275 271 276 273 271 277 274 275 274 273 277 275 276 273 276 278 275 276 276 275 278 272 275 276 276 276 272 276 273 271 272 273 276 275 277 275 276 271 278 276 273 276 275 277 272 277 276 276 277 275 276 273 275 275 278 275 276 273 271 276 272 276 277 276 276 276 276 276 275 271 274 278 275 273 273 277 277 274 275 271 271 271 278 276 273 276 276 276 274 276 276 276 273 277 277 277 276 275 276 272 272 276 275 278 271 274 278 275 272 276 276 276 274 277 275 276 275 277 277 274 276 273 277 276 278 277 277 276 276 278 276 272 279 277 278 279 276 274 272 276 274 274 273 279 276 278 277 272 275 278 273 275 279 276 276 277 273 277 277 278 279 277 276 274 279 277 277 277 277 273 279 278 272 277 276 277 277 275 274 279 273 274 274 277 278 277 276 279 272 278 277 277 278 276 276 276 276 274 277 278 277 272 277 277 276 279 279 277 276 277 276 273 274 272 270 277 278 276 273 277 279 278 274 278 275 279 277 272 277 274 277 276 277 276 277 274 277 276 277 273 276 279 272 276 279 276 278 277 275 278 273 276 277 277 278 276 272 273 277 275 276 277 277 278 276 276 274 277 277 270 278 274 277 277 276 278 276 277 276 275 277 279 276 278 276 278 276 278 273 274 272 278 277 276 278 272 279 276 277 277 279 278 277 273 276 278 277 277 277 278 278 279 274 276 274 275 272 273 279 277 278 273 276 279 278 279 277 277 276 278 276 276 272 276 278 277 272 276 277 279 278 279 275 278 276 274 277 278 277 279 274 279 277 273 278 272 276 277 276 277 278 276 278 273 278 276 276 275 278 275 277 277 273 277 278 277 278 278 275 279 272 277 277 273 278 276 275 278 273 278 278 277 277 279 278 277 276 279 276 278 275 273 276 270 274 277 279 278 274 277 272 278 277 279 275 277 277 273 277 276 272 278 273 279 278 277 279 277 277 278 273 275 279 278 276 274 277 277 272 271 275 279 278 277 278 279 276 277 278 279 276 279 272 277 275 278 274 276 272 276 276 276 273 277 273 278 278 277 274 279 277 277 277 277 277 279 276 275 277 277 274 278 279 276 278 273 278 277 272 277 278 277 278 278 277 278 277 278 278 277 276 278 275 277 272 273 274 277 277 275 278 274 277 278 278 276 272 278 279 275 276 279 278 276 278 279 277 276 277 276 277 279 277 277 278 279 274 273 278 274 278 272 277 278 278 279 277 277 279 278 277 276 274 277 271 278 276 273 275 278 277 279 278 278 275 276 278 275 279 277 278 272 278 276 277 272 274 277 278 278 276 278 277 279 278 275 277 278 273 274 278 276 277 276 275 279 279 277 278 279 274 278 275 278 278 278 277 279 279 276 278 273 273 278 278 277 273 274 277 277 276 278 279 278 277 274 278 277 273 277 276 278 276 278 279 273 277 279 277 279 277 278 278 273 277 277 276 274 278 273 273 278 279 277 276 279 275 277 278 279 277 278 277 277 277 276 276 273 278 277 277 276 278 272 274 275 273 276 279 276 279 277 278 274 278 278 279 278 278 278 277 277 279 279 273 273 278 274 278 278 273 278 277 274 272 273 277 276 279 279 278 277 278 272 275 273 276 276 276 277 279 279 277 278 277 278 279 277 272 278 273 273 276 280 278 278 274 277 277 278 280 279 275 278 278 279 274 274 279 279 278 278 274 275 280 278 279 280 279 274 278 279 280 279 278 279 277 275 274 279 280 275 278 278 278 271 274 279 279 279 276 276 280 277 275 278 278 279 277 277 279 278 280 279 274 278 277 279 275 279 280 279 278 280 278 277 278 279 273 274 278 279 278 279 279 280 274 277 276 277 274 278 279 278 279 274 278 279 278 274 275 274 277 278 280 278 279 278 280 279 279 277 275 279 278 278 279 274 280 279 274 278 279 280 278 278 273 278 278 278 274 279 272 279 280 279 280 279 277 274 278 274 278 277 280 276 279 278 278 280 277 277 279 278 279 278 273 280 276 279 278 274 274 278 273 277 279 280 278 279 279 277 273 279 279 280 278 273 280 280 278 278 280 279 277 273 278 279 280 275 280 275 278 274 278 279 279 279 280 279 278 274 279 279 278 279 277 279 277 279 280 274 274 274 273 280 280 279 278 273 277 279 279 280 277 279 279 278 280 279 279 278 274 277 280 275 279 279 278 279 278 280 280 272 278 277 280 280 274 275 274 280 279 277 279 278 274 278 277 278 278 278 279 277 279 274 280 274 279 278 279 280 273 274 275 278 278 279 280 280 275 278 274 273 280 277 279 273 279 277 280 276 279 280 278 280 278 279 279 278 275 278 279 276 278 278 278 278 274 278 280 278 274 277 274 278 279 273 279 280 280 273 279 278 279 276 279 280 280 279 279 279 279 278 279 279 279 278 275 278 274 274 278 278 280 279 279 279 274 280 275 280 276 280 277 273 279 277 274 277 277 279 279 274 279 278 276 280 279 277 279 280 280 279 278 278 274 279 277 274 279 274 278 277 279 280 279 278 277 280 278 279 274 276 279 275 274 278 277 278 278 275 278 276 280 280 277 273 279 279 278 274 278 274 279 279 280 275 280 279 279 278 277 279 276 279 275 279 274 274 278 279 279 279 279 279 280 279 280 274 278 279 273 280 279 276 280 278 279 278 279 277 273 278 274 278 279 279 274 280 280 278 280 279 279 275 280 277 278 278 278 278 277 279 276 279 279 280 277 274 276 280 279 280 274 279 279 274 279 275 273 274 279 276 277 274 279 279 273 275 279 277 274 278 280 279 279 280 279 279 280 279 278 279 274 278 277 278 280 279 278 278 280 279 279 277 280 279 279 279 274 274 280 275 273 274 277 276 279 279 280 279 279 280 279 279 279 279 279 279 279 279 280 276 280 274 278 278 273 273 274 278 280 279 279 277 277 279 278 279 274 274 280 273 278 279 278 272 274 279 280 280 279 277 279 275 277 280 278 279 279 279 278 280 279 277 279 278 278 274 280 275 278 278 274 278 278 274 280 280 278 279 278 279 273 274 279 280 279 279 274 279 279 279 275 279 279 274 277 280 278 280 280 279 279 279 280 278 277 278 277 280 277 279 277 279 278 280 273 274 275 277 273 279 279 279 280 280 278 279 276 280 276 278 280 279 279 279 279 273 279 278 279 277 280 278 280 273 274 279 274 279 277 280 279 274 277 280 270 278 278 278 280 279 278 279 274 278 275 278 275 280 273 278 280 277 275 278 278 280 277 279 277 276 273 279 278 275 280 279 278 278 273 278 279 278 279 277 280 278 279 279 278 280 279 279 278 275 274 274 275 278 279 278 278 279 279 278 279 279 280 277 278 279 278 279 279 280 274 274 275 272 278 278 279 278 277 280 275 280 278 279 279 277 278 273 275 280 274 279 275 279 277 279 278 280 278 279 279 280 278 279 273 280 279 279 278 277 279 279 279 280 278 275 277 275 279 274 280 279 279 274 279 279 278 275 279 280 275 280 278 279 278 278 279 280 278 278 280 273 276 280 278 278 280 274 272 279 275 279 278 280 279 279 278 273 275 278 280 279 279 276 279 278 279 274 277 273 275 279 279 277 279 278 279 280 279 278 274 280 277 280 279 279 278 280 279 280 273 274 273 278 278 279 278 280 280 275 278 275 279 278 280 272 278 279 278 279 279 278 279 280 278 280 279 276 280 280 273 274 277 280 278 274 279 280 279 278 275 277 278 280 279 274 279 278 278 278 274 275 274 278 278 279 280 274 279 279 279 278 278 280 277 279 276 280 278 278 280 279 279 276 279 279 277 274 280 278 279 279 275 273 278 278 280 279 279 279 275 279 277 279 279 280 274 277 274 275 278 280 280 278 280 279 277 279 280 278 278 275 274 277 274 279 274 278 275 279 279 280 273 279 277 279 279 278 279 280 277 280 279 273 278 279 275 279 274 279 274 278 276 279 275 277 279 280 277 279 273 278 274 280 280 279 280 279 275 275 274 275 275 274 277 274 277 277 274 280 278 280 279 273 280 280 279 280 279 275 280 279 280 279 273 280 278 278 279 277 279 273 274 274 276 279 275 278 278 274 279 275 279 278 280 280 278 275 274 277 280 277 280 279 275 278 275 275 279 277 280 280 279 274 279 274 280 277 277 280 278 279 278 279 274 275 274 279 279 278 276 275 275 280 280 280 275 274 278 280 276 279 277 275 276 275 280 277 278 279 279 280 280 278 279 280 278 279 279 279 274 277 279 273 280 279 275 275 279 275 273 275 274 275 277 279 280 280 280 280 279 279 279 272 279 275 276 277 280 271 274 279 279 275 279 278 276 278 278 280 276 279 278 275 279 276 279 279 279 280 278 279 280 275 275 279 276 280 275 274 274 276 279 277 279 275 280 275 280 279 275 280 279 280 275 275 279 280 280 278 275 277 279 280 279 275 280 279 278 274 275 275 275 275 279 275 275 277 278 279 277 280 280 278 278 279 279 279 279 279 279 278 279 275 279 280 275 274 280 278 279 279 280 278 277 274 278 276 276 280 275 272 279 273 279 280 279 280 277 278 280 279 274 277 275 275 278 278 275 273 275 280 279 274 274 279 279 275 280 275 278 280 274 279 278 280 280 276 280 279 277 280 279 278 279 275 279 275 276 278 275 280 275 278 276 278 280 278 279 279 279 278 275 275 280 278 280 279 280 279 279 275 275 274 279 280 277 278 274 278 280 278 279 278 280 275 280 280 280 276 280 275 279 276 280 276 275 279 279 275 275 274 277 275 278 276 278 280 272 277 277 278 278 276 275 280 273 279 279 280 280 280 275 276 275 279 280 279 280 275 272 279 275 280 280 280 275 279 278 278 278 275 279 275 278 276 277 275 280 279 272 279 280 279 278 279 277 275 276 277 274 275 278 279 278 279 279 278 275 277 279 278 277 273 275 280 279 276 273 278 277 280 277 274 278 274 280 279 280 279 277 278 278 280 274 276 279 275 279 280 279 280 279 274 279 277 275 280 274 275 279 279 279 279 273 275 278 278 276 280 278 273 275 280 275 277 279 275 280 279 280 277 280 278 280 280 275 273 277 275 279 275 279 278 275 280 279 277 279 280 279 276 274 277 278 274 274 278 276 277 274 280 276 279 278 275 280 278 279 274 280 279 278 280 275 279 279 280 279 280 277 275 274 280 281 278 276 275 280 276 276 276 274 278 277 279 279 280 280 275 277 279 275 274 273 278 278 279 275 280 274 277 280 279 279 279 277 280 278 275 279 279 274 275 279 280 273 279 279 275 276 278 278 275 279 279 276 278 273 274 276 279 281 279 278 280 278 275 275 279 280 278 278 280 278 275 278 273 280 279 279 275 274 274 273 276 277 274 279 279 279 275 276 273 278 280 280 275 278 277 274 280 273 279 275 280 274 281 279 280 274 280 280 273 275 274 279 279 273 279 272 278 278 275 275 277 279 279 279 280 276 275 280 280 275 278 277 279 278 275 279 279 280 279 280 275 279 276 277 274 280 279 273 274 278 271 277 277 280 277 279 280 279 273 278 275 279 275 276 275 278 278 280 278 279 275 278 275 278 276 280 278 280 278 280 279 274 280 279 275 273 278 273 274 280 279 278 274 275 278 273 280 276 275 280 273 280 275 274 279 280 281 275 279 280 277 277 273 280 279 278 278 280 274 276 273 278 273 279 279 277 274 273 279 277 278 278 279 272 278 280 276 276 280 275 280 280 279 275 275 279 274 275 276 275 274 279 273 277 276 274 279 275 278 275 273 273 275 280 275 278 274 276 275 275 280 278 279 279 278 280 278 280 280 279 280 275 278 280 275 274 273 274 279 279 275 272 278 272 276 280 279 277 272 278 280 279 280 275 276 276 278 279 279 275 275 279 276 276 279 280 281 278 279 278 280 280 278 280 280 280 280 277 280 278 276 278 278 277 279 275 277 280 276 276 280 279 274 273 280 275 277 274 274 277 275 279 273 275 280 274 277 275 280 274 278 279 280 275 279 277 274 278 279 275 278 280 275 279 273 273 273 279 279 280 273 278 271 274 280 280 273 273 275 278 278 280 279 275 279 280 279 281 278 274 271 272 273 278 273 275 276 274 277 280 275 279 280 277 280 278 280 280 280 280 278 275 279 274 278 278 280 278 279 273 274 275 280 276 275 279 273 276 277 275 277 279 275 275 275 278 277 278 275 275 280 279 280 278 278 279 280 276 275 278 281 280 280 280 278 280 275 277 277 280 274 280 279 279 273 280 278 281 273 275 275 271 280 280 278 273 274 273 275 280 274 276 278 278 275 278 275 274 275 278 278 275 272 273 280 273 274 278 279 278 276 279 273 277 278 275 279 279 277 280 279 276 275 276 280 275 277 275 281 276 279 276 280 280 279 278 279 279 276 279 279 275 279 277 279 281 278 276 275 278 279 280 275 274 273 280 279 273 280 273 280 279 279 279 278 277 272 275 275 274 273 279 276 280 280 278 276 275 280 273 272 280 276 277 279 275 281 275 278 280 278 274 279 276 279 276 279 278 276 275 280 277 272 273 280 275 275 273 276 272 279 279 280 280 278 280 279 281 278 277 280 275 275 275 280 278 278 279 279 276 275 274 277 280 277 279 278 280 280 273 279 274 279 280 273 279 274 279 280 280 276 277 273 278 280 273 280 275 275 273 277 280 275 278 279 279 278 279 279 275 274 274 278 275 276 279 273 279 278 275 281 275 280 279 279 279 278 274 280 279 274 273 275 276 274 272 275 274 279 277 272 273 280 280 278 276 273 275 277 281 273 280 273 274 279 276 275 279 280 279 277 271 273 278 280 273 281 278 278 280 278 280 275 279 277 273 278 280 275 274 272 276 273 280 281 277 276 273 274 278 278 275 273 275 278 279 276 280 280 277 280 274 280 279 279 280 278 279 275 278 279 279 273 275 272 275 280 280 274 273 274 279 273 275 279 279 276 279 276 280 280 279 274 280 274 279 274 275 280 271 280 280 275 280 276 279 274 278 275 275 279 280 273 280 281 278 274 279 280 278 272 278 276 275 276 277 274 275 275 280 279 274 279 273 275 278 279 280 279 278 278 275 280 273 279 277 272 279 278 280 280 277 274 280 280 272 277 281 274 276 275 275 274 275 277 277 273 275 278 274 278 279 280 279 279 277 280 278 279 273 275 272 276 279 275 273 280 279 279 279 274 280 279 278 274 276 275 275 279 276 280 275 276 280 275 273 278 280 280 278 277 280 275 280 278 276 280 277 277 278 278 273 274 273 276 278 279 279 273 280 279 278 279 272 273 279 277 280 280 273 280 279 273 280 274 280 280 279 272 275 275 281 279 278 278 275 274 280 273 274 270 275 280 281 277 274 274 279 277 275 276 279 276 279 276 275 273 274 275 276 275 274 280 280 275 280 273 280 272 274 273 279 280 279 279 275 271 272 278 273 276 275 278 280 280 278 281 278 279 278 274 279 280 280 279 280 272 273 273 274 279 276 277 274 280 273 279 278 276 280 274 273 279 280 278 276 280 280 272 278 279 280 278 279 276 277 273 277 281 274 275 279 279 276 274 276 272 280 280 275 271 280 275 276 280 279 279 280 275 276 273 279 273 275 273 274 275 274 273 273 272 278 274 278 275 279 278 274 272 277 277 272 279 273 271 276 278 280 274 278 281 273 280 279 280 279 280 280 279 274 273 275 274 278 279 274 279 275 274 280 275 279 280 275 275 280 275 277 279 280 273 281 273 278 278 279 273 278 271 276 273 279 274 279 280 272 278 273 279 280 280 279 279 278 275 275 277 278 278 280 278 275 274 279 279 281 279 277 276 281 279 278 279 279 274 276 274 278 278 280 272 280 273 279 278 280 274 274 280 275 275 280 278 273 279 278 274 273 279 274 274 278 276 281 277 273 279 275 278 275 276 275 276 277 280 279 278 280 280 280 278 279 274 279 279 272 275 275 279 273 281 275 277 273 273 274 276 273 273 279 280 277 280 273 279 276 279 278 281 280 275 273 276 281 280 278 276 278 279 279 278 276 279 280 275 280 278 273 275 276 275 279 276 276 280 274 275 273 274 273 274 273 278 274 277 280 273 275 277 281 274 275 276 280 274 279 279 273 280 275 274 279 279 280 279 273 274 273 275 280 280 279 280 280 276 278 278 273 275 277 280 273 274 278 278 275 279 273 278 279 280 279 275 277 273 278 276 276 276 277 276 275 276 276 279 280 280 277 275 279 279 280 280 277 280 275 274 275 280 278 272 273 279 280 273 278 281 273 273 274 273 274 279 279 281 279 275 275 273 271 279 280 280 280 280 280 276 274 275 275 274 277 272 275 273 273 276 276 278 273 277 278 279 273 277 278 274 279 281 280 275 276 277 275 275 280 276 280 273 280 272 279 274 280 279 280 278 273 278 279 273 278 279 274 275 273 275 272 275 280 276 273 281 273 274 280 273 280 276 280 276 276 271 275 278 281 280 279 275 274 272 278 273 278 280 280 276 275 279 280 279 275 279 279 280 279 280 280 277 275 278 278 280 280 274 276 281 279 273 276 276 280 273 274 273 274 273 275 280 273 277 275 275 272 280 273 275 279 276 278 273 278 279 279 276 280 279 272 273 274 272 273 281 280 278 272 279 274 279 276 276 280 275 279 275 280 280 273 273 274 277 280 280 278 275 277 275 278 280 281 278 281 280 277 276 274 280 279 277 274 276 277 278 274 276 275 276 280 273 274 280 278 275 279 279 279 280 275 275 280 275 279 280 279 271 277 277 280 280 272 279 280 280 274 278 281 273 277 274 280 279 273 273 277 273 280 275 274 274 279 280 280 272 279 280 276 280 274 279 274 275 274 272 274 279 275 275 274 273 281 274 280 280 281 272 280 277 279 274 279 280 271 280 279 278 274 276 275 275 277 275 277 276 279 279 273 280 275 273 275 281 275 280 277 277 279 280 280 274 274 273 280 277 274 281 280 278 279 279 277 276 273 278 280 274 279 281 278 279 280 278 276 278 278 276 280 275 276 275 278 278 275 279 277 277 270 274 274 280 277 279 275 276 273 279 273 281 280 277 281 273 276 280 272 274 280 279 273 280 281 271 273 273 277 275 273 278 281 275 276 279 280 281 279 275 280 280 276 275 273 276 278 276 278 273 280 281 279 280 274 275 280 280 277 278 276

Tree=0
num_leaves=2
num_cat=0
split_feature=187
split_gain=75.8902
threshold=0.24807692307692311
decision_type=2
left_child=-1
right_child=-2
leaf_value=-0.8324078627426974 -0.81288789921007065
leaf_count=512 1402
internal_value=0
internal_count=1914
shrinkage=1


Tree=1
num_leaves=2
num_cat=0
split_feature=184
split_gain=35.6572
threshold=0.53571428571428581
decision_type=2
left_child=-1
right_child=-2
leaf_value=-0.00089806461900420657 0.039073952889128287
leaf_count=1871 43
internal_value=0
internal_count=1914
shrinkage=0.02


Tree=2
num_leaves=2
num_cat=0
split_feature=166
split_gain=26.8147
threshold=1.0000000180025095e-35
decision_type=2
left_child=-1
right_child=-2
leaf_value=-0.0019690849723990505 0.013399875109136733
leaf_count=1669 245
internal_value=0
internal_count=1914
shrinkage=0.02


Tree=3
num_leaves=2
num_cat=0
split_feature=54
split_gain=23.2783
threshold=1.0000000180025095e-35
decision_type=2
left_child=-1
right_child=-2
leaf_value=-0.003670953621881007 0.0062389654059555868
leaf_count=1205 709
internal_value=0
internal_count=1914
shrinkage=0.02


Tree=4
num_leaves=2
num_cat=0
split_feature=187
split_gain=73.1565
threshold=0.24807692307692311
decision_type=2
left_child=-1
right_child=-2
leaf_value=-0.014092555258317334 0.005106782132067356
leaf_count=512 1402
internal_value=0
internal_count=1914
shrinkage=0.02


Tree=5
num_leaves=2
num_cat=0
split_feature=184
split_gain=33.695
threshold=0.41666666666666674
decision_type=2
left_child=-1
right_child=-2
leaf_value=-0.0012543387032148022 0.026446506622642838
leaf_count=1828 86
internal_value=0
internal_count=1914
shrinkage=0.02


Tree=6
num_leaves=2
num_cat=0
split_feature=53
split_gain=21.4791
threshold=1.0000000180025095e-35
decision_type=2
left_child=-1
right_child=-2
leaf_value=-0.0029109486103529132 0.0072611950258035327
leaf_count=1367 547
internal_value=0
internal_count=1914
shrinkage=0.02


Tree=7
num_leaves=2
num_cat=0
split_feature=187
split_gain=70.541
threshold=0.24807692307692311
decision_type=2
left_child=-1
right_child=-2
leaf_value=-0.013891163948229028 0.004995614299447601
leaf_count=512 1402
internal_value=0
internal_count=1914
shrinkage=0.02


Tree=8
num_leaves=2
num_cat=0
split_feature=184
split_gain=32.4456
threshold=0.53571428571428581
decision_type=2
left_child=-1
right_child=-2
leaf_value=-0.0008687142972451903 0.036802787903519672
leaf_count=1871 43
internal_value=0
internal_count=1914
shrinkage=0.02


Tree=9
num_leaves=2
num_cat=0
split_feature=187
split_gain=68.0209
threshold=0.24807692307692311
decision_type=2
left_child=-1
right_child=-2
leaf_value=-0.013692667028263852 0.004887228180195523
leaf_count=512 1402
internal_value=0
internal_count=1914
shrinkage=0.02


Tree=10
num_leaves=2
num_cat=0
split_feature=116
split_gain=35.942
threshold=1.0000000180025095e-35
decision_type=2
left_child=-1
right_child=-2
leaf_value=0.0035396961835129845 -0.0099893439181651233
leaf_count=1412 502
internal_value=0
internal_count=1914
shrinkage=0.02


Tree=11
num_leaves=2
num_cat=0
split_feature=116
split_gain=34.6081
threshold=1.0000000180025095e-35
decision_type=2
left_child=-1
right_child=-2
leaf_value=0.0034641197356122884 -0.0098283373784760052
leaf_count=1412 502
internal_value=0
internal_count=1914
shrinkage=0.02


Tree=12
num_leaves=2
num_cat=0
split_feature=116
split_gain=33.3237
threshold=1.0000000180025095e-35
decision_type=2
left_child=-1
right_child=-2
leaf_value=0.0033902747182149745 -0.0096697100489755387
leaf_count=1412 502
internal_value=0
internal_count=1914
shrinkage=0.02


Tree=13
num_leaves=2
num_cat=0
split_feature=184
split_gain=30.6204
threshold=0.38750000000000007
decision_type=2
left_child=-1
right_child=-2
leaf_value=-0.0012578788253643032 0.023991803043077346
leaf_count=1821 93
internal_value=0
internal_count=1914
shrinkage=0.02


Tree=14
num_leaves=2
num_cat=0
split_feature=116
split_gain=31.9734
threshold=1.0000000180025095e-35
decision_type=2
left_child=-1
right_child=-2
leaf_value=0.0033115008407602581 -0.0094989588788801493
leaf_count=1412 502
internal_value=0
internal_count=1914
shrinkage=0.02


Tree=15
num_leaves=2
num_cat=0
split_feature=187
split_gain=66.0889
threshold=0.2834821428571429
decision_type=2
left_child=-1
right_child=-2
leaf_value=-0.010306574712780856 0.0063105130679914677
leaf_count=736 1178
internal_value=0
internal_count=1914
shrinkage=0.02


Tree=16
num_leaves=2
num_cat=0
split_feature=54
split_gain=21.0024
threshold=1.0000000180025095e-35
decision_type=2
left_child=-1
right_child=-2
leaf_value=-0.0035061717424740508 0.0058978776259642346
leaf_count=1205 709
internal_value=0
internal_count=1914
shrinkage=0.02


Tree=17
num_leaves=2
num_cat=0
split_feature=0
split_gain=20.3895
threshold=1.5000000000000002
decision_type=2
left_child=-1
right_child=-2
leaf_value=-0.003447194236900254 0.0058239239715631433
leaf_count=1204 710
internal_value=0
internal_count=1914
shrinkage=0.02


Tree=18
num_leaves=2
num_cat=0
split_feature=129
split_gain=31.0449
threshold=1.0000000180025095e-35
decision_type=2
left_child=-1
right_child=-2
leaf_value=-0.0024208168137898026 0.012633675379579495
leaf_count=1609 305
internal_value=0
internal_count=1914
shrinkage=0.02


Tree=19
num_leaves=2
num_cat=0
split_feature=116
split_gain=30.4377
threshold=1.0000000180025095e-35
decision_type=2
left_child=-1
right_child=-2
leaf_value=0.0032201862287012679 -0.0093001635358484231
leaf_count=1412 502
internal_value=0
internal_count=1914
shrinkage=0.02


Tree=20
num_leaves=2
num_cat=0
split_feature=187
split_gain=63.8965
threshold=0.27157738095238099
decision_type=2
left_child=-1
right_child=-2
leaf_value=-0.012522759889271476 0.0050217073461916815
leaf_count=561 1353
internal_value=0
internal_count=1914
shrinkage=0.02


Tree=21
num_leaves=2
num_cat=0
split_feature=115
split_gain=19.7481
threshold=1.0000000180025095e-35
decision_type=2
left_child=-1
right_child=-2
leaf_value=0.0019991748653962384 -0.0097156547299408515
leaf_count=1581 333
internal_value=0
internal_count=1914
shrinkage=0.02


Tree=22
num_leaves=2
num_cat=0
split_feature=129
split_gain=29.3012
threshold=1.0000000180025095e-35
decision_type=2
left_child=-1
right_child=-2
leaf_value=-0.0023613941457808021 0.012229259138268713
leaf_count=1609 305
internal_value=0
internal_count=1914
shrinkage=0.02


Tree=23
num_leaves=2
num_cat=0
split_feature=116
split_gain=28.5838
threshold=1.0000000180025095e-35
decision_type=2
left_child=-1
right_child=-2
leaf_value=0.0031076847070605064 -0.0090516519662935217
leaf_count=1412 502
internal_value=0
internal_count=1914
shrinkage=0.02


Tree=24
num_leaves=2
num_cat=0
split_feature=187
split_gain=61.9292
threshold=0.2834821428571429
decision_type=2
left_child=-1
right_child=-2
leaf_value=-0.010035551390151399 0.0060759127801758104
leaf_count=736 1178
internal_value=0
internal_count=1914
shrinkage=0.02


Tree=25
num_leaves=2
num_cat=0
split_feature=186
split_gain=13.0655
threshold=0.51923076923076938
decision_type=2
left_child=-1
right_child=-2
leaf_value=-0.00057004876227032583 0.022691057540364153
leaf_count=1869 45
internal_value=0
internal_count=1914
shrinkage=0.02


Tree=26
num_leaves=2
num_cat=0
split_feature=184
split_gain=28.1401
threshold=0.53571428571428581
decision_type=2
left_child=-1
right_child=-2
leaf_value=-0.00082503230885052964 0.033713555155333322
leaf_count=1871 43
internal_value=0
internal_count=1914
shrinkage=0.02


Tree=27
num_leaves=2
num_cat=0
split_feature=0
split_gain=19.1857
threshold=1.5000000000000002
decision_type=2
left_child=-1
right_child=-2
leaf_value=-0.003354654988773258 0.005635396689526383
leaf_count=1204 710
internal_value=0
internal_count=1914
shrinkage=0.02


Tree=28
num_leaves=2
num_cat=0
split_feature=129
split_gain=27.517
threshold=1.0000000180025095e-35
decision_type=2
left_child=-1
right_child=-2
leaf_value=-0.002297932176754322 0.011807863786718664
leaf_count=1609 305
internal_value=0
internal_count=1914
shrinkage=0.02


Tree=29
num_leaves=2
num_cat=0
split_feature=184
split_gain=26.929
threshold=0.38750000000000007
decision_type=2
left_child=-1
right_child=-2
leaf_value=-0.0011947565925187892 0.022257236845379818
leaf_count=1821 93
internal_value=0
internal_count=1914
shrinkage=0.02


Tree=30
num_leaves=2
num_cat=0
split_feature=129
split_gain=26.1887
threshold=1.0000000180025095e-35
decision_type=2
left_child=-1
right_child=-2
leaf_value=-0.0022484941974382929 0.01148700826637186
leaf_count=1609 305
internal_value=0
internal_count=1914
shrinkage=0.02


Tree=31
num_leaves=2
num_cat=0
split_feature=187
split_gain=59.9044
threshold=0.24807692307692311
decision_type=2
left_child=-1
right_child=-2
leaf_value=-0.013024968412172782 0.0045291720584367465
leaf_count=512 1402
internal_value=0
internal_count=1914
shrinkage=0.02


Tree=32
num_leaves=2
num_cat=0
split_feature=187
split_gain=57.7495
threshold=0.24807692307692311
decision_type=2
left_child=-1
right_child=-2
leaf_value=-0.012836340420967851 0.0044310325576311232
leaf_count=512 1402
internal_value=0
internal_count=1914
shrinkage=0.02


Tree=33
num_leaves=2
num_cat=0
split_feature=184
split_gain=25.7807
threshold=0.53571428571428581
decision_type=2
left_child=-1
right_child=-2
leaf_value=-0.00079767936954022864 0.031990262431155297
leaf_count=1871 43
internal_value=0
internal_count=1914
shrinkage=0.02


Tree=34
num_leaves=2
num_cat=0
split_feature=129
split_gain=24.8057
threshold=1.0000000180025095e-35
decision_type=2
left_child=-1
right_child=-2
leaf_value=-0.0021960696076261279 0.011147898160924256
leaf_count=1609 305
internal_value=0
internal_count=1914
shrinkage=0.02


Tree=35
num_leaves=2
num_cat=0
split_feature=116
split_gain=26.9411
threshold=1.0000000180025095e-35
decision_type=2
left_child=-1
right_child=-2
leaf_value=0.0030068813299517789 -0.0088254026395212012
leaf_count=1412 502
internal_value=0
internal_count=1914
shrinkage=0.02


Tree=36
num_leaves=2
num_cat=0
split_feature=187
split_gain=56.0713
threshold=0.2834821428571429
decision_type=2
left_child=-1
right_child=-2
leaf_value=-0.0096342595234217149 0.0057362533653878764
leaf_count=736 1178
internal_value=0
internal_count=1914
shrinkage=0.02


Tree=37
num_leaves=2
num_cat=0
split_feature=187
split_gain=54.1179
threshold=0.24807692307692311
decision_type=2
left_child=-1
right_child=-2
leaf_value=-0.012509798487867414 0.0042632333641992402
leaf_count=512 1402
internal_value=0
internal_count=1914
shrinkage=0.02


Tree=38
num_leaves=2
num_cat=0
split_feature=187
split_gain=52.3993
threshold=0.2834821428571429
decision_type=2
left_child=-1
right_child=-2
leaf_value=-0.0093669114401270723 0.0055157180307594646
leaf_count=736 1178
internal_value=0
internal_count=1914
shrinkage=0.02


Tree=39
num_leaves=2
num_cat=0
split_feature=116
split_gain=26.188
threshold=1.0000000180025095e-35
decision_type=2
left_child=-1
right_child=-2
leaf_value=0.0029597732742476712 -0.0087206881038455752
leaf_count=1412 502
internal_value=0
internal_count=1914
shrinkage=0.02


Tree=40
num_leaves=2
num_cat=0
split_feature=166
split_gain=25.0476
threshold=1.0000000180025095e-35
decision_type=2
left_child=-1
right_child=-2
leaf_value=-0.0019179345983449244 0.012907612309120122
leaf_count=1669 245
internal_value=0
internal_count=1914
shrinkage=0.02


Tree=41
num_leaves=2
num_cat=0
split_feature=116
split_gain=25.2822
threshold=1.0000000180025095e-35
decision_type=2
left_child=-1
right_child=-2
leaf_value=0.0029017258285883411 -0.0085883854039599753
leaf_count=1412 502
internal_value=0
internal_count=1914
shrinkage=0.02


Tree=42
num_leaves=2
num_cat=0
split_feature=116
split_gain=24.3423
threshold=1.0000000180025095e-35
decision_type=2
left_child=-1
right_child=-2
leaf_value=0.0028405974281781334 -0.0084478120575411358
leaf_count=1412 502
internal_value=0
internal_count=1914
shrinkage=0.02


Tree=43
num_leaves=2
num_cat=0
split_feature=166
split_gain=24.1142
threshold=1.0000000180025095e-35
decision_type=2
left_child=-1
right_child=-2
leaf_value=-0.0018866762004294364 0.012636583175048835
leaf_count=1669 245
internal_value=0
internal_count=1914
shrinkage=0.02


Tree=44
num_leaves=2
num_cat=0
split_feature=54
split_gain=18.2904
threshold=1.0000000180025095e-35
decision_type=2
left_child=-1
right_child=-2
leaf_value=-0.003298461296449679 0.005475157841230479
leaf_count=1205 709
internal_value=0
internal_count=1914
shrinkage=0.02


Tree=45
num_leaves=2
num_cat=0
split_feature=116
split_gain=23.2947
threshold=1.0000000180025095e-35
decision_type=2
left_child=-1
right_child=-2
leaf_value=0.0027714359299309934 -0.0082875032160183246
leaf_count=1412 502
internal_value=0
internal_count=1914
shrinkage=0.02


Tree=46
num_leaves=2
num_cat=0
split_feature=116
split_gain=22.428
threshold=1.0000000180025095e-35
decision_type=2
left_child=-1
right_child=-2
leaf_value=0.0027132052939258713 -0.0081512994492866624
leaf_count=1412 502
internal_value=0
internal_count=1914
shrinkage=0.02


Tree=47
num_leaves=2
num_cat=0
split_feature=129
split_gain=22.6473
threshold=1.0000000180025095e-35
decision_type=2
left_child=-1
right_child=-2
leaf_value=-0.0021113803292795749 0.010605641849893828
leaf_count=1609 305
internal_value=0
internal_count=1914
shrinkage=0.02


Tree=48
num_leaves=2
num_cat=0
split_feature=166
split_gain=23.1965
threshold=1.0000000180025095e-35
decision_type=2
left_child=-1
right_child=-2
leaf_value=-0.0018552925954452746 0.012367455494235152
leaf_count=1669 245
internal_value=0
internal_count=1914
shrinkage=0.02


Tree=49
num_leaves=2
num_cat=0
split_feature=0
split_gain=17.4527
threshold=1.5000000000000002
decision_type=2
left_child=-1
right_child=-2
leaf_value=-0.0032172122406473177 0.0053589315765232336
leaf_count=1204 710
internal_value=0
internal_count=1914
shrinkage=0.02


Tree=50
num_leaves=2
num_cat=0
split_feature=166
split_gain=22.1417
threshold=1.0000000180025095e-35
decision_type=2
left_child=-1
right_child=-2
leaf_value=-0.0018177179890135281 0.012050409133476625
leaf_count=1669 245
internal_value=0
internal_count=1914
shrinkage=0.02


Tree=51
num_leaves=2
num_cat=0
split_feature=129
split_gain=21.5705
threshold=1.0000000180025095e-35
decision_type=2
left_child=-1
right_child=-2
leaf_value=-0.0020659641405174857 0.010326068189901356
leaf_count=1609 305
internal_value=0
internal_count=1914
shrinkage=0.02


Tree=52
num_leaves=2
num_cat=0
split_feature=187
split_gain=50.5488
threshold=0.24807692307692311
decision_type=2
left_child=-1
right_child=-2
leaf_value=-0.012179397441822334 0.0040960105316500467
leaf_count=512 1402
internal_value=0
internal_count=1914
shrinkage=0.02


Tree=53
num_leaves=2
num_cat=0
split_feature=187
split_gain=49.0786
threshold=0.2834821428571429
decision_type=2
left_child=-1
right_child=-2
leaf_value=-0.0091193435464508362 0.0053144921126185444
leaf_count=736 1178
internal_value=0
internal_count=1914
shrinkage=0.02


Tree=54
num_leaves=2
num_cat=0
split_feature=116
split_gain=21.5673
threshold=1.0000000180025095e-35
decision_type=2
left_child=-1
right_child=-2
leaf_value=0.002655549246413879 -0.0080159465610929476
leaf_count=1412 502
internal_value=0
internal_count=1914
shrinkage=0.02


Tree=55
num_leaves=2
num_cat=0
split_feature=184
split_gain=23.9137
threshold=0.36442648361381763
decision_type=2
left_child=-1
right_child=-2
leaf_value=-0.001211030958708386 0.019579015035013598
leaf_count=1809 105
internal_value=0
internal_count=1914
shrinkage=0.02


Tree=56
num_leaves=2
num_cat=0
split_feature=184
split_gain=22.8358
threshold=0.36442648361381763
decision_type=2
left_child=-1
right_child=-2
leaf_value=-0.0011873750061881596 0.019071822098366015
leaf_count=1809 105
internal_value=0
internal_count=1914
shrinkage=0.02


Tree=57
num_leaves=2
num_cat=0
split_feature=0
split_gain=16.6279
threshold=1.5000000000000002
decision_type=2
left_child=-1
right_child=-2
leaf_value=-0.0031483277398084786 0.005223077615876202
leaf_count=1204 710
internal_value=0
internal_count=1914
shrinkage=0.02


Tree=58
num_leaves=2
num_cat=0
split_feature=187
split_gain=47.4662
threshold=0.24807692307692311
decision_type=2
left_child=-1
right_child=-2
leaf_value=-0.011878218513327227 0.0039470677178107191
leaf_count=512 1402
internal_value=0
internal_count=1914
shrinkage=0.02


Tree=59
num_leaves=2
num_cat=0
split_feature=116
split_gain=20.5627
threshold=1.0000000180025095e-35
decision_type=2
left_child=-1
right_child=-2
leaf_value=0.0025866348626919422 -0.0078511401228541881
leaf_count=1412 502
internal_value=0
internal_count=1914
shrinkage=0.02


Tree=60
num_leaves=2
num_cat=0
split_feature=187
split_gain=46.0609
threshold=0.2834821428571429
decision_type=2
left_child=-1
right_child=-2
leaf_value=-0.0088826976132332387 0.0051259918884508995
leaf_count=736 1178
internal_value=0
internal_count=1914
shrinkage=0.02


Tree=61
num_leaves=2
num_cat=0
split_feature=116
split_gain=19.8902
threshold=1.0000000180025095e-35
decision_type=2
left_child=-1
right_child=-2
leaf_value=0.0025394447970467611 -0.0077384043256892958
leaf_count=1412 502
internal_value=0
internal_count=1914
shrinkage=0.02


Tree=62
num_leaves=2
num_cat=0
split_feature=166
split_gain=21.0572
threshold=1.0000000180025095e-35
decision_type=2
left_child=-1
right_child=-2
leaf_value=-0.0017799693059956979 0.01172862000741229
leaf_count=1669 245
internal_value=0
internal_count=1914
shrinkage=0.02


Tree=63
num_leaves=2
num_cat=0
split_feature=187
split_gain=44.9158
threshold=0.35875160875160877
decision_type=2
left_child=-1
right_child=-2
leaf_value=-0.004797572104182476 0.0092668278083237136
leaf_count=1282 632
internal_value=0
internal_count=1914
shrinkage=0.02


Tree=64
num_leaves=2
num_cat=0
split_feature=166
split_gain=20.1005
threshold=1.0000000180025095e-35
decision_type=2
left_child=-1
right_child=-2
leaf_value=-0.0017438540774244722 0.01143094952660686
leaf_count=1669 245
internal_value=0
internal_count=1914
shrinkage=0.02


Tree=65
num_leaves=2
num_cat=0
split_feature=129
split_gain=19.6883
threshold=1.0000000180025095e-35
decision_type=2
left_child=-1
right_child=-2
leaf_value=-0.0019853547658864818 0.0098313782805705859
leaf_count=1609 305
internal_value=0
internal_count=1914
shrinkage=0.02


Tree=66
num_leaves=2
num_cat=0
split_feature=184
split_gain=21.9559
threshold=0.58571428571428574
decision_type=2
left_child=-1
right_child=-2
leaf_value=-0.00068316672773529891 0.032013481492792935
leaf_count=1878 36
internal_value=0
internal_count=1914
shrinkage=0.02


Tree=67
num_leaves=2
num_cat=0
split_feature=187
split_gain=43.9285
threshold=0.14583333333333334
decision_type=2
left_child=-1
right_child=-2
leaf_value=-0.025051996658572297 0.0017315021138287043
leaf_count=134 1780
internal_value=0
internal_count=1914
shrinkage=0.02


Tree=68
num_leaves=2
num_cat=0
split_feature=187
split_gain=43.0711
threshold=0.24807692307692311
decision_type=2
left_child=-1
right_child=-2
leaf_value=-0.011426385853395586 0.0037285387675649274
leaf_count=512 1402
internal_value=0
internal_count=1914
shrinkage=0.02


Tree=69
num_leaves=2
num_cat=0
split_feature=166
split_gain=19.0622
threshold=1.0000000180025095e-35
decision_type=2
left_child=-1
right_child=-2
leaf_value=-0.0017038157111448466 0.011104863176425043
leaf_count=1669 245
internal_value=0
internal_count=1914
shrinkage=0.02


Tree=70
num_leaves=2
num_cat=0
split_feature=184
split_gain=21.3526
threshold=0.19934640522875821
decision_type=2
left_child=-1
right_child=-2
leaf_value=-0.024878676221939663 0.00084552515915663358
leaf_count=67 1847
internal_value=0
internal_count=1914
shrinkage=0.02


Tree=71
num_leaves=2
num_cat=0
split_feature=187
split_gain=41.8686
threshold=0.14583333333333334
decision_type=2
left_child=-1
right_child=-2
leaf_value=-0.024714367247849395 0.0016735345141728523
leaf_count=134 1780
internal_value=0
internal_count=1914
shrinkage=0.02


Tree=72
num_leaves=2
num_cat=0
split_feature=166
split_gain=18.1322
threshold=1.0000000180025095e-35
decision_type=2
left_child=-1
right_child=-2
leaf_value=-0.0016664817624302865 0.010803934753281095
leaf_count=1669 245
internal_value=0
internal_count=1914
shrinkage=0.02


Tree=73
num_leaves=2
num_cat=0
split_feature=187
split_gain=41.4939
threshold=0.35875160875160877
decision_type=2
left_child=-1
right_child=-2
leaf_value=-0.0046391693485342876 0.0088649647604609142
leaf_count=1282 632
internal_value=0
internal_count=1914
shrinkage=0.02


Tree=74
num_leaves=2
num_cat=0
split_feature=187
split_gain=40.4104
threshold=0.14583333333333334
decision_type=2
left_child=-1
right_child=-2
leaf_value=-0.024471358663208036 0.0016317700225938975
leaf_count=134 1780
internal_value=0
internal_count=1914
shrinkage=0.02


Tree=75
num_leaves=2
num_cat=0
split_feature=187
split_gain=39.5232
threshold=0.35164835164835168
decision_type=2
left_child=-1
right_child=-2
leaf_value=-0.004668652049303292 0.0083935252119199492
leaf_count=1259 655
internal_value=0
internal_count=1914
shrinkage=0.02


Tree=76
num_leaves=2
num_cat=0
split_feature=54
split_gain=16.5992
threshold=1.0000000180025095e-35
decision_type=2
left_child=-1
right_child=-2
leaf_value=-0.0031634005813432099 0.005204382828908981
leaf_count=1205 709
internal_value=0
internal_count=1914
shrinkage=0.02


Tree=77
num_leaves=2
num_cat=0
split_feature=129
split_gain=18.3815
threshold=1.0000000180025095e-35
decision_type=2
left_child=-1
right_child=-2
leaf_value=-0.0019266583029001437 0.0094765790901037757
leaf_count=1609 305
internal_value=0
internal_count=1914
shrinkage=0.02


Tree=78
num_leaves=2
num_cat=0
split_feature=129
split_gain=17.6116
threshold=1.0000000180025095e-35
decision_type=2
left_child=-1
right_child=-2
leaf_value=-0.0018895786865026222 0.0092592657700991381
leaf_count=1609 305
internal_value=0
internal_count=1914
shrinkage=0.02


Tree=79
num_leaves=2
num_cat=0
split_feature=187
split_gain=39
threshold=0.14583333333333334
decision_type=2
left_child=-1
right_child=-2
leaf_value=-0.024235210005595559 0.0015911706823832975
leaf_count=134 1780
internal_value=0
internal_count=1914
shrinkage=0.02


Tree=80
num_leaves=2
num_cat=0
split_feature=116
split_gain=19.2478
threshold=1.0000000180025095e-35
decision_type=2
left_child=-1
right_child=-2
leaf_value=0.0024969701814472347 -0.0076348298490674007
leaf_count=1412 502
internal_value=0
internal_count=1914
shrinkage=0.02


Tree=81
num_leaves=2
num_cat=0
split_feature=116
split_gain=18.53
threshold=1.0000000180025095e-35
decision_type=2
left_child=-1
right_child=-2
leaf_value=0.0024448122531074696 -0.0075079803471908083
leaf_count=1412 502
internal_value=0
internal_count=1914
shrinkage=0.02


Tree=82
num_leaves=2
num_cat=0
split_feature=187
split_gain=38.1322
threshold=0.2834821428571429
decision_type=2
left_child=-1
right_child=-2
leaf_value=-0.008210043464709417 0.0046056928595446592
leaf_count=736 1178
internal_value=0
internal_count=1914
shrinkage=0.02


Tree=83
num_leaves=2
num_cat=0
split_feature=187
split_gain=37.624
threshold=0.14583333333333334
decision_type=2
left_child=-1
right_child=-2
leaf_value=-0.024002976557604208 0.0015509768422568662
leaf_count=134 1780
internal_value=0
internal_count=1914
shrinkage=0.02


Tree=84
num_leaves=2
num_cat=0
split_feature=54
split_gain=15.5459
threshold=1.0000000180025095e-35
decision_type=2
left_child=-1
right_child=-2
leaf_value=-0.0030715717926927968 0.0050270350405850787
leaf_count=1205 709
internal_value=0
internal_count=1914
shrinkage=0.02


Tree=85
num_leaves=2
num_cat=0
split_feature=184
split_gain=20.8624
threshold=0.58571428571428574
decision_type=2
left_child=-1
right_child=-2
leaf_value=-0.00067006642499508522 0.031132681872010282
leaf_count=1878 36
internal_value=0
internal_count=1914
shrinkage=0.02


Tree=86
num_leaves=2
num_cat=0
split_feature=129
split_gain=16.4439
threshold=1.0000000180025095e-35
decision_type=2
left_child=-1
right_child=-2
leaf_value=-0.0018327567745874736 0.0089266443823432691
leaf_count=1609 305
internal_value=0
internal_count=1914
shrinkage=0.02


Tree=87
num_leaves=2
num_cat=0
split_feature=187
split_gain=36.572
threshold=0.35875160875160877
decision_type=2
left_child=-1
right_child=-2
leaf_value=-0.004395038451737489 0.0082667783812231405
leaf_count=1282 632
internal_value=0
internal_count=1914
shrinkage=0.02


Tree=88
num_leaves=2
num_cat=0
split_feature=166
split_gain=17.0387
threshold=1.0000000180025095e-35
decision_type=2
left_child=-1
right_child=-2
leaf_value=-0.0016230005369978957 0.010453170514460861
leaf_count=1669 245
internal_value=0
internal_count=1914
shrinkage=0.02


Tree=89
num_leaves=2
num_cat=0
split_feature=116
split_gain=17.7693
threshold=1.0000000180025095e-35
decision_type=2
left_child=-1
right_child=-2
leaf_value=0.0023904330932694442 -0.0073732552819566642
leaf_count=1412 502
internal_value=0
internal_count=1914
shrinkage=0.02


Tree=90
num_leaves=2
num_cat=0
split_feature=184
split_gain=20.1522
threshold=0.36442648361381763
decision_type=2
left_child=-1
right_child=-2
leaf_value=-0.0011270803871311348 0.01783417957731985
leaf_count=1809 105
internal_value=0
internal_count=1914
shrinkage=0.02


Tree=91
num_leaves=2
num_cat=0
split_feature=129
split_gain=15.5219
threshold=1.0000000180025095e-35
decision_type=2
left_child=-1
right_child=-2
leaf_value=-0.0017853931080545108 0.0086562616831245259
leaf_count=1609 305
internal_value=0
internal_count=1914
shrinkage=0.02


Tree=92
num_leaves=2
num_cat=0
split_feature=184
split_gain=19.7202
threshold=0.19934640522875821
decision_type=2
left_child=-1
right_child=-2
leaf_value=-0.024361792915249276 0.00079978690248484958
leaf_count=67 1847
internal_value=0
internal_count=1914
shrinkage=0.02


Tree=93
num_leaves=2
num_cat=0
split_feature=116
split_gain=16.9624
threshold=1.0000000180025095e-35
decision_type=2
left_child=-1
right_child=-2
leaf_value=0.0023304092489255823 -0.0072234589405570397
leaf_count=1412 502
internal_value=0
internal_count=1914
shrinkage=0.02


Tree=94
num_leaves=2
num_cat=0
split_feature=53
split_gain=15.1498
threshold=1.0000000180025095e-35
decision_type=2
left_child=-1
right_child=-2
leaf_value=-0.0025013842746372623 0.0060265856631691395
leaf_count=1367 547
internal_value=0
internal_count=1914
shrinkage=0.02


Tree=95
num_leaves=2
num_cat=0
split_feature=187
split_gain=36.26
threshold=0.14583333333333334
decision_type=2
left_child=-1
right_child=-2
leaf_value=-0.023778359133720457 0.0015114031238423441
leaf_count=134 1780
internal_value=0
internal_count=1914
shrinkage=0.02


Tree=96
num_leaves=2
num_cat=0
split_feature=184
split_gain=19.1343
threshold=0.58571428571428574
decision_type=2
left_child=-1
right_child=-2
leaf_value=-0.00064619644364354359 0.029654250984217718
leaf_count=1878 36
internal_value=0
internal_count=1914
shrinkage=0.02


Tree=97
num_leaves=2
num_cat=0
split_feature=184
split_gain=19.0131
threshold=0.19934640522875821
decision_type=2
left_child=-1
right_child=-2
leaf_value=-0.02411372444952789 0.00077946345011189262
leaf_count=67 1847
internal_value=0
internal_count=1914
shrinkage=0.02


Tree=98
num_leaves=2
num_cat=0
split_feature=184
split_gain=18.5405
threshold=0.15073529411764711
decision_type=2
left_child=-1
right_child=-2
leaf_value=-0.026912076723654869 0.00068050349145107488
leaf_count=54 1860
internal_value=0
internal_count=1914
shrinkage=0.02


Tree=99
num_leaves=2
num_cat=0
split_feature=129
split_gain=14.5733
threshold=1.0000000180025095e-35
decision_type=2
left_child=-1
right_child=-2
leaf_value=-0.0017351130877102851 0.0083710117276058326
leaf_count=1609 305
internal_value=0
internal_count=1914
shrinkage=0.02


Tree=100
num_leaves=2
num_cat=0
split_feature=187
split_gain=35.0026
threshold=0.24807692307692311
decision_type=2
left_child=-1
right_child=-2
leaf_value=-0.010523638488096487 0.0033051707330665633
leaf_count=512 1402
internal_value=0
internal_count=1914
shrinkage=0.02


Tree=101
num_leaves=2
num_cat=0
split_feature=166
split_gain=16.2006
threshold=1.0000000180025095e-35
decision_type=2
left_child=-1
right_child=-2
leaf_value=-0.0015877788340076296 0.01017819369734865
leaf_count=1669 245
internal_value=0
internal_count=1914
shrinkage=0.02


Tree=102
num_leaves=2
num_cat=0
split_feature=184
split_gain=18.4355
threshold=0.36442648361381763
decision_type=2
left_child=-1
right_child=-2
leaf_value=-0.0010840747709066703 0.01699171977924771
leaf_count=1809 105
internal_value=0
internal_count=1914
shrinkage=0.02


Tree=103
num_leaves=2
num_cat=0
split_feature=129
split_gain=13.8277
threshold=1.0000000180025095e-35
decision_type=2
left_child=-1
right_child=-2
leaf_value=-0.001694015774445438 0.0081417091071753211
leaf_count=1609 305
internal_value=0
internal_count=1914
shrinkage=0.02


Tree=104
num_leaves=2
num_cat=0
split_feature=166
split_gain=15.5119
threshold=1.0000000180025095e-35
decision_type=2
left_child=-1
right_child=-2
leaf_value=-0.0015568689378662826 0.0099426752372246217
leaf_count=1669 245
internal_value=0
internal_count=1914
shrinkage=0.02


Tree=105
num_leaves=2
num_cat=0
split_feature=129
split_gain=13.246
threshold=1.0000000180025095e-35
decision_type=2
left_child=-1
right_child=-2
leaf_value=-0.0016607332891883245 0.0079575704151249906
leaf_count=1609 305
internal_value=0
internal_count=1914
shrinkage=0.02


Tree=106
num_leaves=2
num_cat=0
split_feature=187
split_gain=34.405
threshold=0.14583333333333334
decision_type=2
left_child=-1
right_child=-2
leaf_value=-0.023464760320219106 0.0014557031172281164
leaf_count=134 1780
internal_value=0
internal_count=1914
shrinkage=0.02


Tree=107
num_leaves=2
num_cat=0
split_feature=54
split_gain=14.327
threshold=1.0000000180025095e-35
decision_type=2
left_child=-1
right_child=-2
leaf_value=-0.0029627610857747839 0.004818876944466019
leaf_count=1205 709
internal_value=0
internal_count=1914
shrinkage=0.02


Tree=108
num_leaves=2
num_cat=0
split_feature=184
split_gain=17.7291
threshold=0.15073529411764711
decision_type=2
left_child=-1
right_child=-2
leaf_value=-0.026644355272307175 0.00065830466321145176
leaf_count=54 1860
internal_value=0
internal_count=1914
shrinkage=0.02


Tree=109
num_leaves=2
num_cat=0
split_feature=187
split_gain=33.7897
threshold=0.35164835164835168
decision_type=2
left_child=-1
right_child=-2
leaf_value=-0.0043711426739553496 0.0077035147806825549
leaf_count=1259 655
internal_value=0
internal_count=1914
shrinkage=0.02


Tree=110
num_leaves=2
num_cat=0
split_feature=184
split_gain=17.6375
threshold=0.58571428571428574
decision_type=2
left_child=-1
right_child=-2
leaf_value=-0.00062398331477010293 0.02836613351303904
leaf_count=1878 36
internal_value=0
internal_count=1914
shrinkage=0.02


Tree=111
num_leaves=2
num_cat=0
split_feature=129
split_gain=12.5256
threshold=1.0000000180025095e-35
decision_type=2
left_child=-1
right_child=-2
leaf_value=-0.0016189049853093192 0.0077268521899231139
leaf_count=1609 305
internal_value=0
internal_count=1914
shrinkage=0.02


Tree=112
num_leaves=2
num_cat=0
split_feature=53
split_gain=14.3714
threshold=1.0000000180025095e-35
decision_type=2
left_child=-1
right_child=-2
leaf_value=-0.0024444217402821 0.0058657726065185758
leaf_count=1367 547
internal_value=0
internal_count=1914
shrinkage=0.02


Tree=113
num_leaves=2
num_cat=0
split_feature=187
split_gain=33.1621
threshold=0.14583333333333334
decision_type=2
left_child=-1
right_child=-2
leaf_value=-0.023249276496705346 0.0014175195635665523
leaf_count=134 1780
internal_value=0
internal_count=1914
shrinkage=0.02


Tree=114
num_leaves=2
num_cat=0
split_feature=0
split_gain=14.0374
threshold=1.5000000000000002
decision_type=2
left_child=-1
right_child=-2
leaf_value=-0.0029259574427481167 0.004785815893770461
leaf_count=1204 710
internal_value=0
internal_count=1914
shrinkage=0.02


Tree=115
num_leaves=2
num_cat=0
split_feature=187
split_gain=32.2839
threshold=0.35875160875160877
decision_type=2
left_child=-1
right_child=-2
leaf_value=-0.0041695104978914438 0.0077236521286557442
leaf_count=1282 632
internal_value=0
internal_count=1914
shrinkage=0.02


Tree=116
num_leaves=2
num_cat=0
split_feature=166
split_gain=14.6253
threshold=1.0000000180025095e-35
decision_type=2
left_child=-1
right_child=-2
leaf_value=-0.0015172181738315987 0.0096373429367418492
leaf_count=1669 245
internal_value=0
internal_count=1914
shrinkage=0.02


Tree=117
num_leaves=2
num_cat=0
split_feature=115
split_gain=12.7187
threshold=1.0000000180025095e-35
decision_type=2
left_child=-1
right_child=-2
leaf_value=0.0015742293761246882 -0.0080398188098946971
leaf_count=1581 333
internal_value=0
internal_count=1914
shrinkage=0.02


Tree=118
num_leaves=2
num_cat=0
split_feature=53
split_gain=13.7342
threshold=1.0000000180025095e-35
decision_type=2
left_child=-1
right_child=-2
leaf_value=-0.0023947955274984151 0.0057267875264946479
leaf_count=1367 547
internal_value=0
internal_count=1914
shrinkage=0.02


Tree=119
num_leaves=2
num_cat=0
split_feature=187
split_gain=32.0785
threshold=0.14583333333333334
decision_type=2
left_child=-1
right_child=-2
leaf_value=-0.023054000350074016 0.0013839332960967046
leaf_count=134 1780
internal_value=0
internal_count=1914
shrinkage=0.02


Tree=120
num_leaves=2
num_cat=0
split_feature=116
split_gain=15.3239
threshold=1.0000000180025095e-35
decision_type=2
left_child=-1
right_child=-2
leaf_value=0.0022090994166953952 -0.0069120697436899645
leaf_count=1412 502
internal_value=0
internal_count=1914
shrinkage=0.02


Tree=121
num_leaves=2
num_cat=0
split_feature=184
split_gain=16.9379
threshold=0.15073529411764711
decision_type=2
left_child=-1
right_child=-2
leaf_value=-0.026407782605719587 0.00063577034798308746
leaf_count=54 1860
internal_value=0
internal_count=1914
shrinkage=0.02


Tree=122
num_leaves=2
num_cat=0
split_feature=116
split_gain=14.7557
threshold=1.0000000180025095e-35
decision_type=2
left_child=-1
right_child=-2
leaf_value=0.0021637365456645403 -0.0067970497147842391
leaf_count=1412 502
internal_value=0
internal_count=1914
shrinkage=0.02


Tree=123
num_leaves=2
num_cat=0
split_feature=129
split_gain=11.5498
threshold=1.0000000180025095e-35
decision_type=2
left_child=-1
right_child=-2
leaf_value=-0.0015604654098444659 0.0074054520726773146
leaf_count=1609 305
internal_value=0
internal_count=1914
shrinkage=0.02


Tree=124
num_leaves=2
num_cat=0
split_feature=53
split_gain=12.8808
threshold=1.0000000180025095e-35
decision_type=2
left_child=-1
right_child=-2
leaf_value=-0.0023258203460336095 0.005535664462694447
leaf_count=1367 547
internal_value=0
internal_count=1914
shrinkage=0.02


Tree=125
num_leaves=2
num_cat=0
split_feature=116
split_gain=14.0123
threshold=1.0000000180025095e-35
decision_type=2
left_child=-1
right_child=-2
leaf_value=0.0021035612795678471 -0.0066421488379947618
leaf_count=1412 502
internal_value=0
internal_count=1914
shrinkage=0.02


Tree=126
num_leaves=2
num_cat=0
split_feature=187
split_gain=31.1936
threshold=0.2834821428571429
decision_type=2
left_child=-1
right_child=-2
leaf_value=-0.0075573879608905742 0.0041203765707535246
leaf_count=736 1178
internal_value=0
internal_count=1914
shrinkage=0.02


Tree=127
num_leaves=2
num_cat=0
split_feature=166
split_gain=14.1733
threshold=1.0000000180025095e-35
decision_type=2
left_child=-1
right_child=-2
leaf_value=-0.0014969355820537373 0.009482849324036707
leaf_count=1669 245
internal_value=0
internal_count=1914
shrinkage=0.02


Tree=128
num_leaves=2
num_cat=0
split_feature=184
split_gain=16.6326
threshold=0.58571428571428574
decision_type=2
left_child=-1
right_child=-2
leaf_value=-0.00060849925660207615 0.027502608255253091
leaf_count=1878 36
internal_value=0
internal_count=1914
shrinkage=0.02


Tree=129
num_leaves=2
num_cat=0
split_feature=187
split_gain=30.8744
threshold=0.14583333333333334
decision_type=2
left_child=-1
right_child=-2
leaf_value=-0.022843509388877074 0.0013466708366389228
leaf_count=134 1780
internal_value=0
internal_count=1914
shrinkage=0.02


Tree=130
num_leaves=2
num_cat=0
split_feature=54
split_gain=12.683
threshold=1.0000000180025095e-35
decision_type=2
left_child=-1
right_child=-2
leaf_value=-0.0028049954775740582 0.0045224563786131792
leaf_count=1205 709
internal_value=0
internal_count=1914
shrinkage=0.02


Tree=131
num_leaves=2
num_cat=0
split_feature=187
split_gain=30.0418
threshold=0.14583333333333334
decision_type=2
left_child=-1
right_child=-2
leaf_value=-0.022688058497906366 0.0013196794417812149
leaf_count=134 1780
internal_value=0
internal_count=1914
shrinkage=0.02


Tree=132
num_leaves=2
num_cat=0
split_feature=0
split_gain=12.894
threshold=1.5000000000000002
decision_type=2
left_child=-1
right_child=-2
leaf_value=-0.0028175470141610362 0.004578944476629594
leaf_count=1204 710
internal_value=0
internal_count=1914
shrinkage=0.02


Tree=133
num_leaves=2
num_cat=0
split_feature=0
split_gain=12.3763
threshold=1.5000000000000002
decision_type=2
left_child=-1
right_child=-2
leaf_value=-0.0027642738824987367 0.0044801488420259843
leaf_count=1204 710
internal_value=0
internal_count=1914
shrinkage=0.02


Tree=134
num_leaves=2
num_cat=0
split_feature=187
split_gain=29.8284
threshold=0.35875160875160877
decision_type=2
left_child=-1
right_child=-2
leaf_value=-0.0040331403466326333 0.0074003561983023002
leaf_count=1282 632
internal_value=0
internal_count=1914
shrinkage=0.02


Tree=135
num_leaves=2
num_cat=0
split_feature=187
split_gain=29.0268
threshold=0.14583333333333334
decision_type=2
left_child=-1
right_child=-2
leaf_value=-0.022496126957869352 0.0012867253969237149
leaf_count=134 1780
internal_value=0
internal_count=1914
shrinkage=0.02


Tree=136
num_leaves=2
num_cat=0
split_feature=116
split_gain=13.5156
threshold=1.0000000180025095e-35
decision_type=2
left_child=-1
right_child=-2
leaf_value=0.0020650517014406413 -0.0065397098245351462
leaf_count=1412 502
internal_value=0
internal_count=1914
shrinkage=0.02


Tree=137
num_leaves=2
num_cat=0
split_feature=187
split_gain=28.4525
threshold=0.35875160875160877
decision_type=2
left_child=-1
right_child=-2
leaf_value=-0.0039501821300484703 0.0072126037482458383
leaf_count=1282 632
internal_value=0
internal_count=1914
shrinkage=0.02


Tree=138
num_leaves=2
num_cat=0
split_feature=187
split_gain=28.1311
threshold=0.14583333333333334
decision_type=2
left_child=-1
right_child=-2
leaf_value=-0.022324301871075196 0.0012573864189207246
leaf_count=134 1780
internal_value=0
internal_count=1914
shrinkage=0.02


Tree=139
num_leaves=2
num_cat=0
split_feature=116
split_gain=13.0812
threshold=1.0000000180025095e-35
decision_type=2
left_child=-1
right_child=-2
leaf_value=0.0020291132683739744 -0.0064461044229176716
leaf_count=1412 502
internal_value=0
internal_count=1914
shrinkage=0.02


Tree=140
num_leaves=2
num_cat=0
split_feature=184
split_gain=16.2955
threshold=0.36442648361381763
decision_type=2
left_child=-1
right_child=-2
leaf_value=-0.0010281457254041695 0.015939017241025703
leaf_count=1809 105
internal_value=0
internal_count=1914
shrinkage=0.02


Tree=141
num_leaves=2
num_cat=0
split_feature=53
split_gain=11.8732
threshold=1.0000000180025095e-35
decision_type=2
left_child=-1
right_child=-2
leaf_value=-0.0022435489231186381 0.0053074183538518683
leaf_count=1367 547
internal_value=0
internal_count=1914
shrinkage=0.02


Tree=142
num_leaves=2
num_cat=0
split_feature=166
split_gain=13.4088
threshold=1.0000000180025095e-35
decision_type=2
left_child=-1
right_child=-2
leaf_value=-0.0014615636180404388 0.0092141664254165676
leaf_count=1669 245
internal_value=0
internal_count=1914
shrinkage=0.02


Tree=143
num_leaves=2
num_cat=0
split_feature=166
split_gain=12.848
threshold=1.0000000180025095e-35
decision_type=2
left_child=-1
right_child=-2
leaf_value=-0.0014331482844612232 0.0090051298744503183
leaf_count=1669 245
internal_value=0
internal_count=1914
shrinkage=0.02


Tree=144
num_leaves=2
num_cat=0
split_feature=166
split_gain=12.3118
threshold=1.0000000180025095e-35
decision_type=2
left_child=-1
right_child=-2
leaf_value=-0.0014052711258302234 0.008801699953205306
leaf_count=1669 245
internal_value=0
internal_count=1914
shrinkage=0.02


Tree=145
num_leaves=2
num_cat=0
split_feature=116
split_gain=12.5341
threshold=1.0000000180025095e-35
decision_type=2
left_child=-1
right_child=-2
leaf_value=0.0019831186990024218 -0.0063251015523280787
leaf_count=1412 502
internal_value=0
internal_count=1914
shrinkage=0.02


Tree=146
num_leaves=2
num_cat=0
split_feature=154
split_gain=9.68862
threshold=1.0000000180025095e-35
decision_type=2
left_child=-1
right_child=-2
leaf_value=-0.0015604149659583745 0.006236380129170176
leaf_count=1544 370
internal_value=0
internal_count=1914
shrinkage=0.02


Tree=147
num_leaves=2
num_cat=0
split_feature=115
split_gain=10.3242
threshold=1.0000000180025095e-35
decision_type=2
left_child=-1
right_child=-2
leaf_value=0.0014073372640131471 -0.0073366107698211403
leaf_count=1581 333
internal_value=0
internal_count=1914
shrinkage=0.02


Tree=148
num_leaves=2
num_cat=0
split_feature=54
split_gain=11.3859
threshold=1.0000000180025095e-35
decision_type=2
left_child=-1
right_child=-2
leaf_value=-0.0026714101960976185 0.0042755856972288156
leaf_count=1205 709
internal_value=0
internal_count=1914
shrinkage=0.02


Tree=149
num_leaves=2
num_cat=0
split_feature=154
split_gain=9.10552
threshold=1.0000000180025095e-35
decision_type=2
left_child=-1
right_child=-2
leaf_value=-0.0015160582419854601 0.0060342218100479725
leaf_count=1544 370
internal_value=0
internal_count=1914
shrinkage=0.02


Tree=150
num_leaves=2
num_cat=0
split_feature=116
split_gain=11.5563
threshold=1.0000000180025095e-35
decision_type=2
left_child=-1
right_child=-2
leaf_value=0.001897467249466295 -0.0060982402460528608
leaf_count=1412 502
internal_value=0
internal_count=1914
shrinkage=0.02


Tree=151
num_leaves=2
num_cat=0
split_feature=187
split_gain=27.6902
threshold=0.2834821428571429
decision_type=2
left_child=-1
right_child=-2
leaf_value=-0.0071924611386358795 0.0038593946811987844
leaf_count=736 1178
internal_value=0
internal_count=1914
shrinkage=0.02


Tree=152
num_leaves=2
num_cat=0
split_feature=187
split_gain=27.2161
threshold=0.14583333333333334
decision_type=2
left_child=-1
right_child=-2
leaf_value=-0.022156350599236055 0.0012286515761811016
leaf_count=134 1780
internal_value=0
internal_count=1914
shrinkage=0.02


Tree=153
num_leaves=2
num_cat=0
split_feature=54
split_gain=10.7318
threshold=1.0000000180025095e-35
decision_type=2
left_child=-1
right_child=-2
leaf_value=-0.0025996684529028713 0.0041454310833731892
leaf_count=1205 709
internal_value=0
internal_count=1914
shrinkage=0.02


Tree=154
num_leaves=2
num_cat=0
split_feature=53
split_gain=10.7144
threshold=1.0000000180025095e-35
decision_type=2
left_child=-1
right_child=-2
leaf_value=-0.0021407188859943445 0.0050290705611304408
leaf_count=1367 547
internal_value=0
internal_count=1914
shrinkage=0.02


Tree=155
num_leaves=2
num_cat=0
split_feature=129
split_gain=9.97886
threshold=1.0000000180025095e-35
decision_type=2
left_child=-1
right_child=-2
leaf_value=-0.0014610814818697068 0.0068705708711942664
leaf_count=1609 305
internal_value=0
internal_count=1914
shrinkage=0.02


Tree=156
num_leaves=2
num_cat=0
split_feature=166
split_gain=11.8302
threshold=1.0000000180025095e-35
decision_type=2
left_child=-1
right_child=-2
leaf_value=-0.001380712130096556 0.0086229819197193597
leaf_count=1669 245
internal_value=0
internal_count=1914
shrinkage=0.02


Tree=157
num_leaves=2
num_cat=0
split_feature=181
split_gain=9.45872
threshold=5.5000000000000009
decision_type=2
left_child=-1
right_child=-2
leaf_value=0.0053344566058924235 -0.0017830114540581046
leaf_count=460 1454
internal_value=0
internal_count=1914
shrinkage=0.02


Tree=158
num_leaves=2
num_cat=0
split_feature=166
split_gain=11.3183
threshold=1.0000000180025095e-35
decision_type=2
left_child=-1
right_child=-2
leaf_value=-0.0013527356408672823 0.0084221465921205906
leaf_count=1669 245
internal_value=0
internal_count=1914
shrinkage=0.02


Tree=159
num_leaves=2
num_cat=0
split_feature=184
split_gain=15.7226
threshold=0.15073529411764711
decision_type=2
left_child=-1
right_child=-2
leaf_value=-0.026115075875947281 0.00060091332065069242
leaf_count=54 1860
internal_value=0
internal_count=1914
shrinkage=0.02


Tree=160
num_leaves=2
num_cat=0
split_feature=53
split_gain=10.3759
threshold=1.0000000180025095e-35
decision_type=2
left_child=-1
right_child=-2
leaf_value=-0.0021093165190390084 0.0049459266216294309
leaf_count=1367 547
internal_value=0
internal_count=1914
shrinkage=0.02


Tree=161
num_leaves=2
num_cat=0
split_feature=116
split_gain=10.9788
threshold=1.0000000180025095e-35
decision_type=2
left_child=-1
right_child=-2
leaf_value=0.0018472398845331274 -0.0059617604579090067
leaf_count=1412 502
internal_value=0
internal_count=1914
shrinkage=0.02


Tree=162
num_leaves=2
num_cat=0
split_feature=0
split_gain=11.082
threshold=1.5000000000000002
decision_type=2
left_child=-1
right_child=-2
leaf_value=-0.0026313305829167911 0.004233696991616325
leaf_count=1204 710
internal_value=0
internal_count=1914
shrinkage=0.02


Tree=163
num_leaves=2
num_cat=0
split_feature=184
split_gain=15.3756
threshold=0.58571428571428574
decision_type=2
left_child=-1
right_child=-2
leaf_value=-0.00058821778716083612 0.026428557636419627
leaf_count=1878 36
internal_value=0
internal_count=1914
shrinkage=0.02


Tree=164
num_leaves=2
num_cat=0
split_feature=166
split_gain=10.8353
threshold=1.0000000180025095e-35
decision_type=2
left_child=-1
right_child=-2
leaf_value=-0.0013257965065903319 0.0082322760139326105
leaf_count=1669 245
internal_value=0
internal_count=1914
shrinkage=0.02


Tree=165
num_leaves=2
num_cat=0
split_feature=184
split_gain=15.2816
threshold=0.15073529411764711
decision_type=2
left_child=-1
right_child=-2
leaf_value=-0.025958446551477419 0.00058814038030950136
leaf_count=54 1860
internal_value=0
internal_count=1914
shrinkage=0.02


Tree=166
num_leaves=2
num_cat=0
split_feature=184
split_gain=14.8886
threshold=0.15073529411764711
decision_type=2
left_child=-1
right_child=-2
leaf_value=-0.025811691229595559 0.00057625202261059262
leaf_count=54 1860
internal_value=0
internal_count=1914
shrinkage=0.02


Tree=167
num_leaves=2
num_cat=0
split_feature=53
split_gain=9.85765
threshold=1.0000000180025095e-35
decision_type=2
left_child=-1
right_child=-2
leaf_value=-0.002060094073889436 0.0048153067342652789
leaf_count=1367 547
internal_value=0
internal_count=1914
shrinkage=0.02


Tree=168
num_leaves=2
num_cat=0
split_feature=184
split_gain=14.7988
threshold=0.36442648361381763
decision_type=2
left_child=-1
right_child=-2
leaf_value=-0.00098501595114710845 0.015157063078733957
leaf_count=1809 105
internal_value=0
internal_count=1914
shrinkage=0.02


Tree=169
num_leaves=2
num_cat=0
split_feature=187
split_gain=26.2456
threshold=0.35875160875160877
decision_type=2
left_child=-1
right_child=-2
leaf_value=-0.0038195159361850955 0.0069125646154232327
leaf_count=1282 632
internal_value=0
internal_count=1914
shrinkage=0.02


Tree=170
num_leaves=2
num_cat=0
split_feature=187
split_gain=26.0027
threshold=0.14583333333333334
decision_type=2
left_child=-1
right_child=-2
leaf_value=-0.021937421074823958 0.0011888373296433869
leaf_count=134 1780
internal_value=0
internal_count=1914
shrinkage=0.02


Tree=171
num_leaves=2
num_cat=0
split_feature=52
split_gain=7.60157
threshold=1.0000000180025095e-35
decision_type=2
left_child=-1
right_child=-2
leaf_value=-0.0025224657931401107 0.0030327729753748924
leaf_count=1065 849
internal_value=0
internal_count=1914
shrinkage=0.02


Tree=172
num_leaves=2
num_cat=0
split_feature=184
split_gain=14.4092
threshold=0.15073529411764711
decision_type=2
left_child=-1
right_child=-2
leaf_value=-0.025656598860962238 0.00056154051975634942
leaf_count=54 1860
internal_value=0
internal_count=1914
shrinkage=0.02


Tree=173
num_leaves=2
num_cat=0
split_feature=166
split_gain=10.3062
threshold=1.0000000180025095e-35
decision_type=2
left_child=-1
right_child=-2
leaf_value=-0.001296400300015485 0.0080188560755350188
leaf_count=1669 245
internal_value=0
internal_count=1914
shrinkage=0.02


Tree=174
num_leaves=2
num_cat=0
split_feature=184
split_gain=14.3244
threshold=0.58571428571428574
decision_type=2
left_child=-1
right_child=-2
leaf_value=-0.00056969114791507634 0.025463222419096918
leaf_count=1878 36
internal_value=0
internal_count=1914
shrinkage=0.02


Tree=175
num_leaves=2
num_cat=0
split_feature=184
split_gain=14.0168
threshold=0.15073529411764711
decision_type=2
left_child=-1
right_child=-2
leaf_value=-0.025509081577722883 0.00054963633760735336
leaf_count=54 1860
internal_value=0
internal_count=1914
shrinkage=0.02


Tree=176
num_leaves=2
num_cat=0
split_feature=187
split_gain=25.2224
threshold=0.24807692307692311
decision_type=2
left_child=-1
right_child=-2
leaf_value=-0.0092529689837456339 0.0027416493332026691
leaf_count=512 1402
internal_value=0
internal_count=1914
shrinkage=0.02


Tree=177
num_leaves=2
num_cat=0
split_feature=187
split_gain=24.8452
threshold=0.14583333333333334
decision_type=2
left_child=-1
right_child=-2
leaf_value=-0.021711906756745152 0.0011490257380530541
leaf_count=134 1780
internal_value=0
internal_count=1914
shrinkage=0.02


Tree=178
num_leaves=2
num_cat=0
split_feature=0
split_gain=10.4276
threshold=1.5000000000000002
decision_type=2
left_child=-1
right_child=-2
leaf_value=-0.0025619515090905091 0.0041025028590712768
leaf_count=1204 710
internal_value=0
internal_count=1914
shrinkage=0.02


Tree=179
num_leaves=2
num_cat=0
split_feature=116
split_gain=10.4131
threshold=1.0000000180025095e-35
decision_type=2
left_child=-1
right_child=-2
leaf_value=0.0017983318761582425 -0.0058256066797567696
leaf_count=1412 502
internal_value=0
internal_count=1914
shrinkage=0.02


Tree=180
num_leaves=2
num_cat=0
split_feature=115
split_gain=9.04125
threshold=1.0000000180025095e-35
decision_type=2
left_child=-1
right_child=-2
leaf_value=0.0013133486543365281 -0.006921578481118372
leaf_count=1581 333
internal_value=0
internal_count=1914
shrinkage=0.02


Tree=181
num_leaves=2
num_cat=0
split_feature=0
split_gain=9.94621
threshold=1.5000000000000002
decision_type=2
left_child=-1
right_child=-2
leaf_value=-0.0025061280699308574 0.0040019335525116181
leaf_count=1204 710
internal_value=0
internal_count=1914
shrinkage=0.02


Tree=182
num_leaves=2
num_cat=0
split_feature=98
split_gain=6.44083
threshold=1.0000000180025095e-35
decision_type=2
left_child=-1
right_child=-2
leaf_value=0.00055866191609364854 -0.011550315869737253
leaf_count=1828 86
internal_value=0
internal_count=1914
shrinkage=0.02


Tree=183
num_leaves=2
num_cat=0
split_feature=187
split_gain=24.4544
threshold=0.35875160875160877
decision_type=2
left_child=-1
right_child=-2
leaf_value=-0.0037054732473941272 0.0066544598576448299
leaf_count=1282 632
internal_value=0
internal_count=1914
shrinkage=0.02


Tree=184
num_leaves=2
num_cat=0
split_feature=116
split_gain=9.79907
threshold=1.0000000180025095e-35
decision_type=2
left_child=-1
right_child=-2
leaf_value=0.0017405087128573096 -0.00566814229254898
leaf_count=1412 502
internal_value=0
internal_count=1914
shrinkage=0.02


Tree=185
num_leaves=2
num_cat=0
split_feature=184
split_gain=13.8397
threshold=0.36442648361381763
decision_type=2
left_child=-1
right_child=-2
leaf_value=-0.0009561697298130341 0.01464559138289466
leaf_count=1809 105
internal_value=0
internal_count=1914
shrinkage=0.02


Tree=186
num_leaves=2
num_cat=0
split_feature=54
split_gain=9.45469
threshold=1.0000000180025095e-35
decision_type=2
left_child=-1
right_child=-2
leaf_value=-0.0024552513873381202 0.0038857653514100645
leaf_count=1205 709
internal_value=0
internal_count=1914
shrinkage=0.02


Tree=187
num_leaves=2
num_cat=0
split_feature=184
split_gain=13.5015
threshold=0.15073529411764711
decision_type=2
left_child=-1
right_child=-2
leaf_value=-0.025363040333347762 0.00053359638693936467
leaf_count=54 1860
internal_value=0
internal_count=1914
shrinkage=0.02


Tree=188
num_leaves=2
num_cat=0
split_feature=184
split_gain=13.4493
threshold=0.58571428571428574
decision_type=2
left_child=-1
right_child=-2
leaf_value=-0.0005536980427913419 0.024652762910021279
leaf_count=1878 36
internal_value=0
internal_count=1914
shrinkage=0.02


Tree=189
num_leaves=2
num_cat=0
split_feature=0
split_gain=9.53409
threshold=1.5000000000000002
decision_type=2
left_child=-1
right_child=-2
leaf_value=-0.0024583628010046601 0.0039149501963004303
leaf_count=1204 710
internal_value=0
internal_count=1914
shrinkage=0.02


Tree=190
num_leaves=2
num_cat=0
split_feature=129
split_gain=8.60125
threshold=1.0000000180025095e-35
decision_type=2
left_child=-1
right_child=-2
leaf_value=-0.0013649322019319544 0.0063708812888143198
leaf_count=1609 305
internal_value=0
internal_count=1914
shrinkage=0.02


Tree=191
num_leaves=2
num_cat=0
split_feature=187
split_gain=24.0425
threshold=0.14583333333333334
decision_type=2
left_child=-1
right_child=-2
leaf_value=-0.021560040236122239 0.0011223020973981355
leaf_count=134 1780
internal_value=0
internal_count=1914
shrinkage=0.02


Tree=192
num_leaves=2
num_cat=0
split_feature=54
split_gain=9.05707
threshold=1.0000000180025095e-35
decision_type=2
left_child=-1
right_child=-2
leaf_value=-0.0024070023055496291 0.0038005894386990047
leaf_count=1205 709
internal_value=0
internal_count=1914
shrinkage=0.02


Tree=193
num_leaves=2
num_cat=0
split_feature=181
split_gain=8.37249
threshold=5.5000000000000009
decision_type=2
left_child=-1
right_child=-2
leaf_value=0.0050138836197554616 -0.0016881789434912348
leaf_count=460 1454
internal_value=0
internal_count=1914
shrinkage=0.02


Tree=194
num_leaves=2
num_cat=0
split_feature=187
split_gain=23.358
threshold=0.14583333333333334
decision_type=2
left_child=-1
right_child=-2
leaf_value=-0.021413876808347828 0.0010982575998888743
leaf_count=134 1780
internal_value=0
internal_count=1914
shrinkage=0.02


Tree=195
num_leaves=2
num_cat=0
split_feature=116
split_gain=9.21938
threshold=1.0000000180025095e-35
decision_type=2
left_child=-1
right_child=-2
leaf_value=0.0016862479078336137 -0.0055145083013195574
leaf_count=1412 502
internal_value=0
internal_count=1914
shrinkage=0.02


Tree=196
num_leaves=2
num_cat=0
split_feature=166
split_gain=9.70354
threshold=1.0000000180025095e-35
decision_type=2
left_child=-1
right_child=-2
leaf_value=-0.0012625276300432819 0.0077817941757664976
leaf_count=1669 245
internal_value=0
internal_count=1914
shrinkage=0.02


Tree=197
num_leaves=2
num_cat=0
split_feature=0
split_gain=9.00203
threshold=1.5000000000000002
decision_type=2
left_child=-1
right_child=-2
leaf_value=-0.0023944211850776731 0.003800495833687691
leaf_count=1204 710
internal_value=0
internal_count=1914
shrinkage=0.02


Tree=198
num_leaves=2
num_cat=0
split_feature=54
split_gain=8.62119
threshold=1.0000000180025095e-35
decision_type=2
left_child=-1
right_child=-2
leaf_value=-0.0023525427976402152 0.0037048560161892174
leaf_count=1205 709
internal_value=0
internal_count=1914
shrinkage=0.02


Tree=199
num_leaves=2
num_cat=0
split_feature=116
split_gain=8.78905
threshold=1.0000000180025095e-35
decision_type=2
left_child=-1
right_child=-2
leaf_value=0.0016436478104942928 -0.0053964324224296178
leaf_count=1412 502
internal_value=0
internal_count=1914
shrinkage=0.02


Tree=200
num_leaves=2
num_cat=0
split_feature=116
split_gain=8.45737
threshold=1.0000000180025095e-35
decision_type=2
left_child=-1
right_child=-2
leaf_value=0.0016098938743212029 -0.0053026129434806538
leaf_count=1412 502
internal_value=0
internal_count=1914
shrinkage=0.02


Tree=201
num_leaves=2
num_cat=0
split_feature=187
split_gain=23.1066
threshold=0.31116091438816679
decision_type=2
left_child=-1
right_child=-2
leaf_value=-0.0058097500395509786 0.0040199197925905542
leaf_count=855 1059
internal_value=0
internal_count=1914
shrinkage=0.02


Tree=202
num_leaves=2
num_cat=0
split_feature=187
split_gain=22.6106
threshold=0.14583333333333334
decision_type=2
left_child=-1
right_child=-2
leaf_value=-0.02125640354606444 0.0010726940579792071
leaf_count=134 1780
internal_value=0
internal_count=1914
shrinkage=0.02


Tree=203
num_leaves=2
num_cat=0
split_feature=54
split_gain=8.14086
threshold=1.0000000180025095e-35
decision_type=2
left_child=-1
right_child=-2
leaf_value=-0.0022910372357271701 0.0035965912107936743
leaf_count=1205 709
internal_value=0
internal_count=1914
shrinkage=0.02


Tree=204
num_leaves=2
num_cat=0
split_feature=184
split_gain=12.9236
threshold=0.58571428571428574
decision_type=2
left_child=-1
right_child=-2
leaf_value=-0.00054386332563367715 0.024184387311718618
leaf_count=1878 36
internal_value=0
internal_count=1914
shrinkage=0.02


Tree=205
num_leaves=2
num_cat=0
split_feature=53
split_gain=8.41292
threshold=1.0000000180025095e-35
decision_type=2
left_child=-1
right_child=-2
leaf_value=-0.0019184987020022502 0.004441686968375858
leaf_count=1367 547
internal_value=0
internal_count=1914
shrinkage=0.02


Tree=206
num_leaves=2
num_cat=0
split_feature=47
split_gain=6.54158
threshold=1.0000000180025095e-35
decision_type=2
left_child=-1
right_child=-2
leaf_value=-0.0019033111384594173 0.0034809484528408774
leaf_count=1262 652
internal_value=0
internal_count=1914
shrinkage=0.02


Tree=207
num_leaves=2
num_cat=0
split_feature=129
split_gain=7.80323
threshold=1.0000000180025095e-35
decision_type=2
left_child=-1
right_child=-2
leaf_value=-0.0013052625501668678 0.0060620844824123762
leaf_count=1609 305
internal_value=0
internal_count=1914
shrinkage=0.02


Tree=208
num_leaves=2
num_cat=0
split_feature=166
split_gain=9.31878
threshold=1.0000000180025095e-35
decision_type=2
left_child=-1
right_child=-2
leaf_value=-0.0012397301641798558 0.0076250451482846463
leaf_count=1669 245
internal_value=0
internal_count=1914
shrinkage=0.02


Tree=209
num_leaves=2
num_cat=0
split_feature=187
split_gain=22.4016
threshold=0.35875160875160877
decision_type=2
left_child=-1
right_child=-2
leaf_value=-0.0035704320415601192 0.0063544657966489986
leaf_count=1282 632
internal_value=0
internal_count=1914
shrinkage=0.02


Tree=210
num_leaves=2
num_cat=0
split_feature=54
split_gain=7.60769
threshold=1.0000000180025095e-35
decision_type=2
left_child=-1
right_child=-2
leaf_value=-0.0022196895296915662 0.003472643416128557
leaf_count=1205 709
internal_value=0
internal_count=1914
shrinkage=0.02


Tree=211
num_leaves=2
num_cat=0
split_feature=187
split_gain=21.9045
threshold=0.14583333333333334
decision_type=2
left_child=-1
right_child=-2
leaf_value=-0.021105149442152773 0.0010482857534771285
leaf_count=134 1780
internal_value=0
internal_count=1914
shrinkage=0.02


Tree=212
num_leaves=2
num_cat=0
split_feature=187
split_gain=21.4016
threshold=0.24807692307692311
decision_type=2
left_child=-1
right_child=-2
leaf_value=-0.0086680171874880252 0.0024992094039530044
leaf_count=512 1402
internal_value=0
internal_count=1914
shrinkage=0.02


Tree=213
num_leaves=2
num_cat=0
split_feature=129
split_gain=7.40322
threshold=1.0000000180025095e-35
decision_type=2
left_child=-1
right_child=-2
leaf_value=-0.00127402411689222 0.0059009742586946887
leaf_count=1609 305
internal_value=0
internal_count=1914
shrinkage=0.02


Tree=214
num_leaves=2
num_cat=0
split_feature=187
split_gain=21.0716
threshold=0.14583333333333334
decision_type=2
left_child=-1
right_child=-2
leaf_value=-0.020915877658406756 0.001018269125965142
leaf_count=134 1780
internal_value=0
internal_count=1914
shrinkage=0.02


Tree=215
num_leaves=2
num_cat=0
split_feature=184
split_gain=12.6843
threshold=0.15073529411764711
decision_type=2
left_child=-1
right_child=-2
leaf_value=-0.025189910791887565 0.00050745705271156569
leaf_count=54 1860
internal_value=0
internal_count=1914
shrinkage=0.02


Tree=216
num_leaves=2
num_cat=0
split_feature=53
split_gain=7.93015
threshold=1.0000000180025095e-35
decision_type=2
left_child=-1
right_child=-2
leaf_value=-0.0018675100997413896 0.0043105491125617354
leaf_count=1367 547
internal_value=0
internal_count=1914
shrinkage=0.02


Tree=217
num_leaves=2
num_cat=0
split_feature=184
split_gain=12.4733
threshold=0.36442648361381763
decision_type=2
left_child=-1
right_child=-2
leaf_value=-0.00091286341504204606 0.013903585293788961
leaf_count=1809 105
internal_value=0
internal_count=1914
shrinkage=0.02


Tree=218
num_leaves=2
num_cat=0
split_feature=184
split_gain=12.3656
threshold=0.15073529411764711
decision_type=2
left_child=-1
right_child=-2
leaf_value=-0.025067790983243309 0.00049731664460943748
leaf_count=54 1860
internal_value=0
internal_count=1914
shrinkage=0.02


Tree=219
num_leaves=2
num_cat=0
split_feature=184
split_gain=12.1164
threshold=0.58571428571428574
decision_type=2
left_child=-1
right_child=-2
leaf_value=-0.00052786095843746178 0.02342399435583848
leaf_count=1878 36
internal_value=0
internal_count=1914
shrinkage=0.02


Tree=220
num_leaves=2
num_cat=0
split_feature=0
split_gain=8.29935
threshold=1.5000000000000002
decision_type=2
left_child=-1
right_child=-2
leaf_value=-0.002309814637187027 0.0036476948231285735
leaf_count=1204 710
internal_value=0
internal_count=1914
shrinkage=0.02


Tree=221
num_leaves=2
num_cat=0
split_feature=187
split_gain=20.9038
threshold=0.35875160875160877
decision_type=2
left_child=-1
right_child=-2
leaf_value=-0.003465599497853346 0.0061234401893857761
leaf_count=1282 632
internal_value=0
internal_count=1914
shrinkage=0.02


Tree=222
num_leaves=2
num_cat=0
split_feature=116
split_gain=7.8161
threshold=1.0000000180025095e-35
decision_type=2
left_child=-1
right_child=-2
leaf_value=0.0015474611705820296 -0.0051200801169746122
leaf_count=1412 502
internal_value=0
internal_count=1914
shrinkage=0.02


Tree=223
num_leaves=2
num_cat=0
split_feature=166
split_gain=8.81545
threshold=1.0000000180025095e-35
decision_type=2
left_child=-1
right_child=-2
leaf_value=-0.0012097568566149383 0.0074140906413607344
leaf_count=1669 245
internal_value=0
internal_count=1914
shrinkage=0.02


Tree=224
num_leaves=2
num_cat=0
split_feature=184
split_gain=12.008
threshold=0.15073529411764711
decision_type=2
left_child=-1
right_child=-2
leaf_value=-0.024939336135164216 0.00048596679668225354
leaf_count=54 1860
internal_value=0
internal_count=1914
shrinkage=0.02


Tree=225
num_leaves=2
num_cat=0
split_feature=187
split_gain=20.2545
threshold=0.14583333333333334
decision_type=2
left_child=-1
right_child=-2
leaf_value=-0.020747675709652497 0.00098853908335014892
leaf_count=134 1780
internal_value=0
internal_count=1914
shrinkage=0.02


Tree=226
num_leaves=2
num_cat=0
split_feature=187
split_gain=19.9082
threshold=0.35875160875160877
decision_type=2
left_child=-1
right_child=-2
leaf_value=-0.0033910985198894197 0.005966220564966227
leaf_count=1282 632
internal_value=0
internal_count=1914
shrinkage=0.02


Tree=227
num_leaves=2
num_cat=0
split_feature=54
split_gain=7.19418
threshold=1.0000000180025095e-35
decision_type=2
left_child=-1
right_child=-2
leaf_value=-0.0021650168833269264 0.0033783676194319013
leaf_count=1205 709
internal_value=0
internal_count=1914
shrinkage=0.02


Tree=228
num_leaves=2
num_cat=0
split_feature=154
split_gain=6.74066
threshold=1.0000000180025095e-35
decision_type=2
left_child=-1
right_child=-2
leaf_value=-0.0013242427756702264 0.0051820470401686344
leaf_count=1544 370
internal_value=0
internal_count=1914
shrinkage=0.02


Tree=229
num_leaves=2
num_cat=0
split_feature=0
split_gain=7.84742
threshold=1.5000000000000002
decision_type=2
left_child=-1
right_child=-2
leaf_value=-0.0022513933071405126 0.0035443667097256053
leaf_count=1204 710
internal_value=0
internal_count=1914
shrinkage=0.02


Tree=230
num_leaves=2
num_cat=0
split_feature=129
split_gain=6.75898
threshold=1.0000000180025095e-35
decision_type=2
left_child=-1
right_child=-2
leaf_value=-0.001221486616274816 0.005635359615856976
leaf_count=1609 305
internal_value=0
internal_count=1914
shrinkage=0.02


Tree=231
num_leaves=2
num_cat=0
split_feature=0
split_gain=7.50761
threshold=1.5000000000000002
decision_type=2
left_child=-1
right_child=-2
leaf_value=-0.0022047239808355604 0.0034636022803093349
leaf_count=1204 710
internal_value=0
internal_count=1914
shrinkage=0.02


Tree=232
num_leaves=2
num_cat=0
split_feature=116
split_gain=7.41709
threshold=1.0000000180025095e-35
decision_type=2
left_child=-1
right_child=-2
leaf_value=0.0015060015133838934 -0.0050007371280111294
leaf_count=1412 502
internal_value=0
internal_count=1914
shrinkage=0.02


Tree=233
num_leaves=2
num_cat=0
split_feature=184
split_gain=11.6994
threshold=0.58571428571428574
decision_type=2
left_child=-1
right_child=-2
leaf_value=-0.00051936947231115231 0.023033709480639156
leaf_count=1878 36
internal_value=0
internal_count=1914
shrinkage=0.02


Tree=234
num_leaves=2
num_cat=0
split_feature=184
split_gain=11.6169
threshold=0.15073529411764711
decision_type=2
left_child=-1
right_child=-2
leaf_value=-0.024818901007794568 0.00047329072432674405
leaf_count=54 1860
internal_value=0
internal_count=1914
shrinkage=0.02


Tree=235
num_leaves=2
num_cat=0
split_feature=166
split_gain=8.31927
threshold=1.0000000180025095e-35
decision_type=2
left_child=-1
right_child=-2
leaf_value=-0.0011782008861967292 0.0071974222585234676
leaf_count=1669 245
internal_value=0
internal_count=1914
shrinkage=0.02


Tree=236
num_leaves=2
num_cat=0
split_feature=0
split_gain=7.17798
threshold=1.5000000000000002
decision_type=2
left_child=-1
right_child=-2
leaf_value=-0.0021591251023469018 0.0033838963407929364
leaf_count=1204 710
internal_value=0
internal_count=1914
shrinkage=0.02


Tree=237
num_leaves=2
num_cat=0
split_feature=53
split_gain=7.25759
threshold=1.0000000180025095e-35
decision_type=2
left_child=-1
right_child=-2
leaf_value=-0.0017935935788052004 0.0041208123739223798
leaf_count=1367 547
internal_value=0
internal_count=1914
shrinkage=0.02


Tree=238
num_leaves=2
num_cat=0
split_feature=116
split_gain=7.05457
threshold=1.0000000180025095e-35
decision_type=2
left_child=-1
right_child=-2
leaf_value=0.0014668107016950276 -0.0048876965837828948
leaf_count=1412 502
internal_value=0
internal_count=1914
shrinkage=0.02


Tree=239
num_leaves=2
num_cat=0
split_feature=0
split_gain=6.83434
threshold=1.5000000000000002
decision_type=2
left_child=-1
right_child=-2
leaf_value=-0.0021096564292165223 0.0032987886551756047
leaf_count=1204 710
internal_value=0
internal_count=1914
shrinkage=0.02


Tree=240
num_leaves=2
num_cat=0
split_feature=184
split_gain=11.3552
threshold=0.36442648361381763
decision_type=2
left_child=-1
right_child=-2
leaf_value=-0.00087419875562919427 0.013260396277315494
leaf_count=1809 105
internal_value=0
internal_count=1914
shrinkage=0.02


Tree=241
num_leaves=2
num_cat=0
split_feature=187
split_gain=19.5977
threshold=0.19569181673125144
decision_type=2
left_child=-1
right_child=-2
leaf_value=-0.017431280197933659 0.0011421239060474256
leaf_count=169 1745
internal_value=0
internal_count=1914
shrinkage=0.02


Tree=242
num_leaves=2
num_cat=0
split_feature=166
split_gain=7.98476
threshold=1.0000000180025095e-35
decision_type=2
left_child=-1
right_child=-2
leaf_value=-0.0011561044223273129 0.0070476324495503838
leaf_count=1669 245
internal_value=0
internal_count=1914
shrinkage=0.02


Tree=243
num_leaves=2
num_cat=0
split_feature=187
split_gain=19.1404
threshold=0.2834821428571429
decision_type=2
left_child=-1
right_child=-2
leaf_value=-0.0061679702047670983 0.0031593745479955066
leaf_count=736 1178
internal_value=0
internal_count=1914
shrinkage=0.02


Tree=244
num_leaves=2
num_cat=0
split_feature=184
split_gain=11.2116
threshold=0.15073529411764711
decision_type=2
left_child=-1
right_child=-2
leaf_value=-0.024692362017718215 0.0004599454687462333
leaf_count=54 1860
internal_value=0
internal_count=1914
shrinkage=0.02


Tree=245
num_leaves=2
num_cat=0
split_feature=184
split_gain=11.0072
threshold=0.63333333333333341
decision_type=2
left_child=-1
right_child=-2
leaf_value=-0.00046727855860950962 0.024144023877562409
leaf_count=1883 31
internal_value=0
internal_count=1914
shrinkage=0.02


Tree=246
num_leaves=2
num_cat=0
split_feature=187
split_gain=18.931
threshold=0.14583333333333334
decision_type=2
left_child=-1
right_child=-2
leaf_value=-0.020454103536738634 0.00094072180963681478
leaf_count=134 1780
internal_value=0
internal_count=1914
shrinkage=0.02


Tree=247
num_leaves=2
num_cat=0
split_feature=166
split_gain=7.56651
threshold=1.0000000180025095e-35
decision_type=2
left_child=-1
right_child=-2
leaf_value=-0.0011277137646560004 0.0068545675552673857
leaf_count=1669 245
internal_value=0
internal_count=1914
shrinkage=0.02


Tree=248
num_leaves=2
num_cat=0
split_feature=184
split_gain=10.8785
threshold=0.15073529411764711
decision_type=2
left_child=-1
right_child=-2
leaf_value=-0.024578471532769923 0.00044859977201555597
leaf_count=54 1860
internal_value=0
internal_count=1914
shrinkage=0.02


Tree=249
num_leaves=2
num_cat=0
split_feature=184
split_gain=10.6566
threshold=0.36442648361381763
decision_type=2
left_child=-1
right_child=-2
leaf_value=-0.00084874784987798218 0.012842926097991408
leaf_count=1809 105
internal_value=0
internal_count=1914
shrinkage=0.02


Tree=250
num_leaves=2
num_cat=0
split_feature=0
split_gain=6.69746
threshold=6.5000000000000009
decision_type=2
left_child=-1
right_child=-2
leaf_value=0.00071224587144470288 -0.0095570682833094767
leaf_count=1785 129
internal_value=0
internal_count=1914
shrinkage=0.02


Tree=251
num_leaves=2
num_cat=0
split_feature=115
split_gain=6.93299
threshold=1.0000000180025095e-35
decision_type=2
left_child=-1
right_child=-2
leaf_value=0.0011466680798682578 -0.0061549072829497125
leaf_count=1581 333
internal_value=0
internal_count=1914
shrinkage=0.02


Tree=252
num_leaves=2
num_cat=0
split_feature=187
split_gain=18.5387
threshold=0.35875160875160877
decision_type=2
left_child=-1
right_child=-2
leaf_value=-0.0032903999508205129 0.0057491900155427324
leaf_count=1282 632
internal_value=0
internal_count=1914
shrinkage=0.02


Tree=253
num_leaves=2
num_cat=0
split_feature=115
split_gain=6.69965
threshold=1.0000000180025095e-35
decision_type=2
left_child=-1
right_child=-2
leaf_value=0.0011257316291948653 -0.0060608126085976242
leaf_count=1581 333
internal_value=0
internal_count=1914
shrinkage=0.02


Tree=254
num_leaves=2
num_cat=0
split_feature=116
split_gain=6.49203
threshold=1.0000000180025095e-35
decision_type=2
left_child=-1
right_child=-2
leaf_value=0.0014055741476088227 -0.0047072266316722736
leaf_count=1412 502
internal_value=0
internal_count=1914
shrinkage=0.02


Tree=255
num_leaves=2
num_cat=0
split_feature=53
split_gain=6.79609
threshold=1.0000000180025095e-35
decision_type=2
left_child=-1
right_child=-2
leaf_value=-0.0017414256332736171 0.0039867870467488291
leaf_count=1367 547
internal_value=0
internal_count=1914
shrinkage=0.02


Tree=256
num_leaves=2
num_cat=0
split_feature=187
split_gain=18.3581
threshold=0.14583333333333334
decision_type=2
left_child=-1
right_child=-2
leaf_value=-0.020320430149116348 0.00091974946380397524
leaf_count=134 1780
internal_value=0
internal_count=1914
shrinkage=0.02


Tree=257
num_leaves=2
num_cat=0
split_feature=166
split_gain=7.35073
threshold=1.0000000180025095e-35
decision_type=2
left_child=-1
right_child=-2
leaf_value=-0.0011131176214996465 0.0067567645224614163
leaf_count=1669 245
internal_value=0
internal_count=1914
shrinkage=0.02


Tree=258
num_leaves=2
num_cat=0
split_feature=166
split_gain=7.05017
threshold=1.0000000180025095e-35
decision_type=2
left_child=-1
right_child=-2
leaf_value=-0.0010913201607730073 0.0066109201334492666
leaf_count=1669 245
internal_value=0
internal_count=1914
shrinkage=0.02


Tree=259
num_leaves=2
num_cat=0
split_feature=166
split_gain=6.76222
threshold=1.0000000180025095e-35
decision_type=2
left_child=-1
right_child=-2
leaf_value=-0.0010699411422049989 0.006468572331686775
leaf_count=1669 245
internal_value=0
internal_count=1914
shrinkage=0.02


Tree=260
num_leaves=2
num_cat=0
split_feature=187
split_gain=17.8374
threshold=0.14583333333333334
decision_type=2
left_child=-1
right_child=-2
leaf_value=-0.020188508559199608 0.00090011059165615134
leaf_count=134 1780
internal_value=0
internal_count=1914
shrinkage=0.02


Tree=261
num_leaves=2
num_cat=0
split_feature=187
split_gain=17.6189
threshold=0.35875160875160877
decision_type=2
left_child=-1
right_child=-2
leaf_value=-0.0032176078957411041 0.0055973098227654894
leaf_count=1282 632
internal_value=0
internal_count=1914
shrinkage=0.02


Tree=262
num_leaves=2
num_cat=0
split_feature=52
split_gain=5.81641
threshold=1.0000000180025095e-35
decision_type=2
left_child=-1
right_child=-2
leaf_value=-0.0022396577345608973 0.0026549954492081419
leaf_count=1065 849
internal_value=0
internal_count=1914
shrinkage=0.02


Tree=263
num_leaves=2
num_cat=0
split_feature=166
split_gain=6.47418
threshold=1.0000000180025095e-35
decision_type=2
left_child=-1
right_child=-2
leaf_value=-0.0010485194095145979 0.0063248956956657399
leaf_count=1669 245
internal_value=0
internal_count=1914
shrinkage=0.02


Tree=264
num_leaves=2
num_cat=0
split_feature=187
split_gain=17.2836
threshold=0.14583333333333334
decision_type=2
left_child=-1
right_child=-2
leaf_value=-0.020043853456678203 0.00087908499034561457
leaf_count=134 1780
internal_value=0
internal_count=1914
shrinkage=0.02


Tree=265
num_leaves=2
num_cat=0
split_feature=0
split_gain=6.51394
threshold=6.5000000000000009
decision_type=2
left_child=-1
right_child=-2
leaf_value=0.00070213279204602106 -0.0094544022314346204
leaf_count=1785 129
internal_value=0
internal_count=1914
shrinkage=0.02


Tree=266
num_leaves=2
num_cat=0
split_feature=98
split_gain=6.75205
threshold=1.0000000180025095e-35
decision_type=2
left_child=-1
right_child=-2
leaf_value=0.00057967910905595572 -0.011860406112624986
leaf_count=1828 86
internal_value=0
internal_count=1914
shrinkage=0.02


Tree=267
num_leaves=2
num_cat=0
split_feature=187
split_gain=16.9019
threshold=0.31116091438816679
decision_type=2
left_child=-1
right_child=-2
leaf_value=-0.0050813296251578412 0.0034006088749679543
leaf_count=855 1059
internal_value=0
internal_count=1914
shrinkage=0.02


Tree=268
num_leaves=2
num_cat=0
split_feature=53
split_gain=6.63158
threshold=1.0000000180025095e-35
decision_type=2
left_child=-1
right_child=-2
leaf_value=-0.0017231330626532064 0.0039402680418504964
leaf_count=1367 547
internal_value=0
internal_count=1914
shrinkage=0.02


Tree=269
num_leaves=2
num_cat=0
split_feature=187
split_gain=16.7178
threshold=0.14583333333333334
decision_type=2
left_child=-1
right_child=-2
leaf_value=-0.019892332689430511 0.00085733887297545063
leaf_count=134 1780
internal_value=0
internal_count=1914
shrinkage=0.02


Tree=270
num_leaves=2
num_cat=0
split_feature=187
split_gain=16.3181
threshold=0.35875160875160877
decision_type=2
left_child=-1
right_child=-2
leaf_value=-0.0031088318135128784 0.005373572942790443
leaf_count=1282 632
internal_value=0
internal_count=1914
shrinkage=0.02


Tree=271
num_leaves=2
num_cat=0
split_feature=98
split_gain=6.53284
threshold=1.0000000180025095e-35
decision_type=2
left_child=-1
right_child=-2
leaf_value=0.00056932945186307217 -0.011694595608968355
leaf_count=1828 86
internal_value=0
internal_count=1914
shrinkage=0.02


Tree=272
num_leaves=2
num_cat=0
split_feature=187
split_gain=16.2135
threshold=0.14583333333333334
decision_type=2
left_child=-1
right_child=-2
leaf_value=-0.019753760757161648 0.00083769587166616932
leaf_count=134 1780
internal_value=0
internal_count=1914
shrinkage=0.02


Tree=273
num_leaves=2
num_cat=0
split_feature=53
split_gain=6.44427
threshold=1.0000000180025095e-35
decision_type=2
left_child=-1
right_child=-2
leaf_value=-0.0017005259992637428 0.0038838134339361521
leaf_count=1367 547
internal_value=0
internal_count=1914
shrinkage=0.02


Tree=274
num_leaves=2
num_cat=0
split_feature=116
split_gain=6.34619
threshold=1.0000000180025095e-35
decision_type=2
left_child=-1
right_child=-2
leaf_value=0.0013918427262299958 -0.0046631292244066107
leaf_count=1412 502
internal_value=0
internal_count=1914
shrinkage=0.02


Tree=275
num_leaves=2
num_cat=0
split_feature=0
split_gain=6.42451
threshold=1.5000000000000002
decision_type=2
left_child=-1
right_child=-2
leaf_value=-0.0020558983133800758 0.0032022457921797231
leaf_count=1204 710
internal_value=0
internal_count=1914
shrinkage=0.02


Tree=276
num_leaves=2
num_cat=0
split_feature=98
split_gain=6.36491
threshold=1.0000000180025095e-35
decision_type=2
left_child=-1
right_child=-2
leaf_value=0.0005614012975376975 -0.011563218672978949
leaf_count=1828 86
internal_value=0
internal_count=1914
shrinkage=0.02


Tree=277
num_leaves=2
num_cat=0
split_feature=184
split_gain=10.3619
threshold=0.15073529411764711
decision_type=2
left_child=-1
right_child=-2
leaf_value=-0.024497087915586271 0.00043077936758479252
leaf_count=54 1860
internal_value=0
internal_count=1914
shrinkage=0.02


Tree=278
num_leaves=2
num_cat=0
split_feature=166
split_gain=6.1611
threshold=1.0000000180025095e-35
decision_type=2
left_child=-1
right_child=-2
leaf_value=-0.0010254462424406914 0.0061683749330466347
leaf_count=1669 245
internal_value=0
internal_count=1914
shrinkage=0.02


Tree=279
