tree
version=v2
num_class=1
num_tree_per_iteration=1
label_index=0
max_feature_idx=219
objective=binary sigmoid:1
feature_names=Column_0 Column_1 Column_2 Column_3 Column_4 Column_5 Column_6 Column_7 Column_8 Column_9 Column_10 Column_11 Column_12 Column_13 Column_14 Column_15 Column_16 Column_17 Column_18 Column_19 Column_20 Column_21 Column_22 Column_23 Column_24 Column_25 Column_26 Column_27 Column_28 Column_29 Column_30 Column_31 Column_32 Column_33 Column_34 Column_35 Column_36 Column_37 Column_38 Column_39 Column_40 Column_41 Column_42 Column_43 Column_44 Column_45 Column_46 Column_47 Column_48 Column_49 Column_50 Column_51 Column_52 Column_53 Column_54 Column_55 Column_56 Column_57 Column_58 Column_59 Column_60 Column_61 Column_62 Column_63 Column_64 Column_65 Column_66 Column_67 Column_68 Column_69 Column_70 Column_71 Column_72 Column_73 Column_74 Column_75 Column_76 Column_77 Column_78 Column_79 Column_80 Column_81 Column_82 Column_83 Column_84 Column_85 Column_86 Column_87 Column_88 Column_89 Column_90 Column_91 Column_92 Column_93 Column_94 Column_95 Column_96 Column_97 Column_98 Column_99 Column_100 Column_101 Column_102 Column_103 Column_104 Column_105 Column_106 Column_107 Column_108 Column_109 Column_110 Column_111 Column_112 Column_113 Column_114 Column_115 Column_116 Column_117 Column_118 Column_119 Column_120 Column_121 Column_122 Column_123 Column_124 Column_125 Column_126 Column_127 Column_128 Column_129 Column_130 Column_131 Column_132 Column_133 Column_134 Column_135 Column_136 Column_137 Column_138 Column_139 Column_140 Column_141 Column_142 Column_143 Column_144 Column_145 Column_146 Column_147 Column_148 Column_149 Column_150 Column_151 Column_152 Column_153 Column_154 Column_155 Column_156 Column_157 Column_158 Column_159 Column_160 Column_161 Column_162 Column_163 Column_164 Column_165 Column_166 Column_167 Column_168 Column_169 Column_170 Column_171 Column_172 Column_173 Column_174 Column_175 Column_176 Column_177 Column_178 Column_179 Column_180 Column_181 Column_182 Column_183 Column_184 Column_185 Column_186 Column_187 Column_188 Column_189 Column_190 Column_191 Column_192 Column_193 Column_194 Column_195 Column_196 Column_197 Column_198 Column_199 Column_200 Column_201 Column_202 Column_203 Column_204 Column_205 Column_206 Column_207 Column_208 Column_209 Column_210 Column_211 Column_212 Column_213 Column_214 Column_215 Column_216 Column_217 Column_218 Column_219
feature_infos=[1:22] none none none none none none none none none [0:1] none none [0:1] none none none none none none [0:1] none none none [0:1] none none none [0:1] [0:1] none [0:1] [0:1] [0:1] none none none none none [0:1] [0:1] [0:1] [0:1] none [0:1] [0:1] [0:1] [0:1] [0:1] none none none [0:1] [0:1] [0:1] [0:1] [0:1] [0:1] [0:1] none [0:1] none [0:1] none [0:1] none none [0:1] [0:1] none none [0:1] none [0:1] [0:1] none none none [0:1] none [0:1] none none none none none none [0:1] none none [0:1] none none none none none none [0:1] [0:1] [0:1] [0:1] none [0:1] none none none none none none none [0:1] none [0:1] [0:1] [0:1] [0:1] [0:1] [0:1] [0:1] none [0:1] none [0:1] [0:1] none none [0:1] [0:1] [0:1] [0:1] [0:1] none [0:1] none none [0:1] none none none [0:1] [0:1] [0:1] none [0:1] none [0:1] [0:1] none none none [0:1] none none [0:1] [0:1] [0:1] [0:1] [0:1] [0:1] none none none none none none [0:1] [0:1] [0:1] [0:1] [0:1] [0:1] [0:1] [0:1] none [0:1] [0:1] [0:1] [0:1] [0:1] none none [1:1852] [0:265] [0.31168831168831168:0.44444444444444442] [0:1] [0:0.72222222222222221] [0:0.57692307692307687] [0:1] [0:1] none [0:1] none [0:1] none [0:1] none none none none none [0:1] none none [0:1] none none none none none none [0:1] none none [0:1] [0:1] [0:1] [0:1] [0:1] none [0:14194.91906662459]
tree_sizes=263 274 271 274 270 270 272 274 272 274 275 275 271 274 275 270 270 273 272 275 275 270 275 273 276 272 271 272 272 272 271 271 272 268 274 275 276 272 275 276 273 270 276 270 272 275 275 272 272 272 275 275 270 275 272 272 274 272 275 275 271 273 276 270 276 271 275 273 271 272 271 272 272 272 272 276 276 276 276 272 271 275 276 275 272 272 273 270 276 276 272 272 276 268 272 276 271 273 272 275 276 276 277 275 273 277 276 272 277 277 275 274 273 273 272 272 276 276 273 273 274 273 277 273 276 273 270 277 273 277 271 274 277 274 276 273 273 276 273 276 273 274 271 273 273 277 274 273 272 273 276 271 273 273 274 273 274 277 277 276 274 273 277 276 274 272 276 274 274 273 277 276 273 273 277 274 277 276 273 271 273 277 273 274 271 273 274 275 273 277 273 277 275 275 273 271 277 272 273 271 273 274 277 277 274 272 272 276 270 274 275 277 273 277 275 277 273 276 273 273 273 277 276 276 276 275 270 271 274 273 277 271 273 274 273 275 277 276 276 274 275 276 273 277 277 273 277 277 275 274 274 273 274 275 271 274 274 277 275 277 275 274 275 273 277 276 273 273 276 276 273 269 274 276 276 271 277 276 277 277 277 274 275 276 276 276 273 277 273 276 277 273 274 270 273 275 276 275 276 277 274 271 276 274 273 275 274 276 276 275 277 274 277 276 274 277 273 272 273 277 276 276 273 276 271 277 277 276 272 276 276 271 271 276 274 276 276 276 273 277 273 272 276 275 277 277 274 273 276 275 276 276 275 274 276 271 273 276 276 275 277 275 278 273 273 274 277 275 277 275 277 273 274 276 273 276 270 273 276 274 276 277 273 273 273 273 275 277 276 277 273 272 277 275 276 270 273 273 272 276 273 274 277 273 276 278 275 275 276 272 272 276 276 276 273 276 276 275 275 273 276 274 275 273 273 276 274 276 271 272 272 276 274 272 278 273 276 273 272 274 273 273 276 275 276 272 273 268 276 276 273 276 272 274 274 273 276 278 274 276 276 277 276 273 276 273 278 274 275 275 276 272 277 275 273 275 273 274 276 275 276 276 274 271 273 272 275 275 273 276 278 270 275 272 271 271 271 272 273 274 272 275 275 276 278 274 271 275 274 275 276 276 274 278 275 272 277 275 276 275 275 278 272 272 275 278 277 272 275 273 275 275 270 274 275 276 278 276 274 276 274 273 273 276 272 276 270 275 275 275 276 278 276 273 276 278 278 272 276 273 274 277 271 276 275 275 276 277 275 273 278 276 275 272 278 273 276 278 272 276 271 275 273 274 276 278 271 276 274 274 276 271 277 276 272 270 277 277 276 275 276 272 276 277 273 271 275 276 276 275 275 272 277 275 275 276 277 274 274 277 276 275 276 271 272 273 276 278 276 276 276 273 271 275 273 273 277 271 276 278 276 274 277 276 277 274 275 276 278 277 278 273 276 275 271 272 273 275 271 276 274 276 271 274 276 277 272 271 274 277 272 276 271 276 276 276 276 276 273 275 277 277 278 275 278 276 274 270 276 277 275 277 278 275 277 270 276 275 273 274 276 272 278 271 271 276 276 276 270 273 276 277 277 274 273 276 278 277 276 276 275 271 273 275 276 272 276 275 273 275 272 275 278 277 276 275 274 276 277 272 276 276 275 272 277 275 277 276 276 276 275 276 273 277 273 270 278 272 276 276 275 272 276 274 275 276 272 273 278 275 277 276 276 277 276 275 277 272 276 271 272 274 272 275 275 277 273 278 276 276 275 273 275 271 276 274 277 276 278 277 276 275 271 276 276 278 277 278 271 276 276 278 273 272 271 275 275 274 277 276 276 276 277 276 272 276 272 276 273 275 277 278 276 275 276 278 276 277 276 277 275 273 277 276 273 275 276 278 278 276 278 276 276 277 273 273 277 274 271 276 277 272 275 276 269 272 275 278 274 278 273 274 273 275 276 273 276 275 278 277 274 278 278 276 276 271 270 274 276 276 277 272 278 278 277 276 272 276 273 277 270 275 275 276 276 272 278 275 276 276 275 277 276 276 274 275 277 275 276 278 276 278 276 276 272 276 271 272 273 277 277 273 275 277 276 274 277 278 275 275 278 277 275 277 278 276 275 277 276 276 276 274 272 271 275 276 275 275 276 275 278 273 276 276 274 272 277 272 273 275 275 270 276 276 277 275 275 277 277 277 275 277 276 276 273 277 277 272 275 272 277 276 278 273 277 271 276 277 271 278 278 278 275 279 277 278 276 273 274 279 277 277 279 275 273 277 277 277 277 274 277 279 278 271 273 277 278 272 275 277 274 278 278 277 277 278 276 277 279 278 277 278 279 276 272 278 277 278 274 277 278 279 277 276 279 274 272 275 278 278 273 273 277 277 275 277 274 279 278 278 277 273 277 279 272 272 278 277 277 274 276 277 279 276 277 277 276 277 278 278 277 278 273 272 277 277 278 278 277 276 274 274 278 276 279 277 270 272 278 278 278 279 276 277 274 278 277 279 275 273 278 275 277 279 277 278 275 279 273 278 272 279 278 276 278 275 273 278 277 278 278 274 277 276 273 277 272 277 277 279 279 279 278 278 271 277 277 276 277 276 274 273 275 275 278 272 279 277 279 274 278 277 277 277 278 275 277 278 277 277 277 279 277 274 278 276 273 272 277 272 277 270 278 276 275 277 276 277 278 278 279 273 279 279 278 277 278 272 277 276 272 277 276 278 278 278 276 275 272 278 278 276 279 278 277 277 277 278 273 277 277 278 272 277 278 278 279 276 273 279 275 279 276 278 278 278 277 278 279 272 277 278 276 276 277 277 279 278 272 273 273 278 275 279 275 277 275 278 279 278 278 273 273 278 273 278 275 278 271 276 277 277 277 278 277 279 276 279 276 278 277 275 278 276 278 278 277 279 272 279 273 278 278 276 277 278 278 276 277 277 275 276 278 277 277 275 272 278 276 278 279 277 279 277 279 276 277 276 273 278 272 273 278 277 278 277 277 275 279 278 276 278 277 277 278 278 272 276 278 275 274 273 279 273 277 279 276 275 279 278 279 276 278 279 277 274 278 278 279 278 277 276 273 273 276 271 278 275 277 278 278 278 276 277 274 278 279 276 277 278 274 279 275 279 275 277 279 273 278 279 278 277 273 276 277 278 277 276 278 277 277 275 276 276 278 276 276 278 278 275 272 277 278 273 276 278 277 276 277 276 279 274 277 277 278 270 278 278 278 278 272 273 277 275 276 278 278 277 278 276 277 279 277 277 277 279 277 278 277 274 278 278 276 275 278 277 279 278 279 274 277 277 273 277 279 272 277 278 278 279 279 278 279 277 275 278 276 278 272 275 278 275 277 273 273 278 279 277 277 277 277 275 275 277 278 276 276 279 279 275 277 278 273 278 277 277 278 274 273 277 278 277 277 277 279 277 276 279 279 278 279 277 277 278 277 273 276 273 275 278 277 279 277 272 278 278 275 273 279 279 279 278 278 280 278 279 277 276 280 274 279 279 278 273 279 276 277 279 278 278 278 278 277 278 279 277 277 278 278 279 277 280 276 280 279 279 279 280 274 279 273 275 280 278 278 279 280 279 278 279 274 277 279 276 273 279 276 273 276 271 278 278 278 279 279 280 279 277 277 278 280 279 280 279 278 274 276 274 278 278 278 277 278 279 279 280 278 274 278 279 280 278 279 276 276 276 277 279 280 279 275 280 279 279 277 279 280 278 279 278 279 277 280 278 276 280 273 280 276 278 279 274 277 278 274 277 278 278 279 278 275 279 278 273 277 279 278 279 279 279 278 280 276 278 280 274 278 279 276 280 277 277 279 280 280 278 275 279 279 278 273 278 280 279 276 278 276 279 279 279 276 278 274 278 278 278 273 278 278 275 279 278 274 279 279 279 280 279 280 278 276 280 279 276 278 279 280 277 274 278 280 274 278 278 278 276 280 277 276 278 280 278 277 279 278 280 280 278 279 279 276 278 280 275 276 272 276 278 278 277 277 278 280 279 279 277 280 278 280 279 280 279 280 280 278 279 274 274 276 278 278 276 278 277 278 277 280 278 280 276 279 279 280 280 278 277 280 278 279 278 278 273 279 279 278 278 273 279 274 275 279 280 280 278 279 280 279 278 276 276 280 279 273 277 278 278 274 279 278 280 280 277 277 278 279 276 278 276 278 277 280 279 279 280 279 278 279 276 274 279 278 278 279 278 273 276 279 278 278 276 280 279 280 275 277 276 280 272 279 277 280 276 274 279 280 280 279 279 278 280 278 279 280 277 278 278 279 279 279 278 279 277 280 279 279 278 280 274 279 279 279 276 280 277 278 275 278 279 279 274 276 276 278 274 279 280 279 273 279 278 279 278 278 278 278 278 279 278 279 279 277 275 279 280 277 278 277 274 280 280 276 279 279 279 279 279 278 280 279 277 278 279 279 278 278 279 278 274 280 278 280 274 278 276 274 274 279 280 274 274 280 279 279 280 274 279 276 276 273 279 275 280 273 278 277 279 276 279 279 278 277 279 279 279 279 278 280 278 279 279 277 279 280 280 278 279 272 275 276 274 279 279 279 279 280 278 280 278 278 279 278 279 273 279 279 279 278 276 280 278 279 275 273 280 274 278 276 275 278 278 277 280 279 279 280 279 276 280 278 278 274 279 279 274 279 276 277 275 279 280 275 279 280 279 278 278 278 277 276 277 280 274 280 280 279 279 278 275 278 279 275 278 278 279 276 273 279 277 278 279 279 280 279 280 280 280 280 273 275 274 278 274 276 279 279 276 279 278 279 279 279 278 279 278 275 279 279 276 278 280 277 274 280 279 276 280 280 280 278 279 279 280 278 279 280 279 273 278 278 278 278 280 280 277 275 278 278 279 280 280 278 279 275 279 279 276 279 278 278 279 279 275 272 275 280 274 279 276 278 279 279 280 279 280 274 280 276 279 278 279 280 278 279 277 279 277 280 276 275 279 278 276 276 279 280 277 280 278 279 280 280 280 279 278 278 277 279 279 275 280 275 280 274 277 278 275 279 276 278 279 280 276 279 280 280 278 279 279 278 277 278 280 279 280 280 279 277 279 276 279 278 275 279 278 280 279 279 274 275 272 280 280 279 280 278 278 277 276 280 278 279 279 278 278 279 276 279 279 278 279 279 276 278 278 274 279 279 276 279 278 277 273 280 275 279 276 279 274 279 280 278 274 279 278 280 279 280 279 278 273 277 279 277 279 276 278 275 277 275 278 273 278 279 280 280 280 275 280 280 279 280 279 280 279 279 280 278 280 279 278 279 279 278 275 278 278 279 280 279 278 274 278 279 280 275 279 279 279 278 280 279 276 280 275 278 277 280 275 273 279 276 278 278 279 278 280 279 280 272 277 280 280 279 279 279 279 278 279 279 275 275 278 279 278 278 277 280 279 278 276 280 279 276 277 280 279 278 280 277 280 278 280 279 279 275 279 279 276 279 278 279 276 279 279 276 278 279 275 276 276 274 277 280 278 275 278 275 278 280 280 278 279 279 276 273 279 278 280 278 280 279 276 276 278 279 279 278 279 277 274 280 276 277 276 275 279 279 276 279 279 280 271 278 279 275 279 279 278 277 279 279 278 280 278 278 277 276 280 275 280 275 278 278 279 276 280 278 280 279 279 278 280 275 276 279 279 279 279 279 280 278 276 279 279 280 279 280 279 275 278 279 278 275 276 275 277 276 276 274 277 279 279 280 278 280 280 275 277 279 278 273 276 279 279 279 280 278 278 278 279 277 279 279 280 280 277 275 278 279 275 277 280 280 279 279 276 279 275 276 279 279 279 276 278 279 279 274 276 280 278 275 278 278 276 276 280 279 275 279 279 278 274 280 279 276 279 280 279 280 280 278 274 273 277 280 276 279 278 278 275 277 279 278 279 280 276 279 277 279 277 277 277 277 280 278 279 278 276 276 279 280 279 280 275 276 279 278 274 279 280 280 280 280 278 277 275 279 276 276 279 275 278 279 278 279 279 275 275 280 279 279 279 279 276 280 280 279 279 278 275 274 280 278 278 277 276 278 278 279 280 280 280 279 277 278 279 280 278 275 279 279 279 279 279 276 280 280 280 275 275 280 279 276 278 280 278 279 277 277 279 276 278 275 278 279 273 275 277 280 279 279 280 280 280 278 280 280 275 279 276 280 277 274 280 276 277 280 279 279 276 278 278 280 279 276 278 278 276 278 279 279 278 275 276 276 279 279 280 275 275 280 276 276 277 280 276 280 272 277 277 279 279 280 278 279 278 279 279 276 279 276 276 279 280 280 278 277 280 279 275 280 276 279 277 275 276 279 279 278 280 280 277 279 280 279 276 273 279 278 275 280 279 279 278 278 279 276 280 279 276 278 276 276 280 275 276 278 279 276 280 278 278 280 274 280 280 280 278 279 280 280 279 275 279 279 276 278 279 280 277 279 275 279 279 279 279 275 280 276 278 279 279 276 275 278 277 279 278 279 280 280 275 280 278 277 280 279 280 273 278 276 280 278 278 278 275 276 279 280 274 271 278 279 280 280 276 280 279 277 276 278 275 275 276 279 279 276 280 279 278 277 279 279 280 278 278 279 278 275 279 279 279 278 280 279 278 275 280 276 280 279 280 279 279 276 278 279 274 275 278 278 279 279 279 279 280 275 279 276 278 275 277 280 279 276 279 279 279 276 279 276 274 279 279 279 280 280 280 275 278 280 279 278 278 277 278 279 276 275 279 279 280 272 278 280 279 279 276 279 278 280 278 279 278 280 276 276 278 280 279 276 277 279 278 279 279 278 279 278 274 276 275 279 279 278 279 280 276 280 278 280 278 278 279 276 278 278 278 277 280 279 278 276 279 278 276 280 279 276 280 276 279 276 279 278 278 278 280 275 279 274 276 280 278 277 279 279 277 280 277 278 279 279 279 280 278 279 280 280 280 276 278 280 271 278 276 280 279 279 276 278 278 276 276 279 279 280 279 278 279 280 275 280 278 276 279 276 278 279 276 275 279 276 278 276 277 278 279 279 276 273 276 279 276 278 276 279 277 278 279 278 276 279 280 278 279 279 273 273 280 274 280 280 278 278 280 279 279 280 278 276 279 278 279 279 278 280 276 274 279 276 280 279 278 280 279 280 279 279 278 276 280 277 280 271 279 276 279 280 279 279 278 280 278 276 276 279 277 276 279 279 276 278 276 275 280 275 277 279 279 280 275 279 280 276 279 277 278 278 279 274 278 276 279 278 277 280 279 278 280 280 275 279 280 278 279 279 278 276 278 279 276 279 279 278 280 279 280 278 281 279 275 275 279 280 271 278 275 274 279 276 279 280 276 277 279 279 277 279 277 279 279 280 279 276 276 278 280 280 276 279 280 278 279 278 275 280 277 278 276 280 279 273 280 280 278 275 279 275 274 278 280 276 280 275 278 279 279 278 276 280 277 277 278 279 278 277 279 279 279 278 278 279 276 280 280 278 275 280 278 276 278 280 279 279 279 279 279 276 280 280 278 279 280 276 277 279 276 279 279 279 280 276 277 280 279 279 273 278 275 274 278 276 278 280 279 278 276 281 280 280 280 277 276 276 276 276 280 278 280 279 275 280 278 278 277 280 278 277 279 279 279 279 279 276 276 273 278 276 279 280 279 280 277 280 279 277 280 279 276 278 279 276 276 272 278 280 278 280 275 277 279 278 280 279 279 275 279 280 277 276 277 280 280 278 279 276 279 275 278 277 273 280 276 278 278 279 279 278 279 280 280 279 279 277 276 280 279 279 279 276 278 274 278 278 274 279 280 280 278 276 278 280 280 280 279 280 280 276 276 280 280 276 277 279 279 279 273 280 275 279 276 276 279 275 279 277 279 279 279 277 275 279 276 280 280 279 278 275 279 278 280 279 275 279 278 278 279 275 275 274 279 276 275 276 278 279 278 279 275 275 279 278 280 276 272 278 279 279 278 278 279 280 279 273 280 280 279 280 279 276 276 275 274 278 279 278 279 280 275 276 278 276 275 278 278 278 279 276 272 274 281 280 278 279 275 276 278 279 277 279 280 280 280 280 274 278 279 280 273 274 279 278 275 280 276 279 280 277 278 279 277 275 276 277 277 275 279 279 276 276 279 275 278 279 274 275 279 277 279 280 280 280 280 276 279 280 278 280 281 275 278 274 274 280 276 275 275 277 275 275 277 279 280 274 277 280 276 278 279 280 278 278 280 279 278 278 280 278 280 279 275 279 275 275 280 279 276 280 276 280 276 280 278 274 273 278 279 279 278 280 281 279 278 275 275 276 278 277 279 279 279 276 276 280 274 273 275 280 279 277 276 279 279 275 276 279 279 280 280 277 274 279 279 279 278 277 278 276 280 281 275 280 279 278 279 279 275 279 279 278 278 276 280 275 275 278 275 279 274 276 278 279 277 279 275 279 276 279 280 279 279 274 278 280 279 274 280 277 280 274 275 279 277 279 280 279 276 279 276 276 279 280 280 278 276 278 280 280 273 280 280 279 274 278 274 278 278 276 279 278 279 280 279 279 280 281 276 279 278 280 277 277 280 279 279 275 275 276 275 276 276 280 275 279 277 276 280 279 279 278 280 279 278 279 278 278 278 280 276 279 276 277 275 277 276 279 274 277 274 278 280 280 280 274 276 273 279 275 275 276 279 280 280 279 280 278 281 277 279 272 278 276 277 279 278 278 279 279 276 277 274 280 274 275 276 279 278 280 278 280 278 274 280 280 281 276 279 274 279 277 275 277 274 275 278 276 280 280 278 278 274 280 280 275 274 275 275 280 274 279 279 275 277 280 280 279 277 278 275 275 280 279 280 280 275 278 275 279 278 278 281 278 277 274 281 275 279 279 280 279 280 279 279 275 274 278 280 276 278 279 278 277 277 280 279 279 279 276 275 277 280 280 278 278 279 280 277 275 278 275 279 277 273 281 280 274 276 278 276 280 277 280 280 275 278 280 279 276 274 276 275 273 278 279 281 279 275 278 280 275 279 276 280 275 278 275 279 274 280 280 279 279 279 280 280 278 279 279 279 279 278 280 280 276 276 280 276 279 281 279 274 276 280 276 274 280 280 278 275 278 275 278 274 276 276 273 277 279 279 276 279 280 278 278 275 280 275 280 277 277 279 279 276 279 278 280 277 278 275 280 275 278 280 280 279 280 279 281 278 280 276 280 278 276 276 276 280 279 280 278 274 279 280 277 279 279 278 275 276 276 276 276 275 279 280 279 279 276 275 278 276 278 280 280 274 279 279 277 272 276 280 279 275 278 275 276 278 279 275 275 277 280 276 279 273 278 279 280 281 278 279 274 277 279 280 279 280 277 278 276 280 279 281 279 276 277 276 280 276 280 279 280 280 275 280 278 273 278 276 273 279 280 280 278 280 278 274 280 279 281 279 278 274 276 277 279 278 276 280 277 278 274 278 279 275 277 274 280 275 280 276 279 278 278 280 277 274 275 277 280 280 280 279 279 279 278 275 275 278 276 279 279 276 279 280 276 281 279 280 278 275 277 276 275 275 277 279 278 276 279 280 275 275 279 279 276 278 273 280 279 279 275 275 279 276 275 276 279 274 275 278 281 280 280 280 280 274 275 280 276 280 279 278 280 280 279 274 280 274 280 278 276 275 278 280 280 279 275 279 275 278 276 279 277 280 280 279 279 279 279 279 277 281 278 276 277 276 278 275 280 280 279 274 280 279 276 275 277 279 278 279 279 279 275 279 280 280 279 276 278 276 273 276 274 280 279 279 280 275 280 276 274 280 276 279 279 279 276 280 280 273 279 273 279 276 278 277 280 279 278 280 280 281 279 275 275 276 274 279 276 275 280 274 279 280 278 271 278 276 273 274 278 275 273 274 279 280 276 274 273 278 279 275 279 278 272 280 279 280 279 280 275 278 276 280 279 272 279 275 274 279 277 278 280 279 278 276 278 275 279 274 274 275 280 277 275 272 276 280 278 272 279 278 279 274 279 279 280 277 276 278 280 280 277 273 273 281 279 278 280 279 275 280 276 280 278 275 275 275 280 276 280 279 279 280 280 280 274 278 272 278 276 280 281 275 275 275 275 278 278 273 280 280 280 278 279 280 280 273 279 275 280 276 279 277 279 279 278 276 275 279 277 279 279 278 275 278 273 280 275 279 280 279 275 275 276 275 274 279 279 275 278 273 276 273 280 279 279 274 274 280 279 279 278 280 273 274 280 279 281 276 275 274 280 279 273 277 279 276 279 272 279 280 275 281 280 280 280 280 275 275 276 280 276 280 273 279 279 277 276 280 278 279 280 273 274 275 278 272 279 279 279 279 279 279 277 279 278 278 279 274 276 277 280 277 275 278 281 275 276 279 280 280 279 278 275 280 275 276 278 276 275 274 280 280 276 278 280 273 280 273 279 276 278 279 274 280 275 279 276 280 278 279 276 274 274 279 279 280 279 273 274 273 276 279 279 280 278 274 280 281 275 276 280 279 279 275 279 273 276 280 274 280 279 278 279 276 276 274 276 276 276 279 273 279 280 279 280 280 277 279 276 274 278 280 272 280 279 274 279 280 279 272 273 280 279 279 279 275 280 279 277 278 280 279 279 275 275 278 276 280 279 278 278 275 275 276 278 280 275 280 279 276 280 274 280 279 280 280 273 273 279 278 275 280 278 279 273 280 279 275 279 276 280 275 280 274 277 280 279 280 278 275 275 275 278 275 280 279 280 280 278 274 280 276 278 279 279 278 280 277 276 280 279 279 280 278 281 281 279 279 279 280 280 280 276 280 275 278 272 271 279 280 279 277 276 279 276 273 279 272 280 280 278 279 280 273 280 279 280 273 274 279 276 276 279 279 275 275 275 276 278 273 276 274 274 280 276 279 279 280 279 276 280 275 279 275 279 281 275 278 276 279 276 280 280 280 279 280 279 279 276 275 278 278 279 277 280 275 276 278 281 280 276 279 278 279 278 278 276 275 280 279 279 275 279 273 278 274 279 279 280 279 273 276 276 274 281 275 279 279 272 278 280 276 279 280 279 280 280 280 279 277 279 277 280 277 279 278 279 280 273 280 275 274 275 273 280 278 276 275 274 274 273 274 280 277 275 273 280 276 273 275 279 279 274 276 279 279 278 277 273 279 280 280 277 279 275 279 280 274 277 280 272 274 279 272 280 278 278 279 278 280 280 279 280 280 280 279 280 278 272 280 279 272 277 279 274 275 274 275 273 273 279 276 278 279 273 280 281 274 278 280 278 279 275 278 275 279 281 272 275 277 279 275 275 274 278 281 276 278 276 278 273 278 280 278 281 274 274 280 277 276 276 275 272 278 279 275 275 279 274 280 280 274 273 276 279 279 279 278 275 277 278 280 278 271 279 276 275 279 280 278 278 279 280 279 280 272 274 280 274 275 279 280 279 280 277 279 279 279 280 278 279 278 278 274 276 273 279 279 278 280 279 274 273 280 280 281 274 280 279 275 278 280 275 273 276 278 275 273 281 280 275 280 273 276 276 279 274 278 276 274 280 273 281 280 273 280 278 277 273 275 279 276 277 279 279 273 279 281 274 279 273 280 279 274 279 279 277 275 280 276 280 272 275 276 271 281 277 279 276 272 273 279 279 275 275 275 278 280 277 280

Tree=0
num_leaves=2
num_cat=0
split_feature=0
split_gain=24.2365
threshold=1.5000000000000002
decision_type=2
left_child=-1
right_child=-2
leaf_value=-0.82276522718827461 -0.81261258968964789
leaf_count=1215 697
internal_value=0
internal_count=1912
shrinkage=1


Tree=1
num_leaves=2
num_cat=0
split_feature=129
split_gain=35.8193
threshold=1.0000000180025095e-35
decision_type=2
left_child=-1
right_child=-2
leaf_value=-0.0026088010430317938 0.013527281374327925
leaf_count=1603 309
internal_value=0
internal_count=1912
shrinkage=0.02


Tree=2
num_leaves=2
num_cat=0
split_feature=187
split_gain=64.3045
threshold=0.30463917525773204
decision_type=2
left_child=-1
right_child=-2
leaf_value=-0.009632159332667126 0.0065771566679888619
leaf_count=776 1136
internal_value=0
internal_count=1912
shrinkage=0.02


Tree=3
num_leaves=2
num_cat=0
split_feature=116
split_gain=43.2924
threshold=1.0000000180025095e-35
decision_type=2
left_child=-1
right_child=-2
leaf_value=0.0039115458045780307 -0.010903333888467483
leaf_count=1407 505
internal_value=0
internal_count=1912
shrinkage=0.02


Tree=4
num_leaves=2
num_cat=0
split_feature=184
split_gain=39.2322
threshold=0.46666666666666673
decision_type=2
left_child=-1
right_child=-2
leaf_value=-0.0010917335647895267 0.035424206026902667
leaf_count=1855 57
internal_value=0
internal_count=1912
shrinkage=0.02


Tree=5
num_leaves=2
num_cat=0
split_feature=184
split_gain=37.1831
threshold=0.46666666666666673
decision_type=2
left_child=-1
right_child=-2
leaf_value=-0.0010703569590569317 0.034249343908349932
leaf_count=1855 57
internal_value=0
internal_count=1912
shrinkage=0.02


Tree=6
num_leaves=2
num_cat=0
split_feature=187
split_gain=61.9922
threshold=0.30463917525773204
decision_type=2
left_child=-1
right_child=-2
leaf_value=-0.0094861609977943007 0.0064383492454916482
leaf_count=776 1136
internal_value=0
internal_count=1912
shrinkage=0.02


Tree=7
num_leaves=2
num_cat=0
split_feature=116
split_gain=41.6375
threshold=1.0000000180025095e-35
decision_type=2
left_child=-1
right_child=-2
leaf_value=0.0038241779559919824 -0.010725764437289087
leaf_count=1407 505
internal_value=0
internal_count=1912
shrinkage=0.02


Tree=8
num_leaves=2
num_cat=0
split_feature=187
split_gain=59.7898
threshold=0.30463917525773204
decision_type=2
left_child=-1
right_child=-2
leaf_value=-0.0093435316310104839 0.0063046582743627256
leaf_count=776 1136
internal_value=0
internal_count=1912
shrinkage=0.02


Tree=9
num_leaves=2
num_cat=0
split_feature=129
split_gain=33.1708
threshold=1.0000000180025095e-35
decision_type=2
left_child=-1
right_child=-2
leaf_value=-0.0025253292778759655 0.012949013141786187
leaf_count=1603 309
internal_value=0
internal_count=1912
shrinkage=0.02


Tree=10
num_leaves=2
num_cat=0
split_feature=115
split_gain=30.6974
threshold=1.0000000180025095e-35
decision_type=2
left_child=-1
right_child=-2
leaf_value=0.0025598464804337906 -0.011811208930673712
leaf_count=1569 343
internal_value=0
internal_count=1912
shrinkage=0.02


Tree=11
num_leaves=2
num_cat=0
split_feature=116
split_gain=39.2026
threshold=1.0000000180025095e-35
decision_type=2
left_child=-1
right_child=-2
leaf_value=0.0036935253648222206 -0.010456159917425512
leaf_count=1407 505
internal_value=0
internal_count=1912
shrinkage=0.02


Tree=12
num_leaves=2
num_cat=0
split_feature=184
split_gain=34.6728
threshold=0.46666666666666673
decision_type=2
left_child=-1
right_child=-2
leaf_value=-0.0010435171426190102 0.032797385509158679
leaf_count=1855 57
internal_value=0
internal_count=1912
shrinkage=0.02


Tree=13
num_leaves=2
num_cat=0
split_feature=116
split_gain=37.651
threshold=1.0000000180025095e-35
decision_type=2
left_child=-1
right_child=-2
leaf_value=0.0036087988788169097 -0.010278625209434714
leaf_count=1407 505
internal_value=0
internal_count=1912
shrinkage=0.02


Tree=14
num_leaves=2
num_cat=0
split_feature=115
split_gain=27.8397
threshold=1.0000000180025095e-35
decision_type=2
left_child=-1
right_child=-2
leaf_value=0.0024192861046802823 -0.011334319290448281
leaf_count=1569 343
internal_value=0
internal_count=1912
shrinkage=0.02


Tree=15
num_leaves=2
num_cat=0
split_feature=184
split_gain=32.7189
threshold=0.46666666666666673
decision_type=2
left_child=-1
right_child=-2
leaf_value=-0.001020768115484391 0.031653284052504262
leaf_count=1855 57
internal_value=0
internal_count=1912
shrinkage=0.02


Tree=16
num_leaves=2
num_cat=0
split_feature=184
split_gain=31.1038
threshold=0.46666666666666673
decision_type=2
left_child=-1
right_child=-2
leaf_value=-0.001000754500418814 0.030697555476782507
leaf_count=1855 57
internal_value=0
internal_count=1912
shrinkage=0.02


Tree=17
num_leaves=2
num_cat=0
split_feature=187
split_gain=58.1862
threshold=0.30463917525773204
decision_type=2
left_child=-1
right_child=-2
leaf_value=-0.0092395978463824784 0.0062071571036873231
leaf_count=776 1136
internal_value=0
internal_count=1912
shrinkage=0.02


Tree=18
num_leaves=2
num_cat=0
split_feature=184
split_gain=29.5782
threshold=0.46666666666666673
decision_type=2
left_child=-1
right_child=-2
leaf_value=-0.00098117882184602578 0.029786926496930603
leaf_count=1855 57
internal_value=0
internal_count=1912
shrinkage=0.02


Tree=19
num_leaves=2
num_cat=0
split_feature=116
split_gain=35.3007
threshold=1.0000000180025095e-35
decision_type=2
left_child=-1
right_child=-2
leaf_value=0.0034782831953505478 -0.010001615831136153
leaf_count=1407 505
internal_value=0
internal_count=1912
shrinkage=0.02


Tree=20
num_leaves=2
num_cat=0
split_feature=166
split_gain=21.5307
threshold=1.0000000180025095e-35
decision_type=2
left_child=-1
right_child=-2
leaf_value=-0.0017536660202199092 0.012120366033153949
leaf_count=1671 241
internal_value=0
internal_count=1912
shrinkage=0.02


Tree=21
num_leaves=2
num_cat=0
split_feature=187
split_gain=56.1198
threshold=0.21764705882352944
decision_type=2
left_child=-1
right_child=-2
leaf_value=-0.016006302191467228 0.00345515579641057
leaf_count=345 1567
internal_value=0
internal_count=1912
shrinkage=0.02


Tree=22
num_leaves=2
num_cat=0
split_feature=115
split_gain=26.2656
threshold=1.0000000180025095e-35
decision_type=2
left_child=-1
right_child=-2
leaf_value=0.0023396016197901395 -0.011060457072008421
leaf_count=1569 343
internal_value=0
internal_count=1912
shrinkage=0.02


Tree=23
num_leaves=2
num_cat=0
split_feature=187
split_gain=55.0235
threshold=0.30463917525773204
decision_type=2
left_child=-1
right_child=-2
leaf_value=-0.0090260606903549475 0.0060107885474963594
leaf_count=776 1136
internal_value=0
internal_count=1912
shrinkage=0.02


Tree=24
num_leaves=2
num_cat=0
split_feature=116
split_gain=33.4079
threshold=1.0000000180025095e-35
decision_type=2
left_child=-1
right_child=-2
leaf_value=0.0033702742756826264 -0.0097709048564513807
leaf_count=1407 505
internal_value=0
internal_count=1912
shrinkage=0.02


Tree=25
num_leaves=2
num_cat=0
split_feature=184
split_gain=27.8215
threshold=0.46666666666666673
decision_type=2
left_child=-1
right_child=-2
leaf_value=-0.00095806153585393183 0.028729228400993369
leaf_count=1855 57
internal_value=0
internal_count=1912
shrinkage=0.02


Tree=26
num_leaves=2
num_cat=0
split_feature=187
split_gain=53.1805
threshold=0.21764705882352944
decision_type=2
left_child=-1
right_child=-2
leaf_value=-0.015679103150598145 0.003343582689259978
leaf_count=345 1567
internal_value=0
internal_count=1912
shrinkage=0.02


Tree=27
num_leaves=2
num_cat=0
split_feature=187
split_gain=51.9059
threshold=0.30463917525773204
decision_type=2
left_child=-1
right_child=-2
leaf_value=-0.008807788159889262 0.0058129663579673009
leaf_count=776 1136
internal_value=0
internal_count=1912
shrinkage=0.02


Tree=28
num_leaves=2
num_cat=0
split_feature=187
split_gain=50.3322
threshold=0.21764705882352944
decision_type=2
left_child=-1
right_child=-2
leaf_value=-0.015348624674211686 0.0032330803051594244
leaf_count=345 1567
internal_value=0
internal_count=1912
shrinkage=0.02


Tree=29
num_leaves=2
num_cat=0
split_feature=187
split_gain=48.8315
threshold=0.30463917525773204
decision_type=2
left_child=-1
right_child=-2
leaf_value=-0.008583471366512014 0.0056129038258921028
leaf_count=776 1136
internal_value=0
internal_count=1912
shrinkage=0.02


Tree=30
num_leaves=2
num_cat=0
split_feature=187
split_gain=47.6435
threshold=0.21764705882352944
decision_type=2
left_child=-1
right_child=-2
leaf_value=-0.015025953999067794 0.003126698618973205
leaf_count=345 1567
internal_value=0
internal_count=1912
shrinkage=0.02


Tree=31
num_leaves=2
num_cat=0
split_feature=187
split_gain=46.002
threshold=0.21764705882352944
decision_type=2
left_child=-1
right_child=-2
leaf_value=-0.014823443716984446 0.0030605273642964558
leaf_count=345 1567
internal_value=0
internal_count=1912
shrinkage=0.02


Tree=32
num_leaves=2
num_cat=0
split_feature=184
split_gain=26.5573
threshold=0.46666666666666673
decision_type=2
left_child=-1
right_child=-2
leaf_value=-0.00094114919431222957 0.027968670994870496
leaf_count=1855 57
internal_value=0
internal_count=1912
shrinkage=0.02


Tree=33
num_leaves=2
num_cat=0
split_feature=0
split_gain=21.84
threshold=1.5000000000000002
decision_type=2
left_child=-1
right_child=-2
leaf_value=-0.0035387839710068919 0.0060967370335826901
leaf_count=1215 697
internal_value=0
internal_count=1912
shrinkage=0.02


Tree=34
num_leaves=2
num_cat=0
split_feature=115
split_gain=25.238
threshold=1.0000000180025095e-35
decision_type=2
left_child=-1
right_child=-2
leaf_value=0.0022872959663490012 -0.010881279998354275
leaf_count=1569 343
internal_value=0
internal_count=1912
shrinkage=0.02


Tree=35
num_leaves=2
num_cat=0
split_feature=52
split_gain=16.7531
threshold=1.0000000180025095e-35
decision_type=2
left_child=-1
right_child=-2
leaf_value=-0.0036307743217162754 0.0045576434267891259
leaf_count=1070 842
internal_value=0
internal_count=1912
shrinkage=0.02


Tree=36
num_leaves=2
num_cat=0
split_feature=116
split_gain=31.2162
threshold=1.0000000180025095e-35
decision_type=2
left_child=-1
right_child=-2
leaf_value=0.0032435197694831619 -0.0094970549584752345
leaf_count=1407 505
internal_value=0
internal_count=1912
shrinkage=0.02


Tree=37
num_leaves=2
num_cat=0
split_feature=187
split_gain=45.3394
threshold=0.30463917525773204
decision_type=2
left_child=-1
right_child=-2
leaf_value=-0.0083200990938661692 0.005380899757712043
leaf_count=776 1136
internal_value=0
internal_count=1912
shrinkage=0.02


Tree=38
num_leaves=2
num_cat=0
split_feature=129
split_gain=28.2261
threshold=1.0000000180025095e-35
decision_type=2
left_child=-1
right_child=-2
leaf_value=-0.0023587826034379535 0.011837209762664202
leaf_count=1603 309
internal_value=0
internal_count=1912
shrinkage=0.02


Tree=39
num_leaves=2
num_cat=0
split_feature=116
split_gain=30.0732
threshold=1.0000000180025095e-35
decision_type=2
left_child=-1
right_child=-2
leaf_value=0.0031757963575231121 -0.0093476734797394451
leaf_count=1407 505
internal_value=0
internal_count=1912
shrinkage=0.02


Tree=40
num_leaves=2
num_cat=0
split_feature=187
split_gain=43.6562
threshold=0.30463917525773204
decision_type=2
left_child=-1
right_child=-2
leaf_value=-0.0081875408873240373 0.0052670831794748522
leaf_count=776 1136
internal_value=0
internal_count=1912
shrinkage=0.02


Tree=41
num_leaves=2
num_cat=0
split_feature=184
split_gain=24.995
threshold=0.46666666666666673
decision_type=2
left_child=-1
right_child=-2
leaf_value=-0.0009185095423449287 0.027011012601289193
leaf_count=1855 57
internal_value=0
internal_count=1912
shrinkage=0.02


Tree=42
num_leaves=2
num_cat=0
split_feature=116
split_gain=29.0104
threshold=1.0000000180025095e-35
decision_type=2
left_child=-1
right_child=-2
leaf_value=0.0031121884666410623 -0.0092055529424460644
leaf_count=1407 505
internal_value=0
internal_count=1912
shrinkage=0.02


Tree=43
num_leaves=2
num_cat=0
split_feature=0
split_gain=20.4787
threshold=1.5000000000000002
decision_type=2
left_child=-1
right_child=-2
leaf_value=-0.0034392002453336296 0.0058893361335157846
leaf_count=1215 697
internal_value=0
internal_count=1912
shrinkage=0.02


Tree=44
num_leaves=2
num_cat=0
split_feature=187
split_gain=42.9566
threshold=0.19569181673125144
decision_type=2
left_child=-1
right_child=-2
leaf_value=-0.021285125901144095 0.0019914107038797326
leaf_count=174 1738
internal_value=0
internal_count=1912
shrinkage=0.02


Tree=45
num_leaves=2
num_cat=0
split_feature=129
split_gain=26.4199
threshold=1.0000000180025095e-35
decision_type=2
left_child=-1
right_child=-2
leaf_value=-0.0022921098018972986 0.011413490744880159
leaf_count=1603 309
internal_value=0
internal_count=1912
shrinkage=0.02


Tree=46
num_leaves=2
num_cat=0
split_feature=115
split_gain=22.2646
threshold=1.0000000180025095e-35
decision_type=2
left_child=-1
right_child=-2
leaf_value=0.0021299159974302708 -0.010320149415742727
leaf_count=1569 343
internal_value=0
internal_count=1912
shrinkage=0.02


Tree=47
num_leaves=2
num_cat=0
split_feature=184
split_gain=23.5761
threshold=0.46666666666666673
decision_type=2
left_child=-1
right_child=-2
leaf_value=-0.00089655359537978803 0.026125071100069595
leaf_count=1855 57
internal_value=0
internal_count=1912
shrinkage=0.02


Tree=48
num_leaves=2
num_cat=0
split_feature=187
split_gain=41.8214
threshold=0.31930501930501937
decision_type=2
left_child=-1
right_child=-2
leaf_value=-0.0063863941763392263 0.0064769821910861695
leaf_count=988 924
internal_value=0
internal_count=1912
shrinkage=0.02


Tree=49
num_leaves=2
num_cat=0
split_feature=187
split_gain=41.2823
threshold=0.19569181673125144
decision_type=2
left_child=-1
right_child=-2
leaf_value=-0.021007283682688286 0.0019401090452116009
leaf_count=174 1738
internal_value=0
internal_count=1912
shrinkage=0.02


Tree=50
num_leaves=2
num_cat=0
split_feature=129
split_gain=24.9653
threshold=1.0000000180025095e-35
decision_type=2
left_child=-1
right_child=-2
leaf_value=-0.0022359996656236224 0.011064167353238785
leaf_count=1603 309
internal_value=0
internal_count=1912
shrinkage=0.02


Tree=51
num_leaves=2
num_cat=0
split_feature=166
split_gain=19.8406
threshold=1.0000000180025095e-35
decision_type=2
left_child=-1
right_child=-2
leaf_value=-0.0016965701870969728 0.011597438085051577
leaf_count=1671 241
internal_value=0
internal_count=1912
shrinkage=0.02


Tree=52
num_leaves=2
num_cat=0
split_feature=187
split_gain=39.9467
threshold=0.19569181673125144
decision_type=2
left_child=-1
right_child=-2
leaf_value=-0.0207806679738692 0.0018981777299593111
leaf_count=174 1738
internal_value=0
internal_count=1912
shrinkage=0.02


Tree=53
num_leaves=2
num_cat=0
split_feature=116
split_gain=27.2429
threshold=1.0000000180025095e-35
decision_type=2
left_child=-1
right_child=-2
leaf_value=0.0030051637565049047 -0.008962976604697314
leaf_count=1407 505
internal_value=0
internal_count=1912
shrinkage=0.02


Tree=54
num_leaves=2
num_cat=0
split_feature=187
split_gain=39.1741
threshold=0.31930501930501937
decision_type=2
left_child=-1
right_child=-2
leaf_value=-0.0062097329601504374 0.0062444735649411281
leaf_count=988 924
internal_value=0
internal_count=1912
shrinkage=0.02


Tree=55
num_leaves=2
num_cat=0
split_feature=184
split_gain=22.2347
threshold=0.46666666666666673
decision_type=2
left_child=-1
right_child=-2
leaf_value=-0.00087510413329524737 0.025282560988602602
leaf_count=1855 57
internal_value=0
internal_count=1912
shrinkage=0.02


Tree=56
num_leaves=2
num_cat=0
split_feature=129
split_gain=23.5147
threshold=1.0000000180025095e-35
decision_type=2
left_child=-1
right_child=-2
leaf_value=-0.0021779326402818905 0.01070861952556211
leaf_count=1603 309
internal_value=0
internal_count=1912
shrinkage=0.02


Tree=57
num_leaves=2
num_cat=0
split_feature=184
split_gain=21.1299
threshold=0.46666666666666673
decision_type=2
left_child=-1
right_child=-2
leaf_value=-0.00085599230062122645 0.024570501476522507
leaf_count=1855 57
internal_value=0
internal_count=1912
shrinkage=0.02


Tree=58
num_leaves=2
num_cat=0
split_feature=116
split_gain=26.061
threshold=1.0000000180025095e-35
decision_type=2
left_child=-1
right_child=-2
leaf_value=0.0029321694162769639 -0.0087942215103214792
leaf_count=1407 505
internal_value=0
internal_count=1912
shrinkage=0.02


Tree=59
num_leaves=2
num_cat=0
split_feature=166
split_gain=18.8782
threshold=1.0000000180025095e-35
decision_type=2
left_child=-1
right_child=-2
leaf_value=-0.0016605146544367835 0.011288421479676349
leaf_count=1671 241
internal_value=0
internal_count=1912
shrinkage=0.02


Tree=60
num_leaves=2
num_cat=0
split_feature=187
split_gain=38.3782
threshold=0.19569181673125144
decision_type=2
left_child=-1
right_child=-2
leaf_value=-0.02051379167103148 0.0018493157184322055
leaf_count=174 1738
internal_value=0
internal_count=1912
shrinkage=0.02


Tree=61
num_leaves=2
num_cat=0
split_feature=187
split_gain=37.3746
threshold=0.30463917525773204
decision_type=2
left_child=-1
right_child=-2
leaf_value=-0.0076680987416116418 0.0048277035902081454
leaf_count=776 1136
internal_value=0
internal_count=1912
shrinkage=0.02


Tree=62
num_leaves=2
num_cat=0
split_feature=116
split_gain=25.3122
threshold=1.0000000180025095e-35
decision_type=2
left_child=-1
right_child=-2
leaf_value=0.0028851057480096427 -0.0086859988899179348
leaf_count=1407 505
internal_value=0
internal_count=1912
shrinkage=0.02


Tree=63
num_leaves=2
num_cat=0
split_feature=0
split_gain=18.9888
threshold=1.5000000000000002
decision_type=2
left_child=-1
right_child=-2
leaf_value=-0.0033281327291851889 0.0056589900080638664
leaf_count=1215 697
internal_value=0
internal_count=1912
shrinkage=0.02


Tree=64
num_leaves=2
num_cat=0
split_feature=116
split_gain=24.3055
threshold=1.0000000180025095e-35
decision_type=2
left_child=-1
right_child=-2
leaf_value=0.0028199366834024365 -0.0085350574030978021
leaf_count=1407 505
internal_value=0
internal_count=1912
shrinkage=0.02


Tree=65
num_leaves=2
num_cat=0
split_feature=187
split_gain=36.838
threshold=0.19569181673125144
decision_type=2
left_child=-1
right_child=-2
leaf_value=-0.020243472791588606 0.0018000872607176364
leaf_count=174 1738
internal_value=0
internal_count=1912
shrinkage=0.02


Tree=66
num_leaves=2
num_cat=0
split_feature=129
split_gain=21.8268
threshold=1.0000000180025095e-35
decision_type=2
left_child=-1
right_child=-2
leaf_value=-0.0021080656506943115 0.010286309411029933
leaf_count=1603 309
internal_value=0
internal_count=1912
shrinkage=0.02


Tree=67
num_leaves=2
num_cat=0
split_feature=53
split_gain=15.7596
threshold=1.0000000180025095e-35
decision_type=2
left_child=-1
right_child=-2
leaf_value=-0.0024763443957059282 0.00631935763959452
leaf_count=1383 529
internal_value=0
internal_count=1912
shrinkage=0.02


Tree=68
num_leaves=2
num_cat=0
split_feature=187
split_gain=35.734
threshold=0.31930501930501937
decision_type=2
left_child=-1
right_child=-2
leaf_value=-0.0059710607042171848 0.0059358682651703271
leaf_count=988 924
internal_value=0
internal_count=1912
shrinkage=0.02


Tree=69
num_leaves=2
num_cat=0
split_feature=187
split_gain=35.3753
threshold=0.19569181673125144
decision_type=2
left_child=-1
right_child=-2
leaf_value=-0.019978513455585569 0.0017523952140425288
leaf_count=174 1738
internal_value=0
internal_count=1912
shrinkage=0.02


Tree=70
num_leaves=2
num_cat=0
split_feature=187
split_gain=34.2934
threshold=0.19569181673125144
decision_type=2
left_child=-1
right_child=-2
leaf_value=-0.019778004219292128 0.001716216509218365
leaf_count=174 1738
internal_value=0
internal_count=1912
shrinkage=0.02


Tree=71
num_leaves=2
num_cat=0
split_feature=187
split_gain=33.5532
threshold=0.30463917525773204
decision_type=2
left_child=-1
right_child=-2
leaf_value=-0.007324830973431457 0.0045446410323643901
leaf_count=776 1136
internal_value=0
internal_count=1912
shrinkage=0.02


Tree=72
num_leaves=2
num_cat=0
split_feature=187
split_gain=32.8651
threshold=0.19569181673125144
decision_type=2
left_child=-1
right_child=-2
leaf_value=-0.019507428793502098 0.0016681460248921106
leaf_count=174 1738
internal_value=0
internal_count=1912
shrinkage=0.02


Tree=73
num_leaves=2
num_cat=0
split_feature=187
split_gain=32.1087
threshold=0.31930501930501937
decision_type=2
left_child=-1
right_child=-2
leaf_value=-0.0057009952384633094 0.0055927178519882478
leaf_count=988 924
internal_value=0
internal_count=1912
shrinkage=0.02


Tree=74
num_leaves=2
num_cat=0
split_feature=187
split_gain=31.5779
threshold=0.21764705882352944
decision_type=2
left_child=-1
right_child=-2
leaf_value=-0.012829604445850804 0.0024407389542128949
leaf_count=345 1567
internal_value=0
internal_count=1912
shrinkage=0.02


Tree=75
num_leaves=2
num_cat=0
split_feature=129
split_gain=20.5189
threshold=1.0000000180025095e-35
decision_type=2
left_child=-1
right_child=-2
leaf_value=-0.0020525644164894252 0.0099516242472531199
leaf_count=1603 309
internal_value=0
internal_count=1912
shrinkage=0.02


Tree=76
num_leaves=2
num_cat=0
split_feature=115
split_gain=20.1193
threshold=1.0000000180025095e-35
decision_type=2
left_child=-1
right_child=-2
leaf_value=0.0020166667198980885 -0.0098940780814071663
leaf_count=1569 343
internal_value=0
internal_count=1912
shrinkage=0.02


Tree=77
num_leaves=2
num_cat=0
split_feature=116
split_gain=22.9436
threshold=1.0000000180025095e-35
decision_type=2
left_child=-1
right_child=-2
leaf_value=0.0027336345519653892 -0.0083309983370460292
leaf_count=1407 505
internal_value=0
internal_count=1912
shrinkage=0.02


Tree=78
num_leaves=2
num_cat=0
split_feature=116
split_gain=22.0936
threshold=1.0000000180025095e-35
decision_type=2
left_child=-1
right_child=-2
leaf_value=0.0026763182274332528 -0.0081955558538601998
leaf_count=1407 505
internal_value=0
internal_count=1912
shrinkage=0.02


Tree=79
num_leaves=2
num_cat=0
split_feature=187
split_gain=31.0848
threshold=0.19569181673125144
decision_type=2
left_child=-1
right_child=-2
leaf_value=-0.019163882791941384 0.0016081056636397379
leaf_count=174 1738
internal_value=0
internal_count=1912
shrinkage=0.02


Tree=80
num_leaves=2
num_cat=0
split_feature=187
split_gain=30.2967
threshold=0.14583333333333334
decision_type=2
left_child=-1
right_child=-2
leaf_value=-0.021888829118707695 0.001371715783845169
leaf_count=134 1778
internal_value=0
internal_count=1912
shrinkage=0.02


Tree=81
num_leaves=2
num_cat=0
split_feature=116
split_gain=21.3803
threshold=1.0000000180025095e-35
decision_type=2
left_child=-1
right_child=-2
leaf_value=0.0026283478611823052 -0.008080552589729402
leaf_count=1407 505
internal_value=0
internal_count=1912
shrinkage=0.02


Tree=82
num_leaves=2
num_cat=0
split_feature=116
split_gain=20.5876
threshold=1.0000000180025095e-35
decision_type=2
left_child=-1
right_child=-2
leaf_value=0.0025733549030423244 -0.0079486419791305035
leaf_count=1407 505
internal_value=0
internal_count=1912
shrinkage=0.02


Tree=83
num_leaves=2
num_cat=0
split_feature=52
split_gain=13.9176
threshold=1.0000000180025095e-35
decision_type=2
left_child=-1
right_child=-2
leaf_value=-0.0033496824791826411 0.0041356708189138197
leaf_count=1070 842
internal_value=0
internal_count=1912
shrinkage=0.02


Tree=84
num_leaves=2
num_cat=0
split_feature=187
split_gain=30.0068
threshold=0.31930501930501937
decision_type=2
left_child=-1
right_child=-2
leaf_value=-0.0055390995313384372 0.0053907513113020059
leaf_count=988 924
internal_value=0
internal_count=1912
shrinkage=0.02


Tree=85
num_leaves=2
num_cat=0
split_feature=187
split_gain=29.2999
threshold=0.14583333333333334
decision_type=2
left_child=-1
right_child=-2
leaf_value=-0.021684474577064267 0.0013402379633244558
leaf_count=134 1778
internal_value=0
internal_count=1912
shrinkage=0.02


Tree=86
num_leaves=2
num_cat=0
split_feature=187
split_gain=28.6525
threshold=0.30463917525773204
decision_type=2
left_child=-1
right_child=-2
leaf_value=-0.0068487913672460104 0.0041632350138299254
leaf_count=776 1136
internal_value=0
internal_count=1912
shrinkage=0.02


Tree=87
num_leaves=2
num_cat=0
split_feature=187
split_gain=28.201
threshold=0.14583333333333334
decision_type=2
left_child=-1
right_child=-2
leaf_value=-0.02145094078553263 0.0013045034966370408
leaf_count=134 1778
internal_value=0
internal_count=1912
shrinkage=0.02


Tree=88
num_leaves=2
num_cat=0
split_feature=115
split_gain=17.6896
threshold=1.0000000180025095e-35
decision_type=2
left_child=-1
right_child=-2
leaf_value=0.0018771386287405438 -0.0093668147937761778
leaf_count=1569 343
internal_value=0
internal_count=1912
shrinkage=0.02


Tree=89
num_leaves=2
num_cat=0
split_feature=116
split_gain=19.3984
threshold=1.0000000180025095e-35
decision_type=2
left_child=-1
right_child=-2
leaf_value=0.0024910163922612907 -0.0077476551497086569
leaf_count=1407 505
internal_value=0
internal_count=1912
shrinkage=0.02


Tree=90
num_leaves=2
num_cat=0
split_feature=187
split_gain=27.5308
threshold=0.31930501930501937
decision_type=2
left_child=-1
right_child=-2
leaf_value=-0.0053349959420283732 0.0051422287434564166
leaf_count=988 924
internal_value=0
internal_count=1912
shrinkage=0.02


Tree=91
num_leaves=2
num_cat=0
split_feature=184
split_gain=19.2945
threshold=0.46666666666666673
decision_type=2
left_child=-1
right_child=-2
leaf_value=-0.00082599122910889417 0.023424503303287138
leaf_count=1855 57
internal_value=0
internal_count=1912
shrinkage=0.02


Tree=92
num_leaves=2
num_cat=0
split_feature=116
split_gain=18.6721
threshold=1.0000000180025095e-35
decision_type=2
left_child=-1
right_child=-2
leaf_value=0.0024394677395246697 -0.0076200921816526983
leaf_count=1407 505
internal_value=0
internal_count=1912
shrinkage=0.02


Tree=93
num_leaves=2
num_cat=0
split_feature=0
split_gain=17.09
threshold=1.5000000000000002
decision_type=2
left_child=-1
right_child=-2
leaf_value=-0.0031825942401149123 0.0053581049765347279
leaf_count=1215 697
internal_value=0
internal_count=1912
shrinkage=0.02


Tree=94
num_leaves=2
num_cat=0
split_feature=187
split_gain=27.2843
threshold=0.14583333333333334
decision_type=2
left_child=-1
right_child=-2
leaf_value=-0.021258087090896164 0.0012752333108676445
leaf_count=134 1778
internal_value=0
internal_count=1912
shrinkage=0.02


Tree=95
num_leaves=2
num_cat=0
split_feature=115
split_gain=16.1849
threshold=1.0000000180025095e-35
decision_type=2
left_child=-1
right_child=-2
leaf_value=0.0017863978368199453 -0.0090167627513633077
leaf_count=1569 343
internal_value=0
internal_count=1912
shrinkage=0.02


Tree=96
num_leaves=2
num_cat=0
split_feature=187
split_gain=26.574
threshold=0.19569181673125144
decision_type=2
left_child=-1
right_child=-2
leaf_value=-0.018234279383430311 0.0014492900641542917
leaf_count=174 1738
internal_value=0
internal_count=1912
shrinkage=0.02


Tree=97
num_leaves=2
num_cat=0
split_feature=187
split_gain=26.1206
threshold=0.30463917525773204
decision_type=2
left_child=-1
right_child=-2
leaf_value=-0.0065837183296028456 0.0039571052131764217
leaf_count=776 1136
internal_value=0
internal_count=1912
shrinkage=0.02


Tree=98
num_leaves=2
num_cat=0
split_feature=184
split_gain=18.3698
threshold=0.46666666666666673
decision_type=2
left_child=-1
right_child=-2
leaf_value=-0.00080865070477670938 0.022814468666208589
leaf_count=1855 57
internal_value=0
internal_count=1912
shrinkage=0.02


Tree=99
num_leaves=2
num_cat=0
split_feature=53
split_gain=13.9804
threshold=1.0000000180025095e-35
decision_type=2
left_child=-1
right_child=-2
leaf_value=-0.0023526262588138632 0.0059405647698336844
leaf_count=1383 529
internal_value=0
internal_count=1912
shrinkage=0.02


Tree=100
num_leaves=2
num_cat=0
split_feature=53
split_gain=13.4098
threshold=1.0000000180025095e-35
decision_type=2
left_child=-1
right_child=-2
leaf_value=-0.0023076950322768646 0.0058094308471599784
leaf_count=1383 529
internal_value=0
internal_count=1912
shrinkage=0.02


Tree=101
num_leaves=2
num_cat=0
split_feature=116
split_gain=17.309
threshold=1.0000000180025095e-35
decision_type=2
left_child=-1
right_child=-2
leaf_value=0.0023408544182839338 -0.0073727519588260119
leaf_count=1407 505
internal_value=0
internal_count=1912
shrinkage=0.02


Tree=102
num_leaves=2
num_cat=0
split_feature=116
split_gain=16.6654
threshold=1.0000000180025095e-35
decision_type=2
left_child=-1
right_child=-2
leaf_value=0.0022921584414462722 -0.0072508361104488992
leaf_count=1407 505
internal_value=0
internal_count=1912
shrinkage=0.02


Tree=103
num_leaves=2
num_cat=0
split_feature=166
split_gain=17.851
threshold=1.0000000180025095e-35
decision_type=2
left_child=-1
right_child=-2
leaf_value=-0.0016277168870198028 0.010983526456205674
leaf_count=1671 241
internal_value=0
internal_count=1912
shrinkage=0.02


Tree=104
num_leaves=2
num_cat=0
split_feature=187
split_gain=25.7391
threshold=0.10555555555555557
decision_type=2
left_child=-1
right_child=-2
leaf_value=-0.023174115233434753 0.0011049753653798403
leaf_count=111 1801
internal_value=0
internal_count=1912
shrinkage=0.02


Tree=105
num_leaves=2
num_cat=0
split_feature=116
split_gain=16.1092
threshold=1.0000000180025095e-35
decision_type=2
left_child=-1
right_child=-2
leaf_value=0.0022499146361056412 -0.0071437913110833943
leaf_count=1407 505
internal_value=0
internal_count=1912
shrinkage=0.02


Tree=106
num_leaves=2
num_cat=0
split_feature=47
split_gain=12.3361
threshold=1.0000000180025095e-35
decision_type=2
left_child=-1
right_child=-2
leaf_value=-0.0025240848651048513 0.0048892878675978546
leaf_count=1277 635
internal_value=0
internal_count=1912
shrinkage=0.02


Tree=107
num_leaves=2
num_cat=0
split_feature=184
split_gain=18.207
threshold=0.15073529411764711
decision_type=2
left_child=-1
right_child=-2
leaf_value=-0.025324480622994125 0.00071392953304680274
leaf_count=60 1852
internal_value=0
internal_count=1912
shrinkage=0.02


Tree=108
num_leaves=2
num_cat=0
split_feature=129
split_gain=17.8036
threshold=1.0000000180025095e-35
decision_type=2
left_child=-1
right_child=-2
leaf_value=-0.0019306626899426409 0.0092359956544178709
leaf_count=1603 309
internal_value=0
internal_count=1912
shrinkage=0.02


Tree=109
num_leaves=2
num_cat=0
split_feature=116
split_gain=15.3464
threshold=1.0000000180025095e-35
decision_type=2
left_child=-1
right_child=-2
leaf_value=0.0021908100029519539 -0.0069927578214607966
leaf_count=1407 505
internal_value=0
internal_count=1912
shrinkage=0.02


Tree=110
num_leaves=2
num_cat=0
split_feature=166
split_gain=17.057
threshold=1.0000000180025095e-35
decision_type=2
left_child=-1
right_child=-2
leaf_value=-0.0015956597577375812 0.010716602698816746
leaf_count=1671 241
internal_value=0
internal_count=1912
shrinkage=0.02


Tree=111
num_leaves=2
num_cat=0
split_feature=187
split_gain=25.2887
threshold=0.35164835164835168
decision_type=2
left_child=-1
right_child=-2
leaf_value=-0.0038017291819651671 0.0066556770443593517
leaf_count=1256 656
internal_value=0
internal_count=1912
shrinkage=0.02


Tree=112
num_leaves=2
num_cat=0
split_feature=187
split_gain=24.8068
threshold=0.14583333333333334
decision_type=2
left_child=-1
right_child=-2
leaf_value=-0.020714295129324229 0.0011934423335413817
leaf_count=134 1778
internal_value=0
internal_count=1912
shrinkage=0.02


Tree=113
num_leaves=2
num_cat=0
split_feature=187
split_gain=24.1976
threshold=0.10555555555555557
decision_type=2
left_child=-1
right_child=-2
leaf_value=-0.022840416478812485 0.0010554245028729001
leaf_count=111 1801
internal_value=0
internal_count=1912
shrinkage=0.02


Tree=114
num_leaves=2
num_cat=0
split_feature=184
split_gain=17.3944
threshold=0.15073529411764711
decision_type=2
left_child=-1
right_child=-2
leaf_value=-0.025054403712131888 0.0006901157212285472
leaf_count=60 1852
internal_value=0
internal_count=1912
shrinkage=0.02


Tree=115
num_leaves=2
num_cat=0
split_feature=184
split_gain=17.314
threshold=0.58571428571428574
decision_type=2
left_child=-1
right_child=-2
leaf_value=-0.00062170904187441747 0.028083361497454856
leaf_count=1876 36
internal_value=0
internal_count=1912
shrinkage=0.02


Tree=116
num_leaves=2
num_cat=0
split_feature=166
split_gain=16.1415
threshold=1.0000000180025095e-35
decision_type=2
left_child=-1
right_child=-2
leaf_value=-0.0015574348099535685 0.010400892082992668
leaf_count=1671 241
internal_value=0
internal_count=1912
shrinkage=0.02


Tree=117
num_leaves=2
num_cat=0
split_feature=47
split_gain=11.6681
threshold=1.0000000180025095e-35
decision_type=2
left_child=-1
right_child=-2
leaf_value=-0.0024616332748747301 0.0047491550266199698
leaf_count=1277 635
internal_value=0
internal_count=1912
shrinkage=0.02


Tree=118
num_leaves=2
num_cat=0
split_feature=184
split_gain=16.8587
threshold=0.15073529411764711
decision_type=2
left_child=-1
right_child=-2
leaf_value=-0.024843913235698581 0.00067481532418297826
leaf_count=60 1852
internal_value=0
internal_count=1912
shrinkage=0.02


Tree=119
num_leaves=2
num_cat=0
split_feature=187
split_gain=23.8365
threshold=0.35164835164835168
decision_type=2
left_child=-1
right_child=-2
leaf_value=-0.0037047368555427262 0.006445010399427833
leaf_count=1256 656
internal_value=0
internal_count=1912
shrinkage=0.02


Tree=120
num_leaves=2
num_cat=0
split_feature=187
split_gain=23.2034
threshold=0.24807692307692311
decision_type=2
left_child=-1
right_child=-2
leaf_value=-0.0084588461763271013 0.0027437943630827552
leaf_count=529 1383
internal_value=0
internal_count=1912
shrinkage=0.02


Tree=121
num_leaves=2
num_cat=0
split_feature=187
split_gain=22.9649
threshold=0.10555555555555557
decision_type=2
left_child=-1
right_child=-2
leaf_value=-0.022569073306055756 0.0010148514069799497
leaf_count=111 1801
internal_value=0
internal_count=1912
shrinkage=0.02


Tree=122
num_leaves=2
num_cat=0
split_feature=116
split_gain=14.8811
threshold=1.0000000180025095e-35
decision_type=2
left_child=-1
right_child=-2
leaf_value=0.0021568759319815899 -0.0069024863525874933
leaf_count=1407 505
internal_value=0
internal_count=1912
shrinkage=0.02


Tree=123
num_leaves=2
num_cat=0
split_feature=184
split_gain=16.5528
threshold=0.46666666666666673
decision_type=2
left_child=-1
right_child=-2
leaf_value=-0.00077274710463349746 0.021592596390697806
leaf_count=1855 57
internal_value=0
internal_count=1912
shrinkage=0.02


Tree=124
num_leaves=2
num_cat=0
split_feature=166
split_gain=15.3765
threshold=1.0000000180025095e-35
decision_type=2
left_child=-1
right_child=-2
leaf_value=-0.0015247493760945443 0.010134279372865594
leaf_count=1671 241
internal_value=0
internal_count=1912
shrinkage=0.02


Tree=125
num_leaves=2
num_cat=0
split_feature=184
split_gain=16.1694
threshold=0.15073529411764711
decision_type=2
left_child=-1
right_child=-2
leaf_value=-0.024605823489888361 0.00065430841158236231
leaf_count=60 1852
internal_value=0
internal_count=1912
shrinkage=0.02


Tree=126
num_leaves=2
num_cat=0
split_feature=0
split_gain=15.2691
threshold=1.5000000000000002
decision_type=2
left_child=-1
right_child=-2
leaf_value=-0.003031303375033378 0.0050528682245444771
leaf_count=1215 697
internal_value=0
internal_count=1912
shrinkage=0.02


Tree=127
num_leaves=2
num_cat=0
split_feature=129
split_gain=16.3156
threshold=1.0000000180025095e-35
decision_type=2
left_child=-1
right_child=-2
leaf_value=-0.0018575973544799501 0.0088229389974479131
leaf_count=1603 309
internal_value=0
internal_count=1912
shrinkage=0.02


Tree=128
num_leaves=2
num_cat=0
split_feature=187
split_gain=22.3355
threshold=0.31930501930501937
decision_type=2
left_child=-1
right_child=-2
leaf_value=-0.0048754426146155926 0.0045936588073482425
leaf_count=988 924
internal_value=0
internal_count=1912
shrinkage=0.02


Tree=129
num_leaves=2
num_cat=0
split_feature=129
split_gain=15.6001
threshold=1.0000000180025095e-35
decision_type=2
left_child=-1
right_child=-2
leaf_value=-0.0018200203970939576 0.0086143193793303836
leaf_count=1603 309
internal_value=0
internal_count=1912
shrinkage=0.02


Tree=130
num_leaves=2
num_cat=0
split_feature=0
split_gain=14.5796
threshold=1.5000000000000002
decision_type=2
left_child=-1
right_child=-2
leaf_value=-0.0029678721441414031 0.0049312916824709972
leaf_count=1215 697
internal_value=0
internal_count=1912
shrinkage=0.02


Tree=131
num_leaves=2
num_cat=0
split_feature=187
split_gain=22.0377
threshold=0.10555555555555557
decision_type=2
left_child=-1
right_child=-2
leaf_value=-0.022364237641264179 0.00098448574247716526
leaf_count=111 1801
internal_value=0
internal_count=1912
shrinkage=0.02


Tree=132
num_leaves=2
num_cat=0
split_feature=166
split_gain=14.5085
threshold=1.0000000180025095e-35
decision_type=2
left_child=-1
right_child=-2
leaf_value=-0.0014860388518366449 0.0098229011711782575
leaf_count=1671 241
internal_value=0
internal_count=1912
shrinkage=0.02


Tree=133
num_leaves=2
num_cat=0
split_feature=187
split_gain=21.4437
threshold=0.35164835164835168
decision_type=2
left_child=-1
right_child=-2
leaf_value=-0.0035365887425567377 0.0060886174124141447
leaf_count=1256 656
internal_value=0
internal_count=1912
shrinkage=0.02


Tree=134
num_leaves=2
num_cat=0
split_feature=129
split_gain=14.8144
threshold=1.0000000180025095e-35
decision_type=2
left_child=-1
right_child=-2
leaf_value=-0.0017777922495377794 0.008381515300526516
leaf_count=1603 309
internal_value=0
internal_count=1912
shrinkage=0.02


Tree=135
num_leaves=2
num_cat=0
split_feature=184
split_gain=15.8554
threshold=0.58571428571428574
decision_type=2
left_child=-1
right_child=-2
leaf_value=-0.00059783280377697788 0.026818681945014328
leaf_count=1876 36
internal_value=0
internal_count=1912
shrinkage=0.02


Tree=136
num_leaves=2
num_cat=0
split_feature=184
split_gain=15.3917
threshold=0.15073529411764711
decision_type=2
left_child=-1
right_child=-2
leaf_value=-0.024324960159742681 0.00063124391266392694
leaf_count=60 1852
internal_value=0
internal_count=1912
shrinkage=0.02


Tree=137
num_leaves=2
num_cat=0
split_feature=129
split_gain=14.137
threshold=1.0000000180025095e-35
decision_type=2
left_child=-1
right_child=-2
leaf_value=-0.0017398261706644269 0.0081761612503495756
leaf_count=1603 309
internal_value=0
internal_count=1912
shrinkage=0.02


Tree=138
num_leaves=2
num_cat=0
split_feature=184
split_gain=15.1229
threshold=0.58571428571428574
decision_type=2
left_child=-1
right_child=-2
leaf_value=-0.00058510208897862687 0.026146693602063148
leaf_count=1876 36
internal_value=0
internal_count=1912
shrinkage=0.02


Tree=139
num_leaves=2
num_cat=0
split_feature=52
split_gain=12.0179
threshold=1.0000000180025095e-35
decision_type=2
left_child=-1
right_child=-2
leaf_value=-0.0031459534630987915 0.0038386929354841354
leaf_count=1070 842
internal_value=0
internal_count=1912
shrinkage=0.02


Tree=140
num_leaves=2
num_cat=0
split_feature=184
split_gain=14.9514
threshold=0.15073529411764711
decision_type=2
left_child=-1
right_child=-2
leaf_value=-0.024142674677582843 0.00061818244249278839
leaf_count=60 1852
internal_value=0
internal_count=1912
shrinkage=0.02


Tree=141
num_leaves=2
num_cat=0
split_feature=187
split_gain=21.1382
threshold=0.10555555555555557
decision_type=2
left_child=-1
right_child=-2
leaf_value=-0.022165570990054374 0.00095427938419559194
leaf_count=111 1801
internal_value=0
internal_count=1912
shrinkage=0.02


Tree=142
num_leaves=2
num_cat=0
split_feature=0
split_gain=13.7562
threshold=1.5000000000000002
decision_type=2
left_child=-1
right_child=-2
leaf_value=-0.0028920404218167701 0.0047832664518469023
leaf_count=1215 697
internal_value=0
internal_count=1912
shrinkage=0.02


Tree=143
num_leaves=2
num_cat=0
split_feature=184
split_gain=14.5847
threshold=0.46666666666666673
decision_type=2
left_child=-1
right_child=-2
leaf_value=-0.00072915462932840686 0.020215466553403675
leaf_count=1855 57
internal_value=0
internal_count=1912
shrinkage=0.02


Tree=144
num_leaves=2
num_cat=0
split_feature=184
split_gain=14.4202
threshold=0.15073529411764711
decision_type=2
left_child=-1
right_child=-2
leaf_value=-0.023941222014767088 0.00060155984881046104
leaf_count=60 1852
internal_value=0
internal_count=1912
shrinkage=0.02


Tree=145
num_leaves=2
num_cat=0
split_feature=116
split_gain=13.8704
threshold=1.0000000180025095e-35
decision_type=2
left_child=-1
right_child=-2
leaf_value=0.0020802784617738258 -0.0066948115447772964
leaf_count=1407 505
internal_value=0
internal_count=1912
shrinkage=0.02


Tree=146
num_leaves=2
num_cat=0
split_feature=187
split_gain=20.4939
threshold=0.10555555555555557
decision_type=2
left_child=-1
right_child=-2
leaf_value=-0.022019316793063844 0.00093212726801031353
leaf_count=111 1801
internal_value=0
internal_count=1912
shrinkage=0.02


Tree=147
num_leaves=2
num_cat=0
split_feature=187
split_gain=20.283
threshold=0.35164835164835168
decision_type=2
left_child=-1
right_child=-2
leaf_value=-0.0034531676283447612 0.0059114726857428506
leaf_count=1256 656
internal_value=0
internal_count=1912
shrinkage=0.02


Tree=148
num_leaves=2
num_cat=0
split_feature=184
split_gain=14.0286
threshold=0.58571428571428574
decision_type=2
left_child=-1
right_child=-2
leaf_value=-0.00056560815671518943 0.02513307072038418
leaf_count=1876 36
internal_value=0
internal_count=1912
shrinkage=0.02


Tree=149
num_leaves=2
num_cat=0
split_feature=184
split_gain=13.9274
threshold=0.15073529411764711
decision_type=2
left_child=-1
right_child=-2
leaf_value=-0.023759303420071237 0.00058596886582544354
leaf_count=60 1852
internal_value=0
internal_count=1912
shrinkage=0.02


Tree=150
num_leaves=2
num_cat=0
split_feature=116
split_gain=13.3784
threshold=1.0000000180025095e-35
decision_type=2
left_child=-1
right_child=-2
leaf_value=0.002040560727663455 -0.0065894759788213157
leaf_count=1407 505
internal_value=0
internal_count=1912
shrinkage=0.02


Tree=151
num_leaves=2
num_cat=0
split_feature=0
split_gain=13.0463
threshold=1.5000000000000002
decision_type=2
left_child=-1
right_child=-2
leaf_value=-0.0028246373630226853 0.0046521468576248828
leaf_count=1215 697
internal_value=0
internal_count=1912
shrinkage=0.02


Tree=152
num_leaves=2
num_cat=0
split_feature=184
split_gain=13.5292
threshold=0.15073529411764711
decision_type=2
left_child=-1
right_child=-2
leaf_value=-0.023594346450741013 0.00057341993755065488
leaf_count=60 1852
internal_value=0
internal_count=1912
shrinkage=0.02


Tree=153
num_leaves=2
num_cat=0
split_feature=187
split_gain=19.721
threshold=0.10555555555555557
decision_type=2
left_child=-1
right_child=-2
leaf_value=-0.021844336842468021 0.00090521520706489497
leaf_count=111 1801
internal_value=0
internal_count=1912
shrinkage=0.02


Tree=154
num_leaves=2
num_cat=0
split_feature=187
split_gain=19.3632
threshold=0.30463917525773204
decision_type=2
left_child=-1
right_child=-2
leaf_value=-0.0057950918941461092 0.0033634791732494269
leaf_count=776 1136
internal_value=0
internal_count=1912
shrinkage=0.02


Tree=155
num_leaves=2
num_cat=0
split_feature=184
split_gain=13.4453
threshold=0.58571428571428574
decision_type=2
left_child=-1
right_child=-2
leaf_value=-0.00055478852419145409 0.024589880523290943
leaf_count=1876 36
internal_value=0
internal_count=1912
shrinkage=0.02


Tree=156
num_leaves=2
num_cat=0
split_feature=187
split_gain=19.0737
threshold=0.10555555555555557
decision_type=2
left_child=-1
right_child=-2
leaf_value=-0.021684494825108022 0.00088252536305803069
leaf_count=111 1801
internal_value=0
internal_count=1912
shrinkage=0.02


Tree=157
num_leaves=2
num_cat=0
split_feature=129
split_gain=12.9005
threshold=1.0000000180025095e-35
decision_type=2
left_child=-1
right_child=-2
leaf_value=-0.0016700613419576467 0.0078001154302054319
leaf_count=1603 309
internal_value=0
internal_count=1912
shrinkage=0.02


Tree=158
num_leaves=2
num_cat=0
split_feature=116
split_gain=12.8716
threshold=1.0000000180025095e-35
decision_type=2
left_child=-1
right_child=-2
leaf_value=0.0019999008948184123 -0.0064791619711896545
leaf_count=1407 505
internal_value=0
internal_count=1912
shrinkage=0.02


Tree=159
num_leaves=2
num_cat=0
split_feature=116
split_gain=12.3905
threshold=1.0000000180025095e-35
decision_type=2
left_child=-1
right_child=-2
leaf_value=0.0019585859700024283 -0.006369954264937844
leaf_count=1407 505
internal_value=0
internal_count=1912
shrinkage=0.02


Tree=160
num_leaves=2
num_cat=0
split_feature=187
split_gain=18.8113
threshold=0.35164835164835168
decision_type=2
left_child=-1
right_child=-2
leaf_value=-0.0033416803134893288 0.0056801560468893288
leaf_count=1256 656
internal_value=0
internal_count=1912
shrinkage=0.02


Tree=161
num_leaves=2
num_cat=0
split_feature=184
split_gain=12.9494
threshold=0.15073529411764711
decision_type=2
left_child=-1
right_child=-2
leaf_value=-0.023395137022561425 0.00055456641897119177
leaf_count=60 1852
internal_value=0
internal_count=1912
shrinkage=0.02


Tree=162
num_leaves=2
num_cat=0
split_feature=166
split_gain=13.3369
threshold=1.0000000180025095e-35
decision_type=2
left_child=-1
right_child=-2
leaf_value=-0.0014331890516486284 0.0094102465733041617
leaf_count=1671 241
internal_value=0
internal_count=1912
shrinkage=0.02


Tree=163
num_leaves=2
num_cat=0
split_feature=166
split_gain=12.776
threshold=1.0000000180025095e-35
decision_type=2
left_child=-1
right_child=-2
leaf_value=-0.0014052925472307989 0.0091944240648158433
leaf_count=1671 241
internal_value=0
internal_count=1912
shrinkage=0.02


Tree=164
num_leaves=2
num_cat=0
split_feature=47
split_gain=10.2736
threshold=1.0000000180025095e-35
decision_type=2
left_child=-1
right_child=-2
leaf_value=-0.0023304820752053841 0.00445179218463467
leaf_count=1277 635
internal_value=0
internal_count=1912
shrinkage=0.02


Tree=165
num_leaves=2
num_cat=0
split_feature=187
split_gain=18.4127
threshold=0.19569181673125144
decision_type=2
left_child=-1
right_child=-2
leaf_value=-0.016294248638288936 0.001136816970463332
leaf_count=174 1738
internal_value=0
internal_count=1912
shrinkage=0.02


Tree=166
num_leaves=2
num_cat=0
split_feature=115
split_gain=12.5937
threshold=1.0000000180025095e-35
decision_type=2
left_child=-1
right_child=-2
leaf_value=0.001565537788795717 -0.0081041622186232027
leaf_count=1569 343
internal_value=0
internal_count=1912
shrinkage=0.02


Tree=167
num_leaves=2
num_cat=0
split_feature=187
split_gain=18.0698
threshold=0.10555555555555557
decision_type=2
left_child=-1
right_child=-2
leaf_value=-0.021438027126597942 0.00084732902749138012
leaf_count=111 1801
internal_value=0
internal_count=1912
shrinkage=0.02


Tree=168
num_leaves=2
num_cat=0
split_feature=187
split_gain=17.7859
threshold=0.35164835164835168
decision_type=2
left_child=-1
right_child=-2
leaf_value=-0.0032597249168011717 0.0055127188585659395
leaf_count=1256 656
internal_value=0
internal_count=1912
shrinkage=0.02


Tree=169
num_leaves=2
num_cat=0
split_feature=184
split_gain=12.8371
threshold=0.46666666666666673
decision_type=2
left_child=-1
right_child=-2
leaf_value=-0.00068799507507999685 0.018948946983248453
leaf_count=1855 57
internal_value=0
internal_count=1912
shrinkage=0.02


Tree=170
num_leaves=2
num_cat=0
split_feature=129
split_gain=11.9914
threshold=1.0000000180025095e-35
decision_type=2
left_child=-1
right_child=-2
leaf_value=-0.0016158870633313721 0.0075111547915985644
leaf_count=1603 309
internal_value=0
internal_count=1912
shrinkage=0.02


Tree=171
num_leaves=2
num_cat=0
split_feature=177
split_gain=9.38313
threshold=1.0000000180025095e-35
decision_type=2
left_child=-1
right_child=-2
leaf_value=0.027059652015166726 -0.00035407249799493347
leaf_count=22 1890
internal_value=0
internal_count=1912
shrinkage=0.02


Tree=172
num_leaves=2
num_cat=0
split_feature=187
split_gain=17.505
threshold=0.10555555555555557
decision_type=2
left_child=-1
right_child=-2
leaf_value=-0.021291754490261036 0.00082727026772271754
leaf_count=111 1801
internal_value=0
internal_count=1912
shrinkage=0.02


Tree=173
num_leaves=2
num_cat=0
split_feature=184
split_gain=12.3715
threshold=0.15073529411764711
decision_type=2
left_child=-1
right_child=-2
leaf_value=-0.023199982030031971 0.00053537239813810115
leaf_count=60 1852
internal_value=0
internal_count=1912
shrinkage=0.02


Tree=174
num_leaves=2
num_cat=0
split_feature=115
split_gain=12.1801
threshold=1.0000000180025095e-35
decision_type=2
left_child=-1
right_child=-2
leaf_value=0.0015383531494148816 -0.0079883304945815442
leaf_count=1569 343
internal_value=0
internal_count=1912
shrinkage=0.02


Tree=175
num_leaves=2
num_cat=0
split_feature=187
split_gain=17.1346
threshold=0.24807692307692311
decision_type=2
left_child=-1
right_child=-2
leaf_value=-0.0074691079622036119 0.0023169509880098657
leaf_count=529 1383
internal_value=0
internal_count=1912
shrinkage=0.02


Tree=176
num_leaves=2
num_cat=0
split_feature=166
split_gain=12.1738
threshold=1.0000000180025095e-35
decision_type=2
left_child=-1
right_child=-2
leaf_value=-0.0013759888411747066 0.0089686599319016101
leaf_count=1671 241
internal_value=0
internal_count=1912
shrinkage=0.02


Tree=177
num_leaves=2
num_cat=0
split_feature=53
split_gain=11.2723
threshold=1.0000000180025095e-35
decision_type=2
left_child=-1
right_child=-2
leaf_value=-0.0021442926016961624 0.0053227077912633217
leaf_count=1383 529
internal_value=0
internal_count=1912
shrinkage=0.02


Tree=178
num_leaves=2
num_cat=0
split_feature=184
split_gain=12.2855
threshold=0.63333333333333341
decision_type=2
left_child=-1
right_child=-2
leaf_value=-0.00049307687083694656 0.025387899559946938
leaf_count=1881 31
internal_value=0
internal_count=1912
shrinkage=0.02


Tree=179
num_leaves=2
num_cat=0
split_feature=0
split_gain=11.9467
threshold=1.5000000000000002
decision_type=2
left_child=-1
right_child=-2
leaf_value=-0.0027190347816965499 0.0044475261212673922
leaf_count=1215 697
internal_value=0
internal_count=1912
shrinkage=0.02


Tree=180
num_leaves=2
num_cat=0
split_feature=187
split_gain=16.8326
threshold=0.10555555555555557
decision_type=2
left_child=-1
right_child=-2
leaf_value=-0.021120750166694562 0.0008029882689240288
leaf_count=111 1801
internal_value=0
internal_count=1912
shrinkage=0.02


Tree=181
num_leaves=2
num_cat=0
split_feature=115
split_gain=11.7161
threshold=1.0000000180025095e-35
decision_type=2
left_child=-1
right_child=-2
leaf_value=0.0015066764161515091 -0.0078549495151936342
leaf_count=1569 343
internal_value=0
internal_count=1912
shrinkage=0.02


Tree=182
num_leaves=2
num_cat=0
split_feature=184
split_gain=11.9347
threshold=0.15073529411764711
decision_type=2
left_child=-1
right_child=-2
leaf_value=-0.023031390051477429 0.00052106020592302825
leaf_count=60 1852
internal_value=0
internal_count=1912
shrinkage=0.02


Tree=183
num_leaves=2
num_cat=0
split_feature=143
split_gain=10.5055
threshold=1.0000000180025095e-35
decision_type=2
left_child=-1
right_child=-2
leaf_value=-0.000383466271569203 0.027992868450259133
leaf_count=1889 23
internal_value=0
internal_count=1912
shrinkage=0.02


Tree=184
num_leaves=2
num_cat=0
split_feature=187
split_gain=16.5071
threshold=0.31930501930501937
decision_type=2
left_child=-1
right_child=-2
leaf_value=-0.004274319919065077 0.003909660080364607
leaf_count=988 924
internal_value=0
internal_count=1912
shrinkage=0.02


Tree=185
num_leaves=2
num_cat=0
split_feature=187
split_gain=16.2646
threshold=0.10555555555555557
decision_type=2
left_child=-1
right_child=-2
leaf_value=-0.02097030628977762 0.00078209620470901398
leaf_count=111 1801
internal_value=0
internal_count=1912
shrinkage=0.02


Tree=186
num_leaves=2
num_cat=0
split_feature=187
split_gain=15.9003
threshold=0.35164835164835168
decision_type=2
left_child=-1
right_child=-2
leaf_value=-0.0031017914852457841 0.0051951894760426769
leaf_count=1256 656
internal_value=0
internal_count=1912
shrinkage=0.02


Tree=187
num_leaves=2
num_cat=0
split_feature=116
split_gain=10.9329
threshold=1.0000000180025095e-35
decision_type=2
left_child=-1
right_child=-2
leaf_value=0.0018347620485698421 -0.00602957605419487
leaf_count=1407 505
internal_value=0
internal_count=1912
shrinkage=0.02


Tree=188
num_leaves=2
num_cat=0
split_feature=184
split_gain=11.8001
threshold=0.46666666666666673
decision_type=2
left_child=-1
right_child=-2
leaf_value=-0.00066147353632256274 0.018173050331166101
leaf_count=1855 57
internal_value=0
internal_count=1912
shrinkage=0.02


Tree=189
num_leaves=2
num_cat=0
split_feature=166
split_gain=11.5633
threshold=1.0000000180025095e-35
decision_type=2
left_child=-1
right_child=-2
leaf_value=-0.0013448002318850517 0.0087352973443070928
leaf_count=1671 241
internal_value=0
internal_count=1912
shrinkage=0.02


Tree=190
num_leaves=2
num_cat=0
split_feature=184
split_gain=11.5281
threshold=0.15073529411764711
decision_type=2
left_child=-1
right_child=-2
leaf_value=-0.022881146257272982 0.00050741301213075426
leaf_count=60 1852
internal_value=0
internal_count=1912
shrinkage=0.02


Tree=191
num_leaves=2
num_cat=0
split_feature=166
split_gain=11.0574
threshold=1.0000000180025095e-35
decision_type=2
left_child=-1
right_child=-2
leaf_value=-0.0013174596825625271 0.0085284631350128481
leaf_count=1671 241
internal_value=0
internal_count=1912
shrinkage=0.02


Tree=192
num_leaves=2
num_cat=0
split_feature=52
split_gain=10.858
threshold=1.0000000180025095e-35
decision_type=2
left_child=-1
right_child=-2
leaf_value=-0.0030164656587029545 0.0036506807616758742
leaf_count=1070 842
internal_value=0
internal_count=1912
shrinkage=0.02


Tree=193
num_leaves=2
num_cat=0
split_feature=187
split_gain=15.7514
threshold=0.075000000000000025
decision_type=2
left_child=-1
right_child=-2
leaf_value=-0.022020468271372124 0.00072211115703636015
leaf_count=101 1811
internal_value=0
internal_count=1912
shrinkage=0.02


Tree=194
num_leaves=2
num_cat=0
split_feature=184
split_gain=11.3848
threshold=0.38750000000000007
decision_type=2
left_child=-1
right_child=-2
leaf_value=-0.00080375494506483027 0.014425174113142314
leaf_count=1822 90
internal_value=0
internal_count=1912
shrinkage=0.02


Tree=195
num_leaves=2
num_cat=0
split_feature=0
split_gain=11.2522
threshold=1.5000000000000002
decision_type=2
left_child=-1
right_child=-2
leaf_value=-0.0026484128819443497 0.0043123394561730907
leaf_count=1215 697
internal_value=0
internal_count=1912
shrinkage=0.02


Tree=196
num_leaves=2
num_cat=0
split_feature=166
split_gain=10.5858
threshold=1.0000000180025095e-35
decision_type=2
left_child=-1
right_child=-2
leaf_value=-0.0012914758683158388 0.0083344927063822103
leaf_count=1671 241
internal_value=0
internal_count=1912
shrinkage=0.02


Tree=197
num_leaves=2
num_cat=0
split_feature=184
split_gain=11.109
threshold=0.15073529411764711
decision_type=2
left_child=-1
right_child=-2
leaf_value=-0.022699530103537851 0.00049335149196873967
leaf_count=60 1852
internal_value=0
internal_count=1912
shrinkage=0.02


Tree=198
num_leaves=2
num_cat=0
split_feature=184
split_gain=11.0554
threshold=0.63333333333333341
decision_type=2
left_child=-1
right_child=-2
leaf_value=-0.00046871205597442484 0.024102970320585879
leaf_count=1881 31
internal_value=0
internal_count=1912
shrinkage=0.02


Tree=199
num_leaves=2
num_cat=0
split_feature=0
split_gain=10.7725
threshold=1.5000000000000002
decision_type=2
left_child=-1
right_child=-2
leaf_value=-0.0025955918160767595 0.0042144945321559331
leaf_count=1215 697
internal_value=0
internal_count=1912
shrinkage=0.02


Tree=200
num_leaves=2
num_cat=0
split_feature=184
split_gain=10.7882
threshold=0.15073529411764711
decision_type=2
left_child=-1
right_child=-2
leaf_value=-0.022546410188086462 0.00048256021267015567
leaf_count=60 1852
internal_value=0
internal_count=1912
shrinkage=0.02


Tree=201
num_leaves=2
num_cat=0
split_feature=187
split_gain=15.201
threshold=0.075000000000000025
decision_type=2
left_child=-1
right_child=-2
leaf_value=-0.021892873122248298 0.00070178171648218191
leaf_count=101 1811
internal_value=0
internal_count=1912
shrinkage=0.02


Tree=202
num_leaves=2
num_cat=0
split_feature=115
split_gain=11.1036
threshold=1.0000000180025095e-35
decision_type=2
left_child=-1
right_child=-2
leaf_value=0.0014661377644757693 -0.0076765903713288284
leaf_count=1569 343
internal_value=0
internal_count=1912
shrinkage=0.02


Tree=203
num_leaves=2
num_cat=0
split_feature=116
split_gain=10.0973
threshold=1.0000000180025095e-35
decision_type=2
left_child=-1
right_child=-2
leaf_value=0.0017598134933088825 -0.0058199960938839302
leaf_count=1407 505
internal_value=0
internal_count=1912
shrinkage=0.02


Tree=204
num_leaves=2
num_cat=0
split_feature=187
split_gain=15.1386
threshold=0.35875160875160877
decision_type=2
left_child=-1
right_child=-2
leaf_value=-0.0029386147449343598 0.0052359968383427274
leaf_count=1282 630
internal_value=0
internal_count=1912
shrinkage=0.02


Tree=205
num_leaves=2
num_cat=0
split_feature=187
split_gain=14.8285
threshold=0.24807692307692311
decision_type=2
left_child=-1
right_child=-2
leaf_value=-0.007034883966480018 0.002139601227949831
leaf_count=529 1383
internal_value=0
internal_count=1912
shrinkage=0.02


Tree=206
num_leaves=2
num_cat=0
split_feature=184
split_gain=10.645
threshold=0.58571428571428574
decision_type=2
left_child=-1
right_child=-2
leaf_value=-0.00049682234479623113 0.021917407223644256
leaf_count=1876 36
internal_value=0
internal_count=1912
shrinkage=0.02


Tree=207
num_leaves=2
num_cat=0
split_feature=53
split_gain=10.4414
threshold=1.0000000180025095e-35
decision_type=2
left_child=-1
right_child=-2
leaf_value=-0.0020749922238161725 0.0051202384313074637
leaf_count=1383 529
internal_value=0
internal_count=1912
shrinkage=0.02


Tree=208
num_leaves=2
num_cat=0
split_feature=0
split_gain=10.1922
threshold=1.5000000000000002
decision_type=2
left_child=-1
right_child=-2
leaf_value=-0.0025315914935275076 0.004095149337651682
leaf_count=1215 697
internal_value=0
internal_count=1912
shrinkage=0.02


Tree=209
num_leaves=2
num_cat=0
split_feature=187
split_gain=14.6733
threshold=0.10555555555555557
decision_type=2
left_child=-1
right_child=-2
leaf_value=-0.020548018277731808 0.00072309894882257209
leaf_count=111 1801
internal_value=0
internal_count=1912
shrinkage=0.02


Tree=210
num_leaves=2
num_cat=0
split_feature=52
split_gain=10.1578
threshold=1.0000000180025095e-35
decision_type=2
left_child=-1
right_child=-2
leaf_value=-0.0029286990027211001 0.003528178047574495
leaf_count=1070 842
internal_value=0
internal_count=1912
shrinkage=0.02


Tree=211
num_leaves=2
num_cat=0
split_feature=175
split_gain=9.88999
threshold=1.0000000180025095e-35
decision_type=2
left_child=-1
right_child=-2
leaf_value=-0.0019879617501051029 0.0050650322393005808
leaf_count=1388 524
internal_value=0
internal_count=1912
shrinkage=0.02


Tree=212
num_leaves=2
num_cat=0
split_feature=184
split_gain=10.3604
threshold=0.38750000000000007
decision_type=2
left_child=-1
right_child=-2
leaf_value=-0.00076916589828334065 0.013753608469324257
leaf_count=1822 90
internal_value=0
internal_count=1912
shrinkage=0.02


Tree=213
num_leaves=2
num_cat=0
split_feature=115
split_gain=10.2188
threshold=1.0000000180025095e-35
decision_type=2
left_child=-1
right_child=-2
leaf_value=0.0014018280579779013 -0.0074032270737318905
leaf_count=1569 343
internal_value=0
internal_count=1912
shrinkage=0.02


Tree=214
num_leaves=2
num_cat=0
split_feature=52
split_gain=9.5313
threshold=1.0000000180025095e-35
decision_type=2
left_child=-1
right_child=-2
leaf_value=-0.0028433500711528893 0.0034116279406638445
leaf_count=1070 842
internal_value=0
internal_count=1912
shrinkage=0.02


Tree=215
num_leaves=2
num_cat=0
split_feature=115
split_gain=9.74742
threshold=1.0000000180025095e-35
decision_type=2
left_child=-1
right_child=-2
leaf_value=0.0013656595947976161 -0.0072504949867447932
leaf_count=1569 343
internal_value=0
internal_count=1912
shrinkage=0.02


Tree=216
num_leaves=2
num_cat=0
split_feature=184
split_gain=10.3779
threshold=0.15073529411764711
decision_type=2
left_child=-1
right_child=-2
leaf_value=-0.022391635300455896 0.00046880119591354567
leaf_count=60 1852
internal_value=0
internal_count=1912
shrinkage=0.02


Tree=217
num_leaves=2
num_cat=0
split_feature=129
split_gain=10.276
threshold=1.0000000180025095e-35
decision_type=2
left_child=-1
right_child=-2
leaf_value=-0.0015083671065555841 0.0069458916574525699
leaf_count=1603 309
internal_value=0
internal_count=1912
shrinkage=0.02


Tree=218
num_leaves=2
num_cat=0
split_feature=187
split_gain=14.4468
threshold=0.31930501930501937
decision_type=2
left_child=-1
right_child=-2
leaf_value=-0.0040333891201079792 0.0036465477050352402
leaf_count=988 924
internal_value=0
internal_count=1912
shrinkage=0.02


Tree=219
num_leaves=2
num_cat=0
split_feature=184
split_gain=10.0725
threshold=0.15073529411764711
decision_type=2
left_child=-1
right_child=-2
leaf_value=-0.022244016341098884 0.00045826401970525891
leaf_count=60 1852
internal_value=0
internal_count=1912
shrinkage=0.02


Tree=220
num_leaves=2
num_cat=0
split_feature=184
split_gain=9.97614
threshold=0.63333333333333341
decision_type=2
left_child=-1
right_child=-2
leaf_value=-0.00044624027011867058 0.022921377214260404
leaf_count=1881 31
internal_value=0
internal_count=1912
shrinkage=0.02


Tree=221
num_leaves=2
num_cat=0
split_feature=129
split_gain=9.79963
threshold=1.0000000180025095e-35
decision_type=2
left_child=-1
right_child=-2
leaf_value=-0.0014753751662943456 0.0067771670359546765
leaf_count=1603 309
internal_value=0
internal_count=1912
shrinkage=0.02


Tree=222
num_leaves=2
num_cat=0
split_feature=143
split_gain=9.81894
threshold=1.0000000180025095e-35
decision_type=2
left_child=-1
right_child=-2
leaf_value=-0.00037298797100842517 0.027030057916337627
leaf_count=1889 23
internal_value=0
internal_count=1912
shrinkage=0.02


Tree=223
num_leaves=2
num_cat=0
split_feature=166
split_gain=10.0053
threshold=1.0000000180025095e-35
decision_type=2
left_child=-1
right_child=-2
leaf_value=-0.001259724247397847 0.0081088713523406845
leaf_count=1671 241
internal_value=0
internal_count=1912
shrinkage=0.02


Tree=224
num_leaves=2
num_cat=0
split_feature=53
split_gain=9.56894
threshold=1.0000000180025095e-35
decision_type=2
left_child=-1
right_child=-2
leaf_value=-0.0019944731219908945 0.0048934466447437064
leaf_count=1383 529
internal_value=0
internal_count=1912
shrinkage=0.02


Tree=225
num_leaves=2
num_cat=0
split_feature=187
split_gain=14.1608
threshold=0.075000000000000025
decision_type=2
left_child=-1
right_child=-2
leaf_value=-0.021634768561042864 0.00066437913195637334
leaf_count=101 1811
internal_value=0
internal_count=1912
shrinkage=0.02


Tree=226
num_leaves=2
num_cat=0
split_feature=0
split_gain=9.47119
threshold=1.5000000000000002
decision_type=2
left_child=-1
right_child=-2
leaf_value=-0.002449488372010459 0.0039434463257140865
leaf_count=1215 697
internal_value=0
internal_count=1912
shrinkage=0.02


Tree=227
num_leaves=2
num_cat=0
split_feature=184
split_gain=9.74849
threshold=0.15073529411764711
decision_type=2
left_child=-1
right_child=-2
leaf_value=-0.0221049856227503 0.00044685877016986247
leaf_count=60 1852
internal_value=0
internal_count=1912
shrinkage=0.02


Tree=228
num_leaves=2
num_cat=0
split_feature=187
split_gain=13.8645
threshold=0.38750000000000007
decision_type=2
left_child=-1
right_child=-2
leaf_value=-0.0018338302091025717 0.0077181632659725575
leaf_count=1582 330
internal_value=0
internal_count=1912
shrinkage=0.02


Tree=229
num_leaves=2
num_cat=0
split_feature=184
split_gain=9.53911
threshold=0.63333333333333341
decision_type=2
left_child=-1
right_child=-2
leaf_value=-0.00043636407342809532 0.022436494604199286
leaf_count=1881 31
internal_value=0
internal_count=1912
shrinkage=0.02


Tree=230
num_leaves=2
num_cat=0
split_feature=115
split_gain=9.33404
threshold=1.0000000180025095e-35
decision_type=2
left_child=-1
right_child=-2
leaf_value=0.0013358750514994391 -0.0071152481324632854
leaf_count=1569 343
internal_value=0
internal_count=1912
shrinkage=0.02


Tree=231
num_leaves=2
num_cat=0
split_feature=0
split_gain=9.03936
threshold=1.5000000000000002
decision_type=2
left_child=-1
right_child=-2
leaf_value=-0.0023972668077842378 0.0038486189617126603
leaf_count=1215 697
internal_value=0
internal_count=1912
shrinkage=0.02


Tree=232
num_leaves=2
num_cat=0
split_feature=184
split_gain=9.47521
threshold=0.15073529411764711
decision_type=2
left_child=-1
right_child=-2
leaf_value=-0.021968452334588089 0.00043741303237463926
leaf_count=60 1852
internal_value=0
internal_count=1912
shrinkage=0.02


Tree=233
num_leaves=2
num_cat=0
split_feature=187
split_gain=13.7169
threshold=0.19569181673125144
decision_type=2
left_child=-1
right_child=-2
leaf_value=-0.014898264433674757 0.00093699017530753624
leaf_count=174 1738
internal_value=0
internal_count=1912
shrinkage=0.02


Tree=234
num_leaves=2
num_cat=0
split_feature=184
split_gain=9.28409
threshold=0.38750000000000007
decision_type=2
left_child=-1
right_child=-2
leaf_value=-0.00073047286386163264 0.013019886123236891
leaf_count=1822 90
internal_value=0
internal_count=1912
shrinkage=0.02


Tree=235
num_leaves=2
num_cat=0
split_feature=187
split_gain=13.4446
threshold=0.075000000000000025
decision_type=2
left_child=-1
right_child=-2
leaf_value=-0.021451080017209172 0.00063722515319066452
leaf_count=101 1811
internal_value=0
internal_count=1912
shrinkage=0.02


Tree=236
num_leaves=2
num_cat=0
split_feature=166
split_gain=9.48743
threshold=1.0000000180025095e-35
decision_type=2
left_child=-1
right_child=-2
leaf_value=-0.0012300162015217474 0.0078914545698130882
leaf_count=1671 241
internal_value=0
internal_count=1912
shrinkage=0.02


Tree=237
num_leaves=2
num_cat=0
split_feature=47
split_gain=8.08575
threshold=1.0000000180025095e-35
decision_type=2
left_child=-1
right_child=-2
leaf_value=-0.0020975279408532751 0.0039392620918746804
leaf_count=1277 635
internal_value=0
internal_count=1912
shrinkage=0.02


Tree=238
num_leaves=2
num_cat=0
split_feature=143
split_gain=9.25899
threshold=1.0000000180025095e-35
decision_type=2
left_child=-1
right_child=-2
leaf_value=-0.00036375375797385038 0.026190026477815334
leaf_count=1889 23
internal_value=0
internal_count=1912
shrinkage=0.02


Tree=239
num_leaves=2
num_cat=0
split_feature=187
split_gain=13.2865
threshold=0.35875160875160877
decision_type=2
left_child=-1
right_child=-2
leaf_value=-0.0027747136534300183 0.0048929528907835119
leaf_count=1282 630
internal_value=0
internal_count=1912
shrinkage=0.02


Tree=240
num_leaves=2
num_cat=0
split_feature=187
split_gain=13.0496
threshold=0.075000000000000025
decision_type=2
left_child=-1
right_child=-2
leaf_value=-0.021338579446366922 0.00062218754207002554
leaf_count=101 1811
internal_value=0
internal_count=1912
shrinkage=0.02


Tree=241
num_leaves=2
num_cat=0
split_feature=143
split_gain=8.75918
threshold=1.0000000180025095e-35
decision_type=2
left_child=-1
right_child=-2
leaf_value=-0.00035520131856589944 0.025390476857894764
leaf_count=1889 23
internal_value=0
internal_count=1912
shrinkage=0.02


Tree=242
num_leaves=2
num_cat=0
split_feature=184
split_gain=9.11822
threshold=0.15073529411764711
decision_type=2
left_child=-1
right_child=-2
leaf_value=-0.021841719431063531 0.00042399972727330635
leaf_count=60 1852
internal_value=0
internal_count=1912
shrinkage=0.02


Tree=243
num_leaves=2
num_cat=0
split_feature=175
split_gain=9.05448
threshold=1.0000000180025095e-35
decision_type=2
left_child=-1
right_child=-2
leaf_value=-0.0019121224952597159 0.0048438764681189165
leaf_count=1388 524
internal_value=0
internal_count=1912
shrinkage=0.02


Tree=244
num_leaves=2
num_cat=0
split_feature=166
split_gain=8.98581
threshold=1.0000000180025095e-35
decision_type=2
left_child=-1
right_child=-2
leaf_value=-0.0011996202926326037 0.0076706468113415614
leaf_count=1671 241
internal_value=0
internal_count=1912
shrinkage=0.02


Tree=245
num_leaves=2
num_cat=0
split_feature=187
split_gain=12.764
threshold=0.30463917525773204
decision_type=2
left_child=-1
right_child=-2
leaf_value=-0.0048414778295820726 0.0026938211197060171
leaf_count=776 1136
internal_value=0
internal_count=1912
shrinkage=0.02


Tree=246
num_leaves=2
num_cat=0
split_feature=116
split_gain=8.37516
threshold=1.0000000180025095e-35
decision_type=2
left_child=-1
right_child=-2
leaf_value=0.0015974640141813668 -0.0053548030422309913
leaf_count=1407 505
internal_value=0
internal_count=1912
shrinkage=0.02


Tree=247
num_leaves=2
num_cat=0
split_feature=175
split_gain=8.64255
threshold=1.0000000180025095e-35
decision_type=2
left_child=-1
right_child=-2
leaf_value=-0.0018713154180779769 0.0047276987554142978
leaf_count=1388 524
internal_value=0
internal_count=1912
shrinkage=0.02


Tree=248
num_leaves=2
num_cat=0
split_feature=187
split_gain=12.6176
threshold=0.075000000000000025
decision_type=2
left_child=-1
right_child=-2
leaf_value=-0.021219770775394307 0.00060567956266964636
leaf_count=101 1811
internal_value=0
internal_count=1912
shrinkage=0.02


Tree=249
num_leaves=2
num_cat=0
split_feature=187
split_gain=12.3174
threshold=0.38750000000000007
decision_type=2
left_child=-1
right_child=-2
leaf_value=-0.0017390874622374144 0.0072546501167052935
leaf_count=1582 330
internal_value=0
internal_count=1912
shrinkage=0.02


Tree=250
num_leaves=2
num_cat=0
split_feature=53
split_gain=8.93582
threshold=1.0000000180025095e-35
decision_type=2
left_child=-1
right_child=-2
leaf_value=-0.00193585917539543 0.0047272646849284353
leaf_count=1383 529
internal_value=0
internal_count=1912
shrinkage=0.02


Tree=251
num_leaves=2
num_cat=0
split_feature=184
split_gain=8.89562
threshold=0.58571428571428574
decision_type=2
left_child=-1
right_child=-2
leaf_value=-0.00045520267521139627 0.020111608646585268
leaf_count=1876 36
internal_value=0
internal_count=1912
shrinkage=0.02


Tree=252
num_leaves=2
num_cat=0
split_feature=187
split_gain=12.2889
threshold=0.10555555555555557
decision_type=2
left_child=-1
right_child=-2
leaf_value=-0.019846312206466991 0.00063133029527941045
leaf_count=111 1801
internal_value=0
internal_count=1912
shrinkage=0.02


Tree=253
num_leaves=2
num_cat=0
split_feature=187
split_gain=11.9988
threshold=0.075000000000000025
decision_type=2
left_child=-1
right_child=-2
leaf_value=-0.021035894492728292 0.00058146030498674669
leaf_count=101 1811
internal_value=0
internal_count=1912
shrinkage=0.02


Tree=254
num_leaves=2
num_cat=0
split_feature=184
split_gain=8.74116
threshold=0.15073529411764711
decision_type=2
left_child=-1
right_child=-2
leaf_value=-0.0216882405552342 0.00041014780892838589
leaf_count=60 1852
internal_value=0
internal_count=1912
shrinkage=0.02


Tree=255
num_leaves=2
num_cat=0
split_feature=187
split_gain=11.8962
threshold=0.35875160875160877
decision_type=2
left_child=-1
right_child=-2
leaf_value=-0.0026401005835995344 0.0046168473688698143
leaf_count=1282 630
internal_value=0
internal_count=1912
shrinkage=0.02


Tree=256
num_leaves=2
num_cat=0
split_feature=187
split_gain=11.6492
threshold=0.24807692307692311
decision_type=2
left_child=-1
right_child=-2
leaf_value=-0.0063594173510654059 0.0018746539639852538
leaf_count=529 1383
internal_value=0
internal_count=1912
shrinkage=0.02


Tree=257
num_leaves=2
num_cat=0
split_feature=115
split_gain=8.85484
threshold=1.0000000180025095e-35
decision_type=2
left_child=-1
right_child=-2
leaf_value=0.0013022049301667383 -0.0069564164812591514
leaf_count=1569 343
internal_value=0
internal_count=1912
shrinkage=0.02


Tree=258
num_leaves=2
num_cat=0
split_feature=187
split_gain=11.5605
threshold=0.075000000000000025
decision_type=2
left_child=-1
right_child=-2
leaf_value=-0.020906633602802888 0.00056417799382218906
leaf_count=101 1811
internal_value=0
internal_count=1912
shrinkage=0.02


Tree=259
num_leaves=2
num_cat=0
split_feature=129
split_gain=8.72153
threshold=1.0000000180025095e-35
decision_type=2
left_child=-1
right_child=-2
leaf_value=-0.0014007675468876565 0.0063921183278007635
leaf_count=1603 309
internal_value=0
internal_count=1912
shrinkage=0.02


Tree=260
num_leaves=2
num_cat=0
split_feature=187
split_gain=11.2712
threshold=0.075000000000000025
decision_type=2
left_child=-1
right_child=-2
leaf_value=-0.020816295954919323 0.00055261619362164988
leaf_count=101 1811
internal_value=0
internal_count=1912
shrinkage=0.02


Tree=261
num_leaves=2
num_cat=0
split_feature=187
split_gain=11.2225
threshold=0.38750000000000007
decision_type=2
left_child=-1
right_child=-2
leaf_value=-0.0016678950734397209 0.0069087352005416302
leaf_count=1582 330
internal_value=0
internal_count=1912
shrinkage=0.02


Tree=262
num_leaves=2
num_cat=0
split_feature=187
split_gain=10.9985
threshold=1.0000000180025095e-35
decision_type=2
left_child=-1
right_child=-2
leaf_value=-0.022706206532701528 0.0004942750597316483
leaf_count=86 1826
internal_value=0
internal_count=1912
shrinkage=0.02


Tree=263
num_leaves=2
num_cat=0
split_feature=187
split_gain=10.8772
threshold=0.31930501930501937
decision_type=2
left_child=-1
right_child=-2
leaf_value=-0.0035541323645400733 0.0031395267145208445
leaf_count=988 924
internal_value=0
internal_count=1912
shrinkage=0.02


Tree=264
num_leaves=2
num_cat=0
split_feature=115
split_gain=8.59592
threshold=1.0000000180025095e-35
decision_type=2
left_child=-1
right_child=-2
leaf_value=0.0012825012592501397 -0.0068667622962662557
leaf_count=1569 343
internal_value=0
internal_count=1912
shrinkage=0.02


Tree=265
num_leaves=2
num_cat=0
split_feature=52
split_gain=8.62611
threshold=1.0000000180025095e-35
decision_type=2
left_child=-1
right_child=-2
leaf_value=-0.0027266436483429249 0.0032477746444054606
leaf_count=1070 842
internal_value=0
internal_count=1912
shrinkage=0.02


Tree=266
num_leaves=2
num_cat=0
split_feature=184
split_gain=8.59191
threshold=0.46666666666666673
decision_type=2
left_child=-1
right_child=-2
leaf_value=-0.00056887220064576747 0.015573237358472975
leaf_count=1855 57
internal_value=0
internal_count=1912
shrinkage=0.02


Tree=267
num_leaves=2
num_cat=0
split_feature=184
split_gain=8.36607
threshold=0.15073529411764711
decision_type=2
left_child=-1
right_child=-2
leaf_value=-0.021539411209640879 0.00039626730931183288
leaf_count=60 1852
internal_value=0
internal_count=1912
shrinkage=0.02


Tree=268
num_leaves=2
num_cat=0
split_feature=54
split_gain=8.18866
threshold=1.0000000180025095e-35
decision_type=2
left_child=-1
right_child=-2
leaf_value=-0.0022865729086479127 0.0036789488424862449
leaf_count=1206 706
internal_value=0
internal_count=1912
shrinkage=0.02


Tree=269
num_leaves=2
num_cat=0
split_feature=166
split_gain=8.4861
threshold=1.0000000180025095e-35
decision_type=2
left_child=-1
right_child=-2
leaf_value=-0.0011706751854404689 0.0074579414692638023
leaf_count=1671 241
internal_value=0
internal_count=1912
shrinkage=0.02


Tree=270
num_leaves=2
num_cat=0
split_feature=184
split_gain=8.31908
threshold=0.63333333333333341
decision_type=2
left_child=-1
right_child=-2
leaf_value=-0.00040787405668199359 0.021076016684545552
leaf_count=1881 31
internal_value=0
internal_count=1912
shrinkage=0.02


Tree=271
num_leaves=2
num_cat=0
split_feature=0
split_gain=8.2107
threshold=1.5000000000000002
decision_type=2
left_child=-1
right_child=-2
leaf_value=-0.002300572683333192 0.0036676156423918805
leaf_count=1215 697
internal_value=0
internal_count=1912
shrinkage=0.02


Tree=272
num_leaves=2
num_cat=0
split_feature=187
split_gain=10.7014
threshold=0.19569181673125144
decision_type=2
left_child=-1
right_child=-2
leaf_value=-0.013779207040732308 0.00079555532593160656
leaf_count=174 1738
internal_value=0
internal_count=1912
shrinkage=0.02


Tree=273
num_leaves=2
num_cat=0
split_feature=53
split_gain=8.35665
threshold=1.0000000180025095e-35
decision_type=2
left_child=-1
right_child=-2
leaf_value=-0.0018799946569786918 0.0045712638543569826
leaf_count=1383 529
internal_value=0
internal_count=1912
shrinkage=0.02


Tree=274
num_leaves=2
num_cat=0
split_feature=143
split_gain=8.09538
threshold=1.0000000180025095e-35
decision_type=2
left_child=-1
right_child=-2
leaf_value=-0.00034386525646406646 0.024365759802891941
leaf_count=1889 23
internal_value=0
internal_count=1912
shrinkage=0.02


Tree=275
num_leaves=2
num_cat=0
split_feature=184
split_gain=8.12032
threshold=0.15073529411764711
decision_type=2
left_child=-1
right_child=-2
leaf_value=-0.0214165008213799 0.00038731261496370947
leaf_count=60 1852
internal_value=0
internal_count=1912
shrinkage=0.02


Tree=276
num_leaves=2
num_cat=0
