tree
version=v2
num_class=1
num_tree_per_iteration=1
label_index=0
max_feature_idx=219
objective=binary sigmoid:1
feature_names=Column_0 Column_1 Column_2 Column_3 Column_4 Column_5 Column_6 Column_7 Column_8 Column_9 Column_10 Column_11 Column_12 Column_13 Column_14 Column_15 Column_16 Column_17 Column_18 Column_19 Column_20 Column_21 Column_22 Column_23 Column_24 Column_25 Column_26 Column_27 Column_28 Column_29 Column_30 Column_31 Column_32 Column_33 Column_34 Column_35 Column_36 Column_37 Column_38 Column_39 Column_40 Column_41 Column_42 Column_43 Column_44 Column_45 Column_46 Column_47 Column_48 Column_49 Column_50 Column_51 Column_52 Column_53 Column_54 Column_55 Column_56 Column_57 Column_58 Column_59 Column_60 Column_61 Column_62 Column_63 Column_64 Column_65 Column_66 Column_67 Column_68 Column_69 Column_70 Column_71 Column_72 Column_73 Column_74 Column_75 Column_76 Column_77 Column_78 Column_79 Column_80 Column_81 Column_82 Column_83 Column_84 Column_85 Column_86 Column_87 Column_88 Column_89 Column_90 Column_91 Column_92 Column_93 Column_94 Column_95 Column_96 Column_97 Column_98 Column_99 Column_100 Column_101 Column_102 Column_103 Column_104 Column_105 Column_106 Column_107 Column_108 Column_109 Column_110 Column_111 Column_112 Column_113 Column_114 Column_115 Column_116 Column_117 Column_118 Column_119 Column_120 Column_121 Column_122 Column_123 Column_124 Column_125 Column_126 Column_127 Column_128 Column_129 Column_130 Column_131 Column_132 Column_133 Column_134 Column_135 Column_136 Column_137 Column_138 Column_139 Column_140 Column_141 Column_142 Column_143 Column_144 Column_145 Column_146 Column_147 Column_148 Column_149 Column_150 Column_151 Column_152 Column_153 Column_154 Column_155 Column_156 Column_157 Column_158 Column_159 Column_160 Column_161 Column_162 Column_163 Column_164 Column_165 Column_166 Column_167 Column_168 Column_169 Column_170 Column_171 Column_172 Column_173 Column_174 Column_175 Column_176 Column_177 Column_178 Column_179 Column_180 Column_181 Column_182 Column_183 Column_184 Column_185 Column_186 Column_187 Column_188 Column_189 Column_190 Column_191 Column_192 Column_193 Column_194 Column_195 Column_196 Column_197 Column_198 Column_199 Column_200 Column_201 Column_202 Column_203 Column_204 Column_205 Column_206 Column_207 Column_208 Column_209 Column_210 Column_211 Column_212 Column_213 Column_214 Column_215 Column_216 Column_217 Column_218 Column_219
feature_infos=[1:22] none none none none none none none none none [0:1] none none [0:1] none none none none none none [0:1] none none none none none none none [0:1] [0:1] none [0:1] [0:1] [0:1] none none none none none [0:1] [0:1] [0:1] [0:1] none [0:1] [0:1] [0:1] [0:1] [0:1] none none none [0:1] [0:1] [0:1] [0:1] [0:1] [0:1] [0:1] none [0:1] none [0:1] none [0:1] none none [0:1] [0:1] none none [0:1] none [0:1] [0:1] none none none [0:1] none [0:1] none none none none none none [0:1] none none [0:1] none none none none none none [0:1] [0:1] [0:1] [0:1] none [0:1] none none none none none none none [0:1] none [0:1] [0:1] [0:1] [0:1] [0:1] [0:1] [0:1] none [0:1] none [0:1] [0:1] none none [0:1] [0:1] [0:1] [0:1] [0:1] none [0:1] none none [0:1] none none none [0:1] [0:1] [0:1] none [0:1] none [0:1] [0:1] none none none [0:1] none none [0:1] [0:1] [0:1] [0:1] [0:1] [0:1] none none none none none none [0:1] [0:1] [0:1] [0:1] [0:1] [0:1] [0:1] [0:1] none [0:1] [0:1] [0:1] [0:1] [0:1] none none [1:1852] [0:265] [0.31168831168831168:0.44444444444444442] [0:1] [0:0.72222222222222221] [0:0.57692307692307687] [0:1] [0:1] none [0:1] none [0:1] none [0:1] none none none none none [0:1] none none [0:1] none none none none none none [0:1] none none [0:1] [0:1] [0:1] [0:1] [0:1] none [0:14194.91906662459]
tree_sizes=264 271 271 270 271 271 274 269 275 270 272 272 272 275 272 276 271 271 272 275 275 271 275 272 272 275 272 271 272 275 276 275 275 272 272 275 274 270 274 272 272 272 272 274 270 272 275 269 271 276 276 269 275 273 275 276 276 275 273 272 273 276 271 271 272 276 275 270 272 271 272 272 273 275 276 272 272 275 273 272 276 275 272 272 272 276 272 272 272 276 276 271 276 276 276 276 272 272 270 272 273 276 271 276 273 273 277 273 273 277 277 276 271 277 271 276 277 273 273 274 276 273 277 273 273 271 276 272 276 271 276 273 277 271 274 276 273 274 273 277 277 277 277 270 274 277 277 271 277 274 273 274 276 272 272 277 274 272 274 274 277 277 276 273 276 276 273 271 277 271 276 274 277 276 271 273 273 274 277 277 277 276 273 273 276 276 274 274 277 271 274 274 273 277 276 277 272 274 274 273 276 275 274 273 277 274 274 274 274 273 274 273 271 277 275 274 275 274 272 273 277 276 271 275 276 276 273 271 271 273 273 276 274 276 273 272 273 272 272 273 273 276 276 276 273 274 277 274 272 271 272 272 273 276 273 271 273 277 274 273 277 272 272 273 277 273 273 276 277 275 271 273 277 273 273 276 273 276 276 273 276 272 274 277 272 276 275 274 276 273 272 273 273 273 273 271 277 274 274 276 273 275 275 274 277 273 271 275 277 276 272 276 273 276 274 274 277 273 273 275 273 274 275 277 275 277 272 272 276 270 273 271 271 272 276 274 274 277 274 272 273 271 276 272 273 273 276 273 276 278 277 274 274 273 274 276 273 277 272 271 274 275 273 276 272 272 277 274 275 274 278 275 273 273 271 272 277 275 276 272 275 270 272 274 273 274 272 274 275 277 275 276 278 275 274 271 273 272 274 276 277 270 273 274 274 274 275 275 276 275 276 273 274 274 273 275 275 273 278 274 275 273 274 273 274 270 274 274 272 273 274 276 274 274 274 274 273 277 276 276 276 274 273 277 276 272 276 271 272 273 272 273 271 274 276 276 274 271 276 278 278 273 272 276 273 273 271 272 275 276 274 274 278 272 276 278 274 274 276 271 271 277 274 273 274 276 274 277 275 271 278 273 275 273 274 278 271 276 277 277 274 272 274 274 276 276 271 276 275 274 274 273 278 273 272 278 273 274 274 273 275 275 275 278 274 278 274 273 274 274 274 274 274 274 276 273 273 276 274 271 276 269 276 273 277 278 278 272 275 274 273 274 274 272 275 273 273 274 275 275 273 271 274 273 276 272 275 276 273 278 275 275 277 276 276 274 271 272 276 278 276 277 272 273 272 276 277 273 273 278 274 276 278 274 274 272 274 276 276 272 275 278 274 278 274 276 276 277 274 271 274 276 272 276 277 274 275 273 276 271 273 275 276 275 272 276 275 275 278 274 276 277 278 275 276 273 275 278 277 276 278 274 276 273 274 274 275 276 271 273 271 276 275 272 277 278 277 273 273 274 271 277 271 276 278 276 275 277 274 276 273 276 274 275 275 276 274 278 272 274 271 276 275 272 273 274 278 276 276 277 277 276 270 277 276 273 273 275 276 273 278 273 278 275 278 273 277 275 277 278 276 274 276 269 273 276 276 271 276 273 275 275 276 275 277 274 278 277 275 273 277 272 276 276 278 271 276 277 271 275 275 274 278 276 277 277 276 276 276 278 272 271 275 272 276 272 275 275 272 276 278 278 275 276 275 276 273 276 278 278 273 273 275 278 274 273 276 272 272 277 276 276 274 274 276 273 271 274 276 278 274 277 278 276 275 277 272 274 277 276 273 277 278 276 274 276 275 274 275 271 275 273 274 278 275 276 272 274 272 271 275 277 278 278 276 276 272 271 273 276 276 277 276 277 277 276 274 277 276 275 276 277 278 272 273 278 275 273 273 276 277 271 276 274 278 275 275 276 272 278 278 273 275 277 277 276 278 275 277 275 275 276 273 273 276 275 272 274 276 271 276 278 274 278 275 275 277 275 278 275 275 274 276 275 272 277 276 276 275 276 272 272 276 277 278 274 273 274 278 273 275 278 271 271 277 276 276 277 277 276 276 275 274 275 276 275 278 277 277 278 273 277 271 273 274 278 278 274 276 276 276 272 277 276 271 273 276 277 277 278 271 272 273 278 271 276 276 277 273 274 278 278 273 275 274 277 276 272 276 276 278 275 274 275 278 278 273 273 276 277 276 277 275 275 278 275 276 278 276 275 278 274 275 270 276 276 270 273 273 277 278 278 279 277 278 273 272 278 274 275 276 279 276 274 274 279 278 272 275 276 279 278 277 278 277 279 278 277 275 279 277 274 275 276 274 275 275 276 277 278 271 273 274 278 277 276 277 276 279 279 279 272 273 276 277 276 275 279 276 277 279 275 277 279 273 277 278 275 277 272 275 278 274 277

Tree=0
num_leaves=2
num_cat=0
split_feature=187
split_gain=58.97
threshold=0.23833671399594322
decision_type=2
left_child=-1
right_child=-2
leaf_value=-0.83260773861811965 -0.81410803775258578
leaf_count=414 1500
internal_value=0
internal_count=1914
shrinkage=1


Tree=1
num_leaves=2
num_cat=0
split_feature=181
split_gain=21.2992
threshold=7.5000000000000009
decision_type=2
left_child=-1
right_child=-2
leaf_value=0.0065531344707313345 -0.0031977199515524591
leaf_count=627 1287
internal_value=0
internal_count=1914
shrinkage=0.02


Tree=2
num_leaves=2
num_cat=0
split_feature=187
split_gain=56.6521
threshold=0.21764705882352944
decision_type=2
left_child=-1
right_child=-2
leaf_value=-0.016011528822347906 0.0034806966485166637
leaf_count=344 1570
internal_value=0
internal_count=1914
shrinkage=0.02


Tree=3
num_leaves=2
num_cat=0
split_feature=187
split_gain=55.0797
threshold=0.27157738095238099
decision_type=2
left_child=-1
right_child=-2
leaf_value=-0.011410674495233005 0.004748747123120298
leaf_count=567 1347
internal_value=0
internal_count=1914
shrinkage=0.02


Tree=4
num_leaves=2
num_cat=0
split_feature=184
split_gain=44.2945
threshold=0.53571428571428581
decision_type=2
left_child=-1
right_child=-2
leaf_value=-0.00097772726118330053 0.044605750330416478
leaf_count=1873 41
internal_value=0
internal_count=1914
shrinkage=0.02


Tree=5
num_leaves=2
num_cat=0
split_feature=187
split_gain=53.3074
threshold=0.21764705882352944
decision_type=2
left_child=-1
right_child=-2
leaf_value=-0.015636387969450785 0.0033536136280016842
leaf_count=344 1570
internal_value=0
internal_count=1914
shrinkage=0.02


Tree=6
num_leaves=2
num_cat=0
split_feature=116
split_gain=33.987
threshold=1.0000000180025095e-35
decision_type=2
left_child=-1
right_child=-2
leaf_value=0.0034982987688275597 -0.0095576678807589664
leaf_count=1401 513
internal_value=0
internal_count=1914
shrinkage=0.02


Tree=7
num_leaves=2
num_cat=0
split_feature=0
split_gain=24.4649
threshold=1.5000000000000002
decision_type=2
left_child=-1
right_child=-2
leaf_value=-0.0037206899146073687 0.0064708439196856718
leaf_count=1216 698
internal_value=0
internal_count=1914
shrinkage=0.02


Tree=8
num_leaves=2
num_cat=0
split_feature=114
split_gain=19.8641
threshold=1.0000000180025095e-35
decision_type=2
left_child=-1
right_child=-2
leaf_value=0.0019891187556776457 -0.0098215034120782904
leaf_count=1591 323
internal_value=0
internal_count=1914
shrinkage=0.02


Tree=9
num_leaves=2
num_cat=0
split_feature=184
split_gain=41.6888
threshold=0.53571428571428581
decision_type=2
left_child=-1
right_child=-2
leaf_value=-0.0009578600670534349 0.042882502070369734
leaf_count=1873 41
internal_value=0
internal_count=1914
shrinkage=0.02


Tree=10
num_leaves=2
num_cat=0
split_feature=184
split_gain=39.4307
threshold=0.53571428571428581
decision_type=2
left_child=-1
right_child=-2
leaf_value=-0.00093905565003687302 0.041379373476442861
leaf_count=1873 41
internal_value=0
internal_count=1914
shrinkage=0.02


Tree=11
num_leaves=2
num_cat=0
split_feature=187
split_gain=51.7428
threshold=0.27157738095238099
decision_type=2
left_child=-1
right_child=-2
leaf_value=-0.011120764122880194 0.0045777174421845522
leaf_count=567 1347
internal_value=0
internal_count=1914
shrinkage=0.02


Tree=12
num_leaves=2
num_cat=0
split_feature=187
split_gain=50.1293
threshold=0.21764705882352944
decision_type=2
left_child=-1
right_child=-2
leaf_value=-0.015267475999184668 0.0032299813387083138
leaf_count=344 1570
internal_value=0
internal_count=1914
shrinkage=0.02


Tree=13
num_leaves=2
num_cat=0
split_feature=115
split_gain=25.7454
threshold=1.0000000180025095e-35
decision_type=2
left_child=-1
right_child=-2
leaf_value=0.0023602571074651489 -0.010729324669941896
leaf_count=1567 347
internal_value=0
internal_count=1914
shrinkage=0.02


Tree=14
num_leaves=2
num_cat=0
split_feature=187
split_gain=48.6333
threshold=0.27157738095238099
decision_type=2
left_child=-1
right_child=-2
leaf_value=-0.010839106740399262 0.0044150419005802403
leaf_count=567 1347
internal_value=0
internal_count=1914
shrinkage=0.02


Tree=15
num_leaves=2
num_cat=0
split_feature=116
split_gain=31.1236
threshold=1.0000000180025095e-35
decision_type=2
left_child=-1
right_child=-2
leaf_value=0.0033279585173065698 -0.0092022660749008153
leaf_count=1401 513
internal_value=0
internal_count=1914
shrinkage=0.02


Tree=16
num_leaves=2
num_cat=0
split_feature=181
split_gain=18.8772
threshold=7.5000000000000009
decision_type=2
left_child=-1
right_child=-2
leaf_value=0.006135858585142609 -0.0030296377041805446
leaf_count=627 1287
internal_value=0
internal_count=1914
shrinkage=0.02


Tree=17
num_leaves=2
num_cat=0
split_feature=184
split_gain=37.072
threshold=0.53571428571428581
decision_type=2
left_child=-1
right_child=-2
leaf_value=-0.00091900102799088979 0.039803959037032717
leaf_count=1873 41
internal_value=0
internal_count=1914
shrinkage=0.02


Tree=18
num_leaves=2
num_cat=0
split_feature=187
split_gain=47.0184
threshold=0.21764705882352944
decision_type=2
left_child=-1
right_child=-2
leaf_value=-0.014892173402470371 0.0031065076807492305
leaf_count=344 1570
internal_value=0
internal_count=1914
shrinkage=0.02


Tree=19
num_leaves=2
num_cat=0
split_feature=129
split_gain=33.4937
threshold=1.0000000180025095e-35
decision_type=2
left_child=-1
right_child=-2
leaf_value=-0.0025339478129075377 0.013024768641619515
leaf_count=1605 309
internal_value=0
internal_count=1914
shrinkage=0.02


Tree=20
num_leaves=2
num_cat=0
split_feature=129
split_gain=32.0386
threshold=1.0000000180025095e-35
decision_type=2
left_child=-1
right_child=-2
leaf_value=-0.0024857435653116433 0.012701362327097392
leaf_count=1605 309
internal_value=0
internal_count=1914
shrinkage=0.02


Tree=21
num_leaves=2
num_cat=0
split_feature=187
split_gain=45.3249
threshold=0.19813084112149534
decision_type=2
left_child=-1
right_child=-2
leaf_value=-0.017090548237106012 0.002609285487257394
leaf_count=266 1648
internal_value=0
internal_count=1914
shrinkage=0.02


Tree=22
num_leaves=2
num_cat=0
split_feature=115
split_gain=24.2768
threshold=1.0000000180025095e-35
decision_type=2
left_child=-1
right_child=-2
leaf_value=0.0022827485912356115 -0.010463861799437207
leaf_count=1567 347
internal_value=0
internal_count=1914
shrinkage=0.02


Tree=23
num_leaves=2
num_cat=0
split_feature=184
split_gain=34.7656
threshold=0.53571428571428581
decision_type=2
left_child=-1
right_child=-2
leaf_value=-0.00089780185540676402 0.038250655470433756
leaf_count=1873 41
internal_value=0
internal_count=1914
shrinkage=0.02


Tree=24
num_leaves=2
num_cat=0
split_feature=184
split_gain=33.0142
threshold=0.53571428571428581
decision_type=2
left_child=-1
right_child=-2
leaf_value=-0.00088015603835964868 0.037059164453078948
leaf_count=1873 41
internal_value=0
internal_count=1914
shrinkage=0.02


Tree=25
num_leaves=2
num_cat=0
split_feature=129
split_gain=30.2485
threshold=1.0000000180025095e-35
decision_type=2
left_child=-1
right_child=-2
leaf_value=-0.0024249365468498336 0.012298720474996423
leaf_count=1605 309
internal_value=0
internal_count=1914
shrinkage=0.02


Tree=26
num_leaves=2
num_cat=0
split_feature=184
split_gain=31.2859
threshold=0.53571428571428581
decision_type=2
left_child=-1
right_child=-2
leaf_value=-0.00086187028700581206 0.035875606732518384
leaf_count=1873 41
internal_value=0
internal_count=1914
shrinkage=0.02


Tree=27
num_leaves=2
num_cat=0
split_feature=187
split_gain=44.172
threshold=0.27157738095238099
decision_type=2
left_child=-1
right_child=-2
leaf_value=-0.010418578338105802 0.0041752157002950784
leaf_count=567 1347
internal_value=0
internal_count=1914
shrinkage=0.02


Tree=28
num_leaves=2
num_cat=0
split_feature=184
split_gain=29.7733
threshold=0.53571428571428581
decision_type=2
left_child=-1
right_child=-2
leaf_value=-0.00084517037828892613 0.034832996616317578
leaf_count=1873 41
internal_value=0
internal_count=1914
shrinkage=0.02


Tree=29
num_leaves=2
num_cat=0
split_feature=129
split_gain=28.7189
threshold=1.0000000180025095e-35
decision_type=2
left_child=-1
right_child=-2
leaf_value=-0.0023709680771825383 0.011948937931146278
leaf_count=1605 309
internal_value=0
internal_count=1914
shrinkage=0.02


Tree=30
num_leaves=2
num_cat=0
split_feature=116
split_gain=28.4752
threshold=1.0000000180025095e-35
decision_type=2
left_child=-1
right_child=-2
leaf_value=0.0031668606276388503 -0.0088560239963327188
leaf_count=1401 513
internal_value=0
internal_count=1914
shrinkage=0.02


Tree=31
num_leaves=2
num_cat=0
split_feature=114
split_gain=16.5368
threshold=1.0000000180025095e-35
decision_type=2
left_child=-1
right_child=-2
leaf_value=0.0017950097527633655 -0.009067312425785911
leaf_count=1591 323
internal_value=0
internal_count=1914
shrinkage=0.02


Tree=32
num_leaves=2
num_cat=0
split_feature=166
split_gain=19.9302
threshold=1.0000000180025095e-35
decision_type=2
left_child=-1
right_child=-2
leaf_value=-0.0017505762969202774 0.011238439990129441
leaf_count=1658 256
internal_value=0
internal_count=1914
shrinkage=0.02


Tree=33
num_leaves=2
num_cat=0
split_feature=187
split_gain=43.3432
threshold=0.14583333333333334
decision_type=2
left_child=-1
right_child=-2
leaf_value=-0.025296294882142276 0.0016859099234545073
leaf_count=127 1787
internal_value=0
internal_count=1914
shrinkage=0.02


Tree=34
num_leaves=2
num_cat=0
split_feature=187
split_gain=42.194
threshold=0.29285714285714287
decision_type=2
left_child=-1
right_child=-2
leaf_value=-0.0082029234988373508 0.0050693000000434684
leaf_count=751 1163
internal_value=0
internal_count=1914
shrinkage=0.02


Tree=35
num_leaves=2
num_cat=0
split_feature=129
split_gain=27.0447
threshold=1.0000000180025095e-35
decision_type=2
left_child=-1
right_child=-2
leaf_value=-0.0023099854284170888 0.011556238453143509
leaf_count=1605 309
internal_value=0
internal_count=1914
shrinkage=0.02


Tree=36
num_leaves=2
num_cat=0
split_feature=129
split_gain=25.8889
threshold=1.0000000180025095e-35
decision_type=2
left_child=-1
right_child=-2
leaf_value=-0.002265864379070056 0.011279097221023222
leaf_count=1605 309
internal_value=0
internal_count=1914
shrinkage=0.02


Tree=37
num_leaves=2
num_cat=0
split_feature=0
split_gain=22.4263
threshold=1.5000000000000002
decision_type=2
left_child=-1
right_child=-2
leaf_value=-0.0035840344191957851 0.0061726793469923892
leaf_count=1216 698
internal_value=0
internal_count=1914
shrinkage=0.02


Tree=38
num_leaves=2
num_cat=0
split_feature=129
split_gain=24.697
threshold=1.0000000180025095e-35
decision_type=2
left_child=-1
right_child=-2
leaf_value=-0.0022190397989196066 0.010988625343308722
leaf_count=1605 309
internal_value=0
internal_count=1914
shrinkage=0.02


Tree=39
num_leaves=2
num_cat=0
split_feature=187
split_gain=41.5407
threshold=0.14583333333333334
decision_type=2
left_child=-1
right_child=-2
leaf_value=-0.024986295279577492 0.0016363909534004445
leaf_count=127 1787
internal_value=0
internal_count=1914
shrinkage=0.02


Tree=40
num_leaves=2
num_cat=0
split_feature=187
split_gain=40.3413
threshold=0.14583333333333334
decision_type=2
left_child=-1
right_child=-2
leaf_value=-0.024776075211209485 0.0016026547820998324
leaf_count=127 1787
internal_value=0
internal_count=1914
shrinkage=0.02


Tree=41
num_leaves=2
num_cat=0
split_feature=187
split_gain=39.4126
threshold=0.23833671399594322
decision_type=2
left_child=-1
right_child=-2
leaf_value=-0.012350091653895208 0.0031453855222758919
leaf_count=414 1500
internal_value=0
internal_count=1914
shrinkage=0.02


Tree=42
num_leaves=2
num_cat=0
split_feature=187
split_gain=38.6158
threshold=0.14583333333333334
decision_type=2
left_child=-1
right_child=-2
leaf_value=-0.024470257637773999 0.0015535093585708113
leaf_count=127 1787
internal_value=0
internal_count=1914
shrinkage=0.02


Tree=43
num_leaves=2
num_cat=0
split_feature=53
split_gain=17.2146
threshold=1.0000000180025095e-35
decision_type=2
left_child=-1
right_child=-2
leaf_value=-0.0025608820759020962 0.006639869833101609
leaf_count=1385 529
internal_value=0
internal_count=1914
shrinkage=0.02


Tree=44
num_leaves=2
num_cat=0
split_feature=0
split_gain=21.0109
threshold=1.5000000000000002
decision_type=2
left_child=-1
right_child=-2
leaf_value=-0.0034816665942612947 0.0059581817029878015
leaf_count=1216 698
internal_value=0
internal_count=1914
shrinkage=0.02


Tree=45
num_leaves=2
num_cat=0
split_feature=184
split_gain=27.7005
threshold=0.53571428571428581
decision_type=2
left_child=-1
right_child=-2
leaf_value=-0.00082215085992219173 0.033405067841571587
leaf_count=1873 41
internal_value=0
internal_count=1914
shrinkage=0.02


Tree=46
num_leaves=2
num_cat=0
split_feature=129
split_gain=23.3286
threshold=1.0000000180025095e-35
decision_type=2
left_child=-1
right_child=-2
leaf_value=-0.0021646862709056346 0.010652300669974309
leaf_count=1605 309
internal_value=0
internal_count=1914
shrinkage=0.02


Tree=47
num_leaves=2
num_cat=0
split_feature=184
split_gain=26.34
threshold=0.53571428571428581
decision_type=2
left_child=-1
right_child=-2
leaf_value=-0.0008050932824881017 0.032448238050439268
leaf_count=1873 41
internal_value=0
internal_count=1914
shrinkage=0.02


Tree=48
num_leaves=2
num_cat=0
split_feature=184
split_gain=25.4738
threshold=0.41666666666666674
decision_type=2
left_child=-1
right_child=-2
leaf_value=-0.0011110414309460533 0.022711279794156564
leaf_count=1831 83
internal_value=0
internal_count=1914
shrinkage=0.02


Tree=49
num_leaves=2
num_cat=0
split_feature=116
split_gain=26.2437
threshold=1.0000000180025095e-35
decision_type=2
left_child=-1
right_child=-2
leaf_value=0.0030281511526565976 -0.0085505024571177219
leaf_count=1401 513
internal_value=0
internal_count=1914
shrinkage=0.02


Tree=50
num_leaves=2
num_cat=0
split_feature=115
split_gain=21.0104
threshold=1.0000000180025095e-35
decision_type=2
left_child=-1
right_child=-2
leaf_value=0.0021062704012770094 -0.0098362947359744088
leaf_count=1567 347
internal_value=0
internal_count=1914
shrinkage=0.02


Tree=51
num_leaves=2
num_cat=0
split_feature=0
split_gain=20.107
threshold=1.5000000000000002
decision_type=2
left_child=-1
right_child=-2
leaf_value=-0.0034142018087824433 0.0058187305874776198
leaf_count=1216 698
internal_value=0
internal_count=1914
shrinkage=0.02


Tree=52
num_leaves=2
num_cat=0
split_feature=166
split_gain=18.4564
threshold=1.0000000180025095e-35
decision_type=2
left_child=-1
right_child=-2
leaf_value=-0.0016941507138319759 0.010780055182478564
leaf_count=1658 256
internal_value=0
internal_count=1914
shrinkage=0.02


Tree=53
num_leaves=2
num_cat=0
split_feature=129
split_gain=21.815
threshold=1.0000000180025095e-35
decision_type=2
left_child=-1
right_child=-2
leaf_value=-0.0021009320896963326 0.01027027066166567
leaf_count=1605 309
internal_value=0
internal_count=1914
shrinkage=0.02


Tree=54
num_leaves=2
num_cat=0
split_feature=53
split_gain=15.9051
threshold=1.0000000180025095e-35
decision_type=2
left_child=-1
right_child=-2
leaf_value=-0.0024710582503015342 0.0063639312148233897
leaf_count=1385 529
internal_value=0
internal_count=1914
shrinkage=0.02


Tree=55
num_leaves=2
num_cat=0
split_feature=116
split_gain=24.3526
threshold=1.0000000180025095e-35
decision_type=2
left_child=-1
right_child=-2
leaf_value=0.0029042474017439445 -0.0082757900394763578
leaf_count=1401 513
internal_value=0
internal_count=1914
shrinkage=0.02


Tree=56
num_leaves=2
num_cat=0
split_feature=129
split_gain=20.7367
threshold=1.0000000180025095e-35
decision_type=2
left_child=-1
right_child=-2
leaf_value=-0.0020537470525085399 0.0099898374427459784
leaf_count=1605 309
internal_value=0
internal_count=1914
shrinkage=0.02


Tree=57
num_leaves=2
num_cat=0
split_feature=116
split_gain=23.3432
threshold=1.0000000180025095e-35
decision_type=2
left_child=-1
right_child=-2
leaf_value=0.002836564566515945 -0.0081238070749314294
leaf_count=1401 513
internal_value=0
internal_count=1914
shrinkage=0.02


Tree=58
num_leaves=2
num_cat=0
split_feature=187
split_gain=38.1885
threshold=0.29285714285714287
decision_type=2
left_child=-1
right_child=-2
leaf_value=-0.0078694623039108416 0.0047937497180612597
leaf_count=751 1163
internal_value=0
internal_count=1914
shrinkage=0.02


Tree=59
num_leaves=2
num_cat=0
split_feature=187
split_gain=37.1298
threshold=0.14583333333333334
decision_type=2
left_child=-1
right_child=-2
leaf_value=-0.024212678831062422 0.0015118911964714253
leaf_count=127 1787
internal_value=0
internal_count=1914
shrinkage=0.02


Tree=60
num_leaves=2
num_cat=0
split_feature=187
split_gain=36.2822
threshold=0.29285714285714287
decision_type=2
left_child=-1
right_child=-2
leaf_value=-0.0076988907841727692 0.0046568831281098991
leaf_count=751 1163
internal_value=0
internal_count=1914
shrinkage=0.02


Tree=61
num_leaves=2
num_cat=0
split_feature=116
split_gain=22.7223
threshold=1.0000000180025095e-35
decision_type=2
left_child=-1
right_child=-2
leaf_value=0.0027949723756407769 -0.0080301175895725503
leaf_count=1401 513
internal_value=0
internal_count=1914
shrinkage=0.02


Tree=62
num_leaves=2
num_cat=0
split_feature=184
split_gain=23.6583
threshold=0.53571428571428581
decision_type=2
left_child=-1
right_child=-2
leaf_value=-0.0007698564790411264 0.030546485511047109
leaf_count=1873 41
internal_value=0
internal_count=1914
shrinkage=0.02


Tree=63
num_leaves=2
num_cat=0
split_feature=184
split_gain=22.8255
threshold=0.41666666666666674
decision_type=2
left_child=-1
right_child=-2
leaf_value=-0.0010603105248506637 0.021368067762981419
leaf_count=1831 83
internal_value=0
internal_count=1914
shrinkage=0.02


Tree=64
num_leaves=2
num_cat=0
split_feature=187
split_gain=35.7965
threshold=0.11805555555555557
decision_type=2
left_child=-1
right_child=-2
leaf_value=-0.025535228232909209 0.0013827588947208983
leaf_count=113 1801
internal_value=0
internal_count=1914
shrinkage=0.02


Tree=65
num_leaves=2
num_cat=0
split_feature=116
split_gain=21.7812
threshold=1.0000000180025095e-35
decision_type=2
left_child=-1
right_child=-2
leaf_value=0.0027309541105815373 -0.0078824800776280315
leaf_count=1401 513
internal_value=0
internal_count=1914
shrinkage=0.02


Tree=66
num_leaves=2
num_cat=0
split_feature=166
split_gain=17.5105
threshold=1.0000000180025095e-35
decision_type=2
left_child=-1
right_child=-2
leaf_value=-0.0016564052828674327 0.010481747616499349
leaf_count=1658 256
internal_value=0
internal_count=1914
shrinkage=0.02


Tree=67
num_leaves=2
num_cat=0
split_feature=0
split_gain=18.6449
threshold=1.5000000000000002
decision_type=2
left_child=-1
right_child=-2
leaf_value=-0.0033025295448551963 0.0055890302954365399
leaf_count=1216 698
internal_value=0
internal_count=1914
shrinkage=0.02


Tree=68
num_leaves=2
num_cat=0
split_feature=184
split_gain=21.7764
threshold=0.53571428571428581
decision_type=2
left_child=-1
right_child=-2
leaf_value=-0.00074254831356133954 0.029177571292588612
leaf_count=1873 41
internal_value=0
internal_count=1914
shrinkage=0.02


Tree=69
num_leaves=2
num_cat=0
split_feature=184
split_gain=21.0689
threshold=0.41666666666666674
decision_type=2
left_child=-1
right_child=-2
leaf_value=-0.0010235160452772903 0.020450320198195586
leaf_count=1831 83
internal_value=0
internal_count=1914
shrinkage=0.02


Tree=70
num_leaves=2
num_cat=0
split_feature=184
split_gain=20.4811
threshold=0.15073529411764711
decision_type=2
left_child=-1
right_child=-2
leaf_value=-0.025955806139893092 0.00077714372733031977
leaf_count=60 1854
internal_value=0
internal_count=1914
shrinkage=0.02


Tree=71
num_leaves=2
num_cat=0
split_feature=187
split_gain=34.5843
threshold=0.11805555555555557
decision_type=2
left_child=-1
right_child=-2
leaf_value=-0.025322250571324076 0.0013481457683736844
leaf_count=113 1801
internal_value=0
internal_count=1914
shrinkage=0.02


Tree=72
num_leaves=2
num_cat=0
split_feature=187
split_gain=33.9953
threshold=0.29285714285714287
decision_type=2
left_child=-1
right_child=-2
leaf_value=-0.0074912593000973342 0.0044914126807870701
leaf_count=751 1163
internal_value=0
internal_count=1914
shrinkage=0.02


Tree=73
num_leaves=2
num_cat=0
split_feature=116
split_gain=20.966
threshold=1.0000000180025095e-35
decision_type=2
left_child=-1
right_child=-2
leaf_value=0.0026753872620998904 -0.0077526883645203451
leaf_count=1401 513
internal_value=0
internal_count=1914
shrinkage=0.02


Tree=74
num_leaves=2
num_cat=0
split_feature=129
split_gain=18.7793
threshold=1.0000000180025095e-35
decision_type=2
left_child=-1
right_child=-2
leaf_value=-0.0019660441903748401 0.0094766206144690831
leaf_count=1605 309
internal_value=0
internal_count=1914
shrinkage=0.02


Tree=75
num_leaves=2
num_cat=0
split_feature=187
split_gain=33.3846
threshold=0.11805555555555557
decision_type=2
left_child=-1
right_child=-2
leaf_value=-0.025107081313899961 0.0013132059489343105
leaf_count=113 1801
internal_value=0
internal_count=1914
shrinkage=0.02


Tree=76
num_leaves=2
num_cat=0
split_feature=187
split_gain=32.5036
threshold=0.18089430894308947
decision_type=2
left_child=-1
right_child=-2
leaf_value=-0.022737955204704625 0.0014123057733240391
leaf_count=133 1781
internal_value=0
internal_count=1914
shrinkage=0.02


Tree=77
num_leaves=2
num_cat=0
split_feature=129
split_gain=17.9473
threshold=1.0000000180025095e-35
decision_type=2
left_child=-1
right_child=-2
leaf_value=-0.001926607597497419 0.0092482516727335901
leaf_count=1605 309
internal_value=0
internal_count=1914
shrinkage=0.02


Tree=78
num_leaves=2
num_cat=0
split_feature=187
split_gain=31.9567
threshold=0.29285714285714287
decision_type=2
left_child=-1
right_child=-2
leaf_value=-0.0072977531482204851 0.0043384951089305368
leaf_count=751 1163
internal_value=0
internal_count=1914
shrinkage=0.02


Tree=79
num_leaves=2
num_cat=0
split_feature=187
split_gain=31.4216
threshold=0.11805555555555557
decision_type=2
left_child=-1
right_child=-2
leaf_value=-0.024748873530224459 0.0012545178726916606
leaf_count=113 1801
internal_value=0
internal_count=1914
shrinkage=0.02


Tree=80
num_leaves=2
num_cat=0
split_feature=115
split_gain=17.9309
threshold=1.0000000180025095e-35
decision_type=2
left_child=-1
right_child=-2
leaf_value=0.0019312514898860351 -0.0091897911911463445
leaf_count=1567 347
internal_value=0
internal_count=1914
shrinkage=0.02


Tree=81
num_leaves=2
num_cat=0
split_feature=47
split_gain=13.8856
threshold=1.0000000180025095e-35
decision_type=2
left_child=-1
right_child=-2
leaf_value=-0.0026923417428894097 0.0051186174521942315
leaf_count=1264 650
internal_value=0
internal_count=1914
shrinkage=0.02


Tree=82
num_leaves=2
num_cat=0
split_feature=187
split_gain=30.6326
threshold=0.10555555555555557
decision_type=2
left_child=-1
right_child=-2
leaf_value=-0.025609695386129779 0.0011820375288025551
leaf_count=105 1809
internal_value=0
internal_count=1914
shrinkage=0.02


Tree=83
num_leaves=2
num_cat=0
split_feature=187
split_gain=30.223
threshold=0.29285714285714287
decision_type=2
left_child=-1
right_child=-2
leaf_value=-0.0071268269244261183 0.0042047356240023856
leaf_count=751 1163
internal_value=0
internal_count=1914
shrinkage=0.02


Tree=84
num_leaves=2
num_cat=0
split_feature=184
split_gain=19.7779
threshold=0.53571428571428581
decision_type=2
left_child=-1
right_child=-2
leaf_value=-0.00071246937695984656 0.027713753895654732
leaf_count=1873 41
internal_value=0
internal_count=1914
shrinkage=0.02


Tree=85
num_leaves=2
num_cat=0
split_feature=116
split_gain=19.6656
threshold=1.0000000180025095e-35
decision_type=2
left_child=-1
right_child=-2
leaf_value=0.0025851207808311127 -0.0075406545847601439
leaf_count=1401 513
internal_value=0
internal_count=1914
shrinkage=0.02


Tree=86
num_leaves=2
num_cat=0
split_feature=187
split_gain=29.6359
threshold=0.10555555555555557
decision_type=2
left_child=-1
right_child=-2
leaf_value=-0.025434817485154654 0.0011522005738662296
leaf_count=105 1809
internal_value=0
internal_count=1914
shrinkage=0.02


Tree=87
num_leaves=2
num_cat=0
split_feature=187
split_gain=28.9596
threshold=0.19813084112149534
decision_type=2
left_child=-1
right_child=-2
leaf_value=-0.014520334934594084 0.0019760156125004855
leaf_count=266 1648
internal_value=0
internal_count=1914
shrinkage=0.02


Tree=88
num_leaves=2
num_cat=0
split_feature=184
split_gain=18.8458
threshold=0.41666666666666674
decision_type=2
left_child=-1
right_child=-2
leaf_value=-0.00097589054761710583 0.019261884595627606
leaf_count=1831 83
internal_value=0
internal_count=1914
shrinkage=0.02


Tree=89
num_leaves=2
num_cat=0
split_feature=129
split_gain=16.6281
threshold=1.0000000180025095e-35
decision_type=2
left_child=-1
right_child=-2
leaf_value=-0.0018627780149662856 0.0088825549655837405
leaf_count=1605 309
internal_value=0
internal_count=1914
shrinkage=0.02


Tree=90
num_leaves=2
num_cat=0
split_feature=115
split_gain=16.8368
threshold=1.0000000180025095e-35
decision_type=2
left_child=-1
right_child=-2
leaf_value=0.0018665131829788408 -0.0089432335129007931
leaf_count=1567 347
internal_value=0
internal_count=1914
shrinkage=0.02


Tree=91
num_leaves=2
num_cat=0
split_feature=187
split_gain=28.468
threshold=0.35164835164835168
decision_type=2
left_child=-1
right_child=-2
leaf_value=-0.003962107293004744 0.0071414893860521668
leaf_count=1257 657
internal_value=0
internal_count=1914
shrinkage=0.02


Tree=92
num_leaves=2
num_cat=0
split_feature=129
split_gain=15.8372
threshold=1.0000000180025095e-35
decision_type=2
left_child=-1
right_child=-2
leaf_value=-0.0018219388293836385 0.0086534367962540354
leaf_count=1605 309
internal_value=0
internal_count=1914
shrinkage=0.02


Tree=93
num_leaves=2
num_cat=0
split_feature=115
split_gain=16.1994
threshold=1.0000000180025095e-35
decision_type=2
left_child=-1
right_child=-2
leaf_value=0.0018269103241113787 -0.0087946190884292588
leaf_count=1567 347
internal_value=0
internal_count=1914
shrinkage=0.02


Tree=94
num_leaves=2
num_cat=0
split_feature=116
split_gain=17.8947
threshold=1.0000000180025095e-35
decision_type=2
left_child=-1
right_child=-2
leaf_value=0.0024554791462139411 -0.0072342564843082711
leaf_count=1401 513
internal_value=0
internal_count=1914
shrinkage=0.02


Tree=95
num_leaves=2
num_cat=0
split_feature=115
split_gain=15.1829
threshold=1.0000000180025095e-35
decision_type=2
left_child=-1
right_child=-2
leaf_value=0.0017618177252667335 -0.0085491050430780667
leaf_count=1567 347
internal_value=0
internal_count=1914
shrinkage=0.02


Tree=96
num_leaves=2
num_cat=0
split_feature=184
split_gain=18.7898
threshold=0.15073529411764711
decision_type=2
left_child=-1
right_child=-2
leaf_value=-0.025458796044810317 0.00072944966516482401
leaf_count=60 1854
internal_value=0
internal_count=1914
shrinkage=0.02


Tree=97
num_leaves=2
num_cat=0
split_feature=187
split_gain=28.2944
threshold=0.10555555555555557
decision_type=2
left_child=-1
right_child=-2
leaf_value=-0.025204730891293603 0.0011118722691187094
leaf_count=105 1809
internal_value=0
internal_count=1914
shrinkage=0.02


Tree=98
num_leaves=2
num_cat=0
split_feature=0
split_gain=16.7087
threshold=1.5000000000000002
decision_type=2
left_child=-1
right_child=-2
leaf_value=-0.0031513486974115673 0.0052755667533858101
leaf_count=1216 698
internal_value=0
internal_count=1914
shrinkage=0.02


Tree=99
num_leaves=2
num_cat=0
split_feature=184
split_gain=18.1222
threshold=0.15073529411764711
decision_type=2
left_child=-1
right_child=-2
leaf_value=-0.025223333758717784 0.00071021095566605071
leaf_count=60 1854
internal_value=0
internal_count=1914
shrinkage=0.02


Tree=100
num_leaves=2
num_cat=0
split_feature=187
split_gain=27.4936
threshold=0.29285714285714287
decision_type=2
left_child=-1
right_child=-2
leaf_value=-0.0068478598549728421 0.003991329919461546
leaf_count=751 1163
internal_value=0
internal_count=1914
shrinkage=0.02


Tree=101
num_leaves=2
num_cat=0
split_feature=166
split_gain=16.1112
threshold=1.0000000180025095e-35
decision_type=2
left_child=-1
right_child=-2
leaf_value=-0.0016003566831018718 0.010038783845707056
leaf_count=1658 256
internal_value=0
internal_count=1914
shrinkage=0.02


Tree=102
num_leaves=2
num_cat=0
split_feature=0
split_gain=15.9362
threshold=1.5000000000000002
decision_type=2
left_child=-1
right_child=-2
leaf_value=-0.0030841342108912958 0.0051436909361266357
leaf_count=1216 698
internal_value=0
internal_count=1914
shrinkage=0.02


Tree=103
num_leaves=2
num_cat=0
split_feature=47
split_gain=12.5281
threshold=1.0000000180025095e-35
decision_type=2
left_child=-1
right_child=-2
leaf_value=-0.0025721294335491187 0.0048500943579077313
leaf_count=1264 650
internal_value=0
internal_count=1914
shrinkage=0.02


Tree=104
num_leaves=2
num_cat=0
split_feature=187
split_gain=27.1715
threshold=0.10555555555555557
decision_type=2
left_child=-1
right_child=-2
leaf_value=-0.025009086454484308 0.0010768769883954142
leaf_count=105 1809
internal_value=0
internal_count=1914
shrinkage=0.02


Tree=105
num_leaves=2
num_cat=0
split_feature=187
split_gain=26.4839
threshold=0.10555555555555557
decision_type=2
left_child=-1
right_child=-2
leaf_value=-0.024885992010867723 0.0010549158215587562
leaf_count=105 1809
internal_value=0
internal_count=1914
shrinkage=0.02


Tree=106
num_leaves=2
num_cat=0
split_feature=116
split_gain=16.8187
threshold=1.0000000180025095e-35
decision_type=2
left_child=-1
right_child=-2
leaf_value=0.0023748992830799256 -0.0070411396654184409
leaf_count=1401 513
internal_value=0
internal_count=1914
shrinkage=0.02


Tree=107
num_leaves=2
num_cat=0
split_feature=184
split_gain=17.8981
threshold=0.53571428571428581
decision_type=2
left_child=-1
right_child=-2
leaf_value=-0.00068172189116471205 0.026308886770447057
leaf_count=1873 41
internal_value=0
internal_count=1914
shrinkage=0.02


Tree=108
num_leaves=2
num_cat=0
split_feature=184
split_gain=17.2822
threshold=0.15073529411764711
decision_type=2
left_child=-1
right_child=-2
leaf_value=-0.024944959000788539 0.00068566055427332086
leaf_count=60 1854
internal_value=0
internal_count=1914
shrinkage=0.02


Tree=109
num_leaves=2
num_cat=0
split_feature=116
split_gain=16.1521
threshold=1.0000000180025095e-35
decision_type=2
left_child=-1
right_child=-2
leaf_value=0.0023232436333421079 -0.0069155569497162958
leaf_count=1401 513
internal_value=0
internal_count=1914
shrinkage=0.02


Tree=110
num_leaves=2
num_cat=0
split_feature=166
split_gain=15.3458
threshold=1.0000000180025095e-35
decision_type=2
left_child=-1
right_child=-2
leaf_value=-0.0015664523263479693 0.0097815330090785906
leaf_count=1658 256
internal_value=0
internal_count=1914
shrinkage=0.02


Tree=111
num_leaves=2
num_cat=0
split_feature=166
split_gain=14.6962
threshold=1.0000000180025095e-35
decision_type=2
left_child=-1
right_child=-2
leaf_value=-0.001536056152617813 0.0095536321366690002
leaf_count=1658 256
internal_value=0
internal_count=1914
shrinkage=0.02


Tree=112
num_leaves=2
num_cat=0
split_feature=0
split_gain=14.9821
threshold=1.5000000000000002
decision_type=2
left_child=-1
right_child=-2
leaf_value=-0.0030001695773125463 0.0049778082396484706
leaf_count=1216 698
internal_value=0
internal_count=1914
shrinkage=0.02


Tree=113
num_leaves=2
num_cat=0
split_feature=129
split_gain=14.2495
threshold=1.0000000180025095e-35
decision_type=2
left_child=-1
right_child=-2
leaf_value=-0.0017378034255556697 0.0081855136448852565
leaf_count=1605 309
internal_value=0
internal_count=1914
shrinkage=0.02


Tree=114
num_leaves=2
num_cat=0
split_feature=0
split_gain=14.3306
threshold=1.5000000000000002
decision_type=2
left_child=-1
right_child=-2
leaf_value=-0.0029391784351570226 0.0048614409802463353
leaf_count=1216 698
internal_value=0
internal_count=1914
shrinkage=0.02


Tree=115
num_leaves=2
num_cat=0
split_feature=47
split_gain=11.6984
threshold=1.0000000180025095e-35
decision_type=2
left_child=-1
right_child=-2
leaf_value=-0.0024936484259956231 0.0046789695148623097
leaf_count=1264 650
internal_value=0
internal_count=1914
shrinkage=0.02


Tree=116
num_leaves=2
num_cat=0
split_feature=129
split_gain=13.5794
threshold=1.0000000180025095e-35
decision_type=2
left_child=-1
right_child=-2
leaf_value=-0.0016995854886504094 0.0079784429721738298
leaf_count=1605 309
internal_value=0
internal_count=1914
shrinkage=0.02


Tree=117
num_leaves=2
num_cat=0
split_feature=184
split_gain=17.0001
threshold=0.53571428571428581
decision_type=2
left_child=-1
right_child=-2
leaf_value=-0.00066534647619597169 0.025624470540227127
leaf_count=1873 41
internal_value=0
internal_count=1914
shrinkage=0.02


Tree=118
num_leaves=2
num_cat=0
split_feature=184
split_gain=16.6291
threshold=0.15073529411764711
decision_type=2
left_child=-1
right_child=-2
leaf_value=-0.024695216858449692 0.00066742919723150997
leaf_count=60 1854
internal_value=0
internal_count=1914
shrinkage=0.02


Tree=119
num_leaves=2
num_cat=0
split_feature=187
split_gain=26.1142
threshold=0.35164835164835168
decision_type=2
left_child=-1
right_child=-2
leaf_value=-0.0038213273406456877 0.0068173546338366623
leaf_count=1257 657
internal_value=0
internal_count=1914
shrinkage=0.02


Tree=120
num_leaves=2
num_cat=0
split_feature=166
split_gain=13.8917
threshold=1.0000000180025095e-35
decision_type=2
left_child=-1
right_child=-2
leaf_value=-0.0014976303266253635 0.009271728540236451
leaf_count=1658 256
internal_value=0
internal_count=1914
shrinkage=0.02


Tree=121
num_leaves=2
num_cat=0
split_feature=187
split_gain=25.3949
threshold=0.10555555555555557
decision_type=2
left_child=-1
right_child=-2
leaf_value=-0.024709768983845266 0.0010211305683156878
leaf_count=105 1809
internal_value=0
internal_count=1914
shrinkage=0.02


Tree=122
num_leaves=2
num_cat=0
split_feature=115
split_gain=13.8811
threshold=1.0000000180025095e-35
decision_type=2
left_child=-1
right_child=-2
leaf_value=0.0016803762448504311 -0.0082248665759293068
leaf_count=1567 347
internal_value=0
internal_count=1914
shrinkage=0.02


Tree=123
num_leaves=2
num_cat=0
split_feature=184
split_gain=16.2792
threshold=0.41666666666666674
decision_type=2
left_child=-1
right_child=-2
leaf_value=-0.00091374151750857585 0.017851399812682502
leaf_count=1831 83
internal_value=0
internal_count=1914
shrinkage=0.02


Tree=124
num_leaves=2
num_cat=0
split_feature=187
split_gain=25.068
threshold=0.36351351351351346
decision_type=2
left_child=-1
right_child=-2
leaf_value=-0.0032263327817387724 0.0077592983730615421
leaf_count=1380 534
internal_value=0
internal_count=1914
shrinkage=0.02


Tree=125
num_leaves=2
num_cat=0
split_feature=0
split_gain=13.5937
threshold=1.5000000000000002
decision_type=2
left_child=-1
right_child=-2
leaf_value=-0.0028708380058699379 0.0047285617478796515
leaf_count=1216 698
internal_value=0
internal_count=1914
shrinkage=0.02


Tree=126
num_leaves=2
num_cat=0
split_feature=129
split_gain=12.6607
threshold=1.0000000180025095e-35
decision_type=2
left_child=-1
right_child=-2
leaf_value=-0.0016461259213588634 0.007691831640515452
leaf_count=1605 309
internal_value=0
internal_count=1914
shrinkage=0.02


Tree=127
num_leaves=2
num_cat=0
split_feature=184
split_gain=15.9578
threshold=0.15073529411764711
decision_type=2
left_child=-1
right_child=-2
leaf_value=-0.02445692989719736 0.00064753542700437291
leaf_count=60 1854
internal_value=0
internal_count=1914
shrinkage=0.02


Tree=128
num_leaves=2
num_cat=0
split_feature=115
split_gain=13.2989
threshold=1.0000000180025095e-35
decision_type=2
left_child=-1
right_child=-2
leaf_value=0.001641717976287087 -0.0080723783083768222
leaf_count=1567 347
internal_value=0
internal_count=1914
shrinkage=0.02


Tree=129
num_leaves=2
num_cat=0
split_feature=184
split_gain=15.7097
threshold=0.53571428571428581
decision_type=2
left_child=-1
right_child=-2
leaf_value=-0.0006412302050830442 0.02461250728670079
leaf_count=1873 41
internal_value=0
internal_count=1914
shrinkage=0.02


Tree=130
num_leaves=2
num_cat=0
split_feature=53
split_gain=12.7049
threshold=1.0000000180025095e-35
decision_type=2
left_child=-1
right_child=-2
leaf_value=-0.0022414523956621421 0.0056672650755360109
leaf_count=1385 529
internal_value=0
internal_count=1914
shrinkage=0.02


Tree=131
num_leaves=2
num_cat=0
split_feature=184
split_gain=15.5459
threshold=0.15073529411764711
decision_type=2
left_child=-1
right_child=-2
leaf_value=-0.024293346766792331 0.00063543263224386415
leaf_count=60 1854
internal_value=0
internal_count=1914
shrinkage=0.02


Tree=132
num_leaves=2
num_cat=0
split_feature=166
split_gain=13.2333
threshold=1.0000000180025095e-35
decision_type=2
left_child=-1
right_child=-2
leaf_value=-0.0014656147306034389 0.0090397001990157582
leaf_count=1658 256
internal_value=0
internal_count=1914
shrinkage=0.02


Tree=133
num_leaves=2
num_cat=0
split_feature=184
split_gain=15.103
threshold=0.15073529411764711
decision_type=2
left_child=-1
right_child=-2
leaf_value=-0.02411376288669026 0.00062198451455187714
leaf_count=60 1854
internal_value=0
internal_count=1914
shrinkage=0.02


Tree=134
num_leaves=2
num_cat=0
split_feature=187
split_gain=24.4319
threshold=0.10555555555555557
decision_type=2
left_child=-1
right_child=-2
leaf_value=-0.024558626954034834 0.00099029714609048585
leaf_count=105 1809
internal_value=0
internal_count=1914
shrinkage=0.02


Tree=135
num_leaves=2
num_cat=0
split_feature=115
split_gain=12.8333
threshold=1.0000000180025095e-35
decision_type=2
left_child=-1
right_child=-2
leaf_value=0.0016106721864958126 -0.007947367535326157
leaf_count=1567 347
internal_value=0
internal_count=1914
shrinkage=0.02


Tree=136
num_leaves=2
num_cat=0
split_feature=184
split_gain=14.9462
threshold=0.53571428571428581
decision_type=2
left_child=-1
right_child=-2
leaf_value=-0.00062629515235714027 0.023998253610511257
leaf_count=1873 41
internal_value=0
internal_count=1914
shrinkage=0.02


Tree=137
num_leaves=2
num_cat=0
split_feature=187
split_gain=24.1594
threshold=0.31116091438816679
decision_type=2
left_child=-1
right_child=-2
leaf_value=-0.0057908958751181549 0.0041698259838569814
leaf_count=851 1063
internal_value=0
internal_count=1914
shrinkage=0.02


Tree=138
num_leaves=2
num_cat=0
split_feature=187
split_gain=23.7074
threshold=0.10555555555555557
decision_type=2
left_child=-1
right_child=-2
leaf_value=-0.02443005333290851 0.00096671784333952351
leaf_count=105 1809
internal_value=0
internal_count=1914
shrinkage=0.02


Tree=139
num_leaves=2
num_cat=0
split_feature=116
split_gain=14.0649
threshold=1.0000000180025095e-35
decision_type=2
left_child=-1
right_child=-2
leaf_value=0.0021595259051743819 -0.0065066472718579051
leaf_count=1401 513
internal_value=0
internal_count=1914
shrinkage=0.02


Tree=140
num_leaves=2
num_cat=0
split_feature=129
split_gain=11.6827
threshold=1.0000000180025095e-35
decision_type=2
left_child=-1
right_child=-2
leaf_value=-0.0015872414929503891 0.0073776370248633521
leaf_count=1605 309
internal_value=0
internal_count=1914
shrinkage=0.02


Tree=141
num_leaves=2
num_cat=0
split_feature=116
split_gain=13.4798
threshold=1.0000000180025095e-35
decision_type=2
left_child=-1
right_child=-2
leaf_value=0.0021102288947688129 -0.0063838902286481617
leaf_count=1401 513
internal_value=0
internal_count=1914
shrinkage=0.02


Tree=142
num_leaves=2
num_cat=0
split_feature=116
split_gain=12.9728
threshold=1.0000000180025095e-35
decision_type=2
left_child=-1
right_child=-2
leaf_value=0.0020664969938145039 -0.0062747982269470929
leaf_count=1401 513
internal_value=0
internal_count=1914
shrinkage=0.02


Tree=143
num_leaves=2
num_cat=0
split_feature=0
split_gain=12.5126
threshold=1.5000000000000002
decision_type=2
left_child=-1
right_child=-2
leaf_value=-0.0027673194321572807 0.004528359782191683
leaf_count=1216 698
internal_value=0
internal_count=1914
shrinkage=0.02


Tree=144
num_leaves=2
num_cat=0
split_feature=187
split_gain=23.2318
threshold=0.36351351351351346
decision_type=2
left_child=-1
right_child=-2
leaf_value=-0.0031235704086213564 0.0074507537977020703
leaf_count=1380 534
internal_value=0
internal_count=1914
shrinkage=0.02


Tree=145
num_leaves=2
num_cat=0
split_feature=116
split_gain=12.4636
threshold=1.0000000180025095e-35
decision_type=2
left_child=-1
right_child=-2
leaf_value=0.0020221748436166447 -0.0061633080263354357
leaf_count=1401 513
internal_value=0
internal_count=1914
shrinkage=0.02


Tree=146
num_leaves=2
num_cat=0
split_feature=129
split_gain=10.9416
threshold=1.0000000180025095e-35
decision_type=2
left_child=-1
right_child=-2
leaf_value=-0.0015399828607445224 0.0071287341413500587
leaf_count=1605 309
internal_value=0
internal_count=1914
shrinkage=0.02


Tree=147
num_leaves=2
num_cat=0
split_feature=187
split_gain=23.0662
threshold=0.18089430894308947
decision_type=2
left_child=-1
right_child=-2
leaf_value=-0.020882125243434451 0.00110283438810371
leaf_count=133 1781
internal_value=0
internal_count=1914
shrinkage=0.02


Tree=148
num_leaves=2
num_cat=0
split_feature=129
split_gain=10.4856
threshold=1.0000000180025095e-35
decision_type=2
left_child=-1
right_child=-2
leaf_value=-0.0015098634846009112 0.0069713859854020578
leaf_count=1605 309
internal_value=0
internal_count=1914
shrinkage=0.02


Tree=149
num_leaves=2
num_cat=0
split_feature=187
split_gain=22.5543
threshold=0.10555555555555557
decision_type=2
left_child=-1
right_child=-2
leaf_value=-0.024231173319114223 0.00092911043106311026
leaf_count=105 1809
internal_value=0
internal_count=1914
shrinkage=0.02


Tree=150
num_leaves=2
num_cat=0
split_feature=184
split_gain=14.3093
threshold=0.15073529411764711
decision_type=2
left_child=-1
right_child=-2
leaf_value=-0.023877339303930767 0.00059695224630918039
leaf_count=60 1854
internal_value=0
internal_count=1914
shrinkage=0.02


Tree=151
num_leaves=2
num_cat=0
split_feature=187
split_gain=22.1695
threshold=0.31116091438816679
decision_type=2
left_child=-1
right_child=-2
leaf_value=-0.0055815141081265009 0.0039804819963712261
leaf_count=851 1063
internal_value=0
internal_count=1914
shrinkage=0.02


Tree=152
num_leaves=2
num_cat=0
split_feature=166
split_gain=12.485
threshold=1.0000000180025095e-35
decision_type=2
left_child=-1
right_child=-2
leaf_value=-0.0014297312223650394 0.0087753898249185742
leaf_count=1658 256
internal_value=0
internal_count=1914
shrinkage=0.02


Tree=153
num_leaves=2
num_cat=0
split_feature=181
split_gain=9.97688
threshold=7.5000000000000009
decision_type=2
left_child=-1
right_child=-2
leaf_value=0.004390604314472372 -0.0022803946039400779
leaf_count=627 1287
internal_value=0
internal_count=1914
shrinkage=0.02


Tree=154
num_leaves=2
num_cat=0
split_feature=184
split_gain=14.052
threshold=0.41666666666666674
decision_type=2
left_child=-1
right_child=-2
leaf_value=-0.00085447395239621779 0.016560901517143838
leaf_count=1831 83
internal_value=0
internal_count=1914
shrinkage=0.02


Tree=155
num_leaves=2
num_cat=0
split_feature=116
split_gain=12.0495
threshold=1.0000000180025095e-35
decision_type=2
left_child=-1
right_child=-2
leaf_value=0.0019878970098582589 -0.0060722487651923753
leaf_count=1401 513
internal_value=0
internal_count=1914
shrinkage=0.02


Tree=156
num_leaves=2
num_cat=0
split_feature=187
split_gain=21.7559
threshold=0.10555555555555557
decision_type=2
left_child=-1
right_child=-2
leaf_value=-0.024095024382075274 0.00090229412487699188
leaf_count=105 1809
internal_value=0
internal_count=1914
shrinkage=0.02


Tree=157
num_leaves=2
num_cat=0
split_feature=184
split_gain=13.7747
threshold=0.15073529411764711
decision_type=2
left_child=-1
right_child=-2
leaf_value=-0.02367935204861888 0.00058009424935985619
leaf_count=60 1854
internal_value=0
internal_count=1914
shrinkage=0.02


Tree=158
num_leaves=2
num_cat=0
split_feature=187
split_gain=21.1658
threshold=0.10555555555555557
decision_type=2
left_child=-1
right_child=-2
leaf_value=-0.023992903130136824 0.00088173568710003727
leaf_count=105 1809
internal_value=0
internal_count=1914
shrinkage=0.02


Tree=159
num_leaves=2
num_cat=0
split_feature=187
split_gain=21.0273
threshold=0.35164835164835168
decision_type=2
left_child=-1
right_child=-2
leaf_value=-0.0034802998477035754 0.0060680097799648844
leaf_count=1257 657
internal_value=0
internal_count=1914
shrinkage=0.02


Tree=160
num_leaves=2
num_cat=0
split_feature=166
split_gain=11.8754
threshold=1.0000000180025095e-35
decision_type=2
left_child=-1
right_child=-2
leaf_value=-0.0013982500965636605 0.0085468875913986709
leaf_count=1658 256
internal_value=0
internal_count=1914
shrinkage=0.02


Tree=161
num_leaves=2
num_cat=0
split_feature=116
split_gain=11.6907
threshold=1.0000000180025095e-35
decision_type=2
left_child=-1
right_child=-2
leaf_value=0.0019566309827861064 -0.0059918061459316779
leaf_count=1401 513
internal_value=0
internal_count=1914
shrinkage=0.02


Tree=162
num_leaves=2
num_cat=0
split_feature=53
split_gain=11.6823
threshold=1.0000000180025095e-35
decision_type=2
left_child=-1
right_child=-2
leaf_value=-0.0021621643557084608 0.0054320643993557138
leaf_count=1385 529
internal_value=0
internal_count=1914
shrinkage=0.02


Tree=163
num_leaves=2
num_cat=0
split_feature=184
split_gain=13.5119
threshold=0.53571428571428581
decision_type=2
left_child=-1
right_child=-2
leaf_value=-0.00059746648830527756 0.022853050781844544
leaf_count=1873 41
internal_value=0
internal_count=1914
shrinkage=0.02


Tree=164
num_leaves=2
num_cat=0
split_feature=53
split_gain=11.2037
threshold=1.0000000180025095e-35
decision_type=2
left_child=-1
right_child=-2
leaf_value=-0.0021205853696322804 0.0053131924872170336
leaf_count=1385 529
internal_value=0
internal_count=1914
shrinkage=0.02


Tree=165
num_leaves=2
num_cat=0
split_feature=115
split_gain=10.7082
threshold=1.0000000180025095e-35
decision_type=2
left_child=-1
right_child=-2
leaf_value=0.0014624901913204162 -0.007341689651935949
leaf_count=1567 347
internal_value=0
internal_count=1914
shrinkage=0.02


Tree=166
num_leaves=2
num_cat=0
split_feature=187
split_gain=20.6295
threshold=0.19813084112149534
decision_type=2
left_child=-1
right_child=-2
leaf_value=-0.012879766258697229 0.0016063026648871403
leaf_count=266 1648
internal_value=0
internal_count=1914
shrinkage=0.02


Tree=167
num_leaves=2
num_cat=0
split_feature=0
split_gain=11.4887
threshold=1.5000000000000002
decision_type=2
left_child=-1
right_child=-2
leaf_value=-0.0026661261695937995 0.0043334716229357292
leaf_count=1216 698
internal_value=0
internal_count=1914
shrinkage=0.02


Tree=168
num_leaves=2
num_cat=0
split_feature=166
split_gain=11.4688
threshold=1.0000000180025095e-35
decision_type=2
left_child=-1
right_child=-2
leaf_value=-0.0013763727744338595 0.0083945151135349817
leaf_count=1658 256
internal_value=0
internal_count=1914
shrinkage=0.02


Tree=169
num_leaves=2
num_cat=0
split_feature=0
split_gain=11.0099
threshold=1.5000000000000002
decision_type=2
left_child=-1
right_child=-2
leaf_value=-0.0026136013776799061 0.0042371276314407316
leaf_count=1216 698
internal_value=0
internal_count=1914
shrinkage=0.02


Tree=170
num_leaves=2
num_cat=0
split_feature=166
split_gain=10.972
threshold=1.0000000180025095e-35
decision_type=2
left_child=-1
right_child=-2
leaf_value=-0.0013485559333139662 0.0081981543521867269
leaf_count=1658 256
internal_value=0
internal_count=1914
shrinkage=0.02


Tree=171
num_leaves=2
num_cat=0
split_feature=187
split_gain=20.2736
threshold=0.10555555555555557
decision_type=2
left_child=-1
right_child=-2
leaf_value=-0.023839286639633098 0.00085174685078322123
leaf_count=105 1809
internal_value=0
internal_count=1914
shrinkage=0.02


Tree=172
num_leaves=2
num_cat=0
split_feature=116
split_gain=10.7528
threshold=1.0000000180025095e-35
decision_type=2
left_child=-1
right_child=-2
leaf_value=0.0018716677855632996 -0.0057708160854443294
leaf_count=1401 513
internal_value=0
internal_count=1914
shrinkage=0.02


Tree=173
num_leaves=2
num_cat=0
split_feature=116
split_gain=10.347
threshold=1.0000000180025095e-35
decision_type=2
left_child=-1
right_child=-2
leaf_value=0.0018330628889519243 -0.0056709565735232823
leaf_count=1401 513
internal_value=0
internal_count=1914
shrinkage=0.02


Tree=174
num_leaves=2
num_cat=0
split_feature=0
split_gain=10.4567
threshold=1.5000000000000002
decision_type=2
left_child=-1
right_child=-2
leaf_value=-0.0025523603828349183 0.0041242662991035654
leaf_count=1216 698
internal_value=0
internal_count=1914
shrinkage=0.02


Tree=175
num_leaves=2
num_cat=0
split_feature=184
split_gain=13.1514
threshold=0.15073529411764711
decision_type=2
left_child=-1
right_child=-2
leaf_value=-0.023476927666147882 0.00056030179495159969
leaf_count=60 1854
internal_value=0
internal_count=1914
shrinkage=0.02


Tree=176
num_leaves=2
num_cat=0
split_feature=184
split_gain=12.8613
threshold=0.53571428571428581
decision_type=2
left_child=-1
right_child=-2
leaf_value=-0.00058340543218748052 0.022315918254694669
leaf_count=1873 41
internal_value=0
internal_count=1914
shrinkage=0.02


Tree=177
num_leaves=2
num_cat=0
split_feature=187
split_gain=19.9807
threshold=0.35164835164835168
decision_type=2
left_child=-1
right_child=-2
leaf_value=-0.0034058251390829187 0.0059079623372633588
leaf_count=1257 657
internal_value=0
internal_count=1914
shrinkage=0.02


Tree=178
num_leaves=2
num_cat=0
split_feature=129
split_gain=9.20997
threshold=1.0000000180025095e-35
decision_type=2
left_child=-1
right_child=-2
leaf_value=-0.0014235948278709973 0.0065257926707732129
leaf_count=1605 309
internal_value=0
internal_count=1914
shrinkage=0.02


Tree=179
num_leaves=2
num_cat=0
split_feature=166
split_gain=10.4419
threshold=1.0000000180025095e-35
decision_type=2
left_child=-1
right_child=-2
leaf_value=-0.0013186789884330912 0.0079909376868725623
leaf_count=1658 256
internal_value=0
internal_count=1914
shrinkage=0.02


Tree=180
num_leaves=2
num_cat=0
split_feature=129
split_gain=8.81763
threshold=1.0000000180025095e-35
decision_type=2
left_child=-1
right_child=-2
leaf_value=-0.0013946703725063157 0.0063791167807961307
leaf_count=1605 309
internal_value=0
internal_count=1914
shrinkage=0.02


Tree=181
num_leaves=2
num_cat=0
split_feature=53
split_gain=10.4491
threshold=1.0000000180025095e-35
decision_type=2
left_child=-1
right_child=-2
leaf_value=-0.0020553825634593995 0.0051256678370691653
leaf_count=1385 529
internal_value=0
internal_count=1914
shrinkage=0.02


Tree=182
num_leaves=2
num_cat=0
split_feature=184
split_gain=12.7397
threshold=0.15073529411764711
decision_type=2
left_child=-1
right_child=-2
leaf_value=-0.023301326017910299 0.00054756374821197029
leaf_count=60 1854
internal_value=0
internal_count=1914
shrinkage=0.02


Tree=183
num_leaves=2
num_cat=0
split_feature=184
split_gain=12.4018
threshold=0.15073529411764711
decision_type=2
left_child=-1
right_child=-2
leaf_value=-0.023150310611822992 0.00053650419058652132
leaf_count=60 1854
internal_value=0
internal_count=1914
shrinkage=0.02


Tree=184
num_leaves=2
num_cat=0
split_feature=53
split_gain=10.0559
threshold=1.0000000180025095e-35
decision_type=2
left_child=-1
right_child=-2
leaf_value=-0.0020189197865385041 0.0050235020820526667
leaf_count=1385 529
internal_value=0
internal_count=1914
shrinkage=0.02


Tree=185
num_leaves=2
num_cat=0
split_feature=116
split_gain=9.68933
threshold=1.0000000180025095e-35
decision_type=2
left_child=-1
right_child=-2
leaf_value=0.001771145216494327 -0.0055057408797366163
leaf_count=1401 513
internal_value=0
internal_count=1914
shrinkage=0.02


Tree=186
num_leaves=2
num_cat=0
split_feature=187
split_gain=19.5533
threshold=0.10555555555555557
decision_type=2
left_child=-1
right_child=-2
leaf_value=-0.023735123000757575 0.00082716598152027579
leaf_count=105 1809
internal_value=0
internal_count=1914
shrinkage=0.02


Tree=187
num_leaves=2
num_cat=0
split_feature=187
split_gain=19.1153
threshold=0.36351351351351346
decision_type=2
left_child=-1
right_child=-2
leaf_value=-0.0028714675919373541 0.0067154773594932902
leaf_count=1380 534
internal_value=0
internal_count=1914
shrinkage=0.02


Tree=188
num_leaves=2
num_cat=0
split_feature=166
split_gain=10.0131
threshold=1.0000000180025095e-35
decision_type=2
left_child=-1
right_child=-2
leaf_value=-0.0012942622768603996 0.0078174858652124667
leaf_count=1658 256
internal_value=0
internal_count=1914
shrinkage=0.02


Tree=189
num_leaves=2
num_cat=0
split_feature=0
split_gain=9.72477
threshold=1.5000000000000002
decision_type=2
left_child=-1
right_child=-2
leaf_value=-0.0024699688732677909 0.0039722773140575089
leaf_count=1216 698
internal_value=0
internal_count=1914
shrinkage=0.02


Tree=190
num_leaves=2
num_cat=0
split_feature=187
split_gain=19.0004
threshold=0.10555555555555557
decision_type=2
left_child=-1
right_child=-2
leaf_value=-0.023635073966752348 0.00080762858983022981
leaf_count=105 1809
internal_value=0
internal_count=1914
shrinkage=0.02


Tree=191
num_leaves=2
num_cat=0
split_feature=115
split_gain=9.57544
threshold=1.0000000180025095e-35
decision_type=2
left_child=-1
right_child=-2
leaf_value=0.001379151286800406 -0.00699054688666274
leaf_count=1567 347
internal_value=0
internal_count=1914
shrinkage=0.02


Tree=192
num_leaves=2
num_cat=0
split_feature=184
split_gain=12.2661
threshold=0.41666666666666674
decision_type=2
left_child=-1
right_child=-2
leaf_value=-0.00080259954701715746 0.015479613223557065
leaf_count=1831 83
internal_value=0
internal_count=1914
shrinkage=0.02


Tree=193
num_leaves=2
num_cat=0
split_feature=166
split_gain=9.59558
threshold=1.0000000180025095e-35
decision_type=2
left_child=-1
right_child=-2
leaf_value=-0.0012691912744098085 0.0076457663226506536
leaf_count=1658 256
internal_value=0
internal_count=1914
shrinkage=0.02


Tree=194
num_leaves=2
num_cat=0
split_feature=47
split_gain=9.11002
threshold=1.0000000180025095e-35
decision_type=2
left_child=-1
right_child=-2
leaf_value=-0.0022344236245733459 0.0041174926066040642
leaf_count=1264 650
internal_value=0
internal_count=1914
shrinkage=0.02


Tree=195
num_leaves=2
num_cat=0
split_feature=166
split_gain=9.21579
threshold=1.0000000180025095e-35
decision_type=2
left_child=-1
right_child=-2
leaf_value=-0.0012455326205893604 0.0074838386773046816
leaf_count=1658 256
internal_value=0
internal_count=1914
shrinkage=0.02


Tree=196
num_leaves=2
num_cat=0
split_feature=184
split_gain=11.9043
threshold=0.15073529411764711
decision_type=2
left_child=-1
right_child=-2
leaf_value=-0.022967608361502894 0.0005201229533028629
leaf_count=60 1854
internal_value=0
internal_count=1914
shrinkage=0.02


Tree=197
num_leaves=2
num_cat=0
split_feature=187
split_gain=18.5222
threshold=0.24807692307692311
decision_type=2
left_child=-1
right_child=-2
leaf_value=-0.0077769144922984227 0.0024022106352691338
leaf_count=522 1392
internal_value=0
internal_count=1914
shrinkage=0.02


Tree=198
num_leaves=2
num_cat=0
split_feature=187
split_gain=18.3432
threshold=0.10555555555555557
decision_type=2
left_child=-1
right_child=-2
leaf_value=-0.023523859376663219 0.00078436711562671014
leaf_count=105 1809
internal_value=0
internal_count=1914
shrinkage=0.02


Tree=199
num_leaves=2
num_cat=0
split_feature=187
split_gain=17.9078
threshold=0.10555555555555557
decision_type=2
left_child=-1
right_child=-2
leaf_value=-0.02344307284856003 0.00076846287137388952
leaf_count=105 1809
internal_value=0
internal_count=1914
shrinkage=0.02


Tree=200
num_leaves=2
num_cat=0
split_feature=115
split_gain=9.30098
threshold=1.0000000180025095e-35
decision_type=2
left_child=-1
right_child=-2
leaf_value=0.001358839203573807 -0.0069021884618174533
leaf_count=1567 347
internal_value=0
internal_count=1914
shrinkage=0.02


Tree=201
num_leaves=2
num_cat=0
split_feature=47
split_gain=8.66211
threshold=1.0000000180025095e-35
decision_type=2
left_child=-1
right_child=-2
leaf_value=-0.002183662380554157 0.0040111748438777621
leaf_count=1264 650
internal_value=0
internal_count=1914
shrinkage=0.02


Tree=202
num_leaves=2
num_cat=0
split_feature=53
split_gain=9.3286
threshold=1.0000000180025095e-35
decision_type=2
left_child=-1
right_child=-2
leaf_value=-0.0019521677256123973 0.004833901276388634
leaf_count=1385 529
internal_value=0
internal_count=1914
shrinkage=0.02


Tree=203
num_leaves=2
num_cat=0
split_feature=184
split_gain=11.7939
threshold=0.53571428571428581
decision_type=2
left_child=-1
right_child=-2
leaf_value=-0.00055952902226039786 0.021422367980160225
leaf_count=1873 41
internal_value=0
internal_count=1914
shrinkage=0.02


Tree=204
num_leaves=2
num_cat=0
split_feature=115
split_gain=8.80078
threshold=1.0000000180025095e-35
decision_type=2
left_child=-1
right_child=-2
leaf_value=0.0013187441240378856 -0.0067334492578576812
leaf_count=1567 347
internal_value=0
internal_count=1914
shrinkage=0.02


Tree=205
num_leaves=2
num_cat=0
split_feature=187
split_gain=17.9081
threshold=0.36351351351351346
decision_type=2
left_child=-1
right_child=-2
leaf_value=-0.0027924017696378338 0.0064881620814190482
leaf_count=1380 534
internal_value=0
internal_count=1914
shrinkage=0.02


Tree=206
num_leaves=2
num_cat=0
split_feature=187
split_gain=17.4654
threshold=0.10555555555555557
decision_type=2
left_child=-1
right_child=-2
leaf_value=-0.023364933605342562 0.00075289641811446934
leaf_count=105 1809
internal_value=0
internal_count=1914
shrinkage=0.02


Tree=207
num_leaves=2
num_cat=0
split_feature=187
split_gain=17.2825
threshold=0.29285714285714287
decision_type=2
left_child=-1
right_child=-2
leaf_value=-0.0056294935373025837 0.0031038907497392054
leaf_count=751 1163
internal_value=0
internal_count=1914
shrinkage=0.02


Tree=208
num_leaves=2
num_cat=0
split_feature=187
split_gain=16.9561
threshold=0.10555555555555557
decision_type=2
left_child=-1
right_child=-2
leaf_value=-0.023270107694665226 0.00073416616539920721
leaf_count=105 1809
internal_value=0
internal_count=1914
shrinkage=0.02


Tree=209
num_leaves=2
num_cat=0
split_feature=184
split_gain=11.3521
threshold=0.15073529411764711
decision_type=2
left_child=-1
right_child=-2
leaf_value=-0.022795373274938559 0.00050082600662703692
leaf_count=60 1854
internal_value=0
internal_count=1914
shrinkage=0.02


Tree=210
num_leaves=2
num_cat=0
split_feature=187
split_gain=16.6651
threshold=0.35164835164835168
decision_type=2
left_child=-1
right_child=-2
leaf_value=-0.0031459535060525674 0.0053640317659958648
leaf_count=1257 657
internal_value=0
internal_count=1914
shrinkage=0.02


Tree=211
num_leaves=2
num_cat=0
split_feature=184
split_gain=11.3296
threshold=0.58571428571428574
decision_type=2
left_child=-1
right_child=-2
leaf_value=-0.00050563863945910479 0.022826399243547631
leaf_count=1879 35
internal_value=0
internal_count=1914
shrinkage=0.02


Tree=212
num_leaves=2
num_cat=0
split_feature=0
split_gain=9.00556
threshold=1.5000000000000002
decision_type=2
left_child=-1
right_child=-2
leaf_value=-0.0023888972879713513 0.0038190602355333632
leaf_count=1216 698
internal_value=0
internal_count=1914
shrinkage=0.02


Tree=213
num_leaves=2
num_cat=0
split_feature=116
split_gain=8.52449
threshold=1.0000000180025095e-35
decision_type=2
left_child=-1
right_child=-2
leaf_value=0.0016581705604379576 -0.0051994531250188457
leaf_count=1401 513
internal_value=0
internal_count=1914
shrinkage=0.02


Tree=214
num_leaves=2
num_cat=0
split_feature=47
split_gain=8.0799
threshold=1.0000000180025095e-35
decision_type=2
left_child=-1
right_child=-2
leaf_value=-0.0021159698421706909 0.0038703186287085342
leaf_count=1264 650
internal_value=0
internal_count=1914
shrinkage=0.02


Tree=215
num_leaves=2
num_cat=0
split_feature=187
split_gain=16.4543
threshold=0.10555555555555557
decision_type=2
left_child=-1
right_child=-2
leaf_value=-0.023186311611929123 0.00071586881062716287
leaf_count=105 1809
internal_value=0
internal_count=1914
shrinkage=0.02


Tree=216
num_leaves=2
num_cat=0
split_feature=53
split_gain=8.76557
threshold=1.0000000180025095e-35
decision_type=2
left_child=-1
right_child=-2
leaf_value=-0.001898290798016697 0.0046832879250584634
leaf_count=1385 529
internal_value=0
internal_count=1914
shrinkage=0.02


Tree=217
num_leaves=2
num_cat=0
split_feature=187
split_gain=16.0794
threshold=0.36351351351351346
decision_type=2
left_child=-1
right_child=-2
leaf_value=-0.0026614602999161978 0.0061260569818418877
leaf_count=1380 534
internal_value=0
internal_count=1914
shrinkage=0.02


Tree=218
num_leaves=2
num_cat=0
split_feature=184
split_gain=10.9994
threshold=0.41666666666666674
decision_type=2
left_child=-1
right_child=-2
leaf_value=-0.00076276087514663238 0.01467183760181856
leaf_count=1831 83
internal_value=0
internal_count=1914
shrinkage=0.02


Tree=219
num_leaves=2
num_cat=0
split_feature=184
split_gain=10.9549
threshold=0.15073529411764711
decision_type=2
left_child=-1
right_child=-2
leaf_value=-0.022632627702330679 0.00048769060162305182
leaf_count=60 1854
internal_value=0
internal_count=1914
shrinkage=0.02


Tree=220
num_leaves=2
num_cat=0
split_feature=166
split_gain=8.72792
threshold=1.0000000180025095e-35
decision_type=2
left_child=-1
right_child=-2
leaf_value=-0.0012168939670938711 0.0072867876469764892
leaf_count=1658 256
internal_value=0
internal_count=1914
shrinkage=0.02


Tree=221
num_leaves=2
num_cat=0
split_feature=47
split_gain=7.66478
threshold=1.0000000180025095e-35
decision_type=2
left_child=-1
right_child=-2
leaf_value=-0.0020648866005153668 0.0037661971540607713
leaf_count=1264 650
internal_value=0
internal_count=1914
shrinkage=0.02


Tree=222
num_leaves=2
num_cat=0
split_feature=0
split_gain=8.50132
threshold=1.5000000000000002
decision_type=2
left_child=-1
right_child=-2
leaf_value=-0.0023266522011474383 0.0037068851380238892
leaf_count=1216 698
internal_value=0
internal_count=1914
shrinkage=0.02


Tree=223
num_leaves=2
num_cat=0
split_feature=53
split_gain=8.3308
threshold=1.0000000180025095e-35
decision_type=2
left_child=-1
right_child=-2
leaf_value=-0.0018539535803307181 0.0045613872017517066
leaf_count=1385 529
internal_value=0
internal_count=1914
shrinkage=0.02


Tree=224
num_leaves=2
num_cat=0
split_feature=166
split_gain=8.40493
threshold=1.0000000180025095e-35
decision_type=2
left_child=-1
right_child=-2
leaf_value=-0.0011957026156311275 0.007143868253990833
leaf_count=1658 256
internal_value=0
internal_count=1914
shrinkage=0.02


Tree=225
num_leaves=2
num_cat=0
split_feature=115
split_gain=8.21278
threshold=1.0000000180025095e-35
decision_type=2
left_child=-1
right_child=-2
leaf_value=0.001273009866209417 -0.0065319791887834579
leaf_count=1567 347
internal_value=0
internal_count=1914
shrinkage=0.02


Tree=226
num_leaves=2
num_cat=0
split_feature=184
split_gain=10.6377
threshold=0.15073529411764711
decision_type=2
left_child=-1
right_child=-2
leaf_value=-0.022480794442432131 0.00047723338669017492
leaf_count=60 1854
internal_value=0
internal_count=1914
shrinkage=0.02


Tree=227
num_leaves=2
num_cat=0
split_feature=0
split_gain=8.05313
threshold=1.5000000000000002
decision_type=2
left_child=-1
right_child=-2
leaf_value=-0.0022684146987752745 0.0036036944520367294
leaf_count=1216 698
internal_value=0
internal_count=1914
shrinkage=0.02


Tree=228
num_leaves=2
num_cat=0
split_feature=0
split_gain=7.73154
threshold=1.5000000000000002
decision_type=2
left_child=-1
right_child=-2
leaf_value=-0.0022250673646990685 0.0035276148129101065
leaf_count=1216 698
internal_value=0
internal_count=1914
shrinkage=0.02


Tree=229
num_leaves=2
num_cat=0
split_feature=184
split_gain=10.6252
threshold=0.58571428571428574
decision_type=2
left_child=-1
right_child=-2
leaf_value=-0.00048955542808649488 0.022151229324587577
leaf_count=1879 35
internal_value=0
internal_count=1914
shrinkage=0.02


Tree=230
num_leaves=2
num_cat=0
split_feature=184
split_gain=10.3196
threshold=0.15073529411764711
decision_type=2
left_child=-1
right_child=-2
leaf_value=-0.022325706370739901 0.00046649065033731125
leaf_count=60 1854
internal_value=0
internal_count=1914
shrinkage=0.02


Tree=231
num_leaves=2
num_cat=0
split_feature=116
split_gain=7.6869
threshold=1.0000000180025095e-35
decision_type=2
left_child=-1
right_child=-2
leaf_value=0.0015711234346510229 -0.0049609839792626531
leaf_count=1401 513
internal_value=0
internal_count=1914
shrinkage=0.02


Tree=232
num_leaves=2
num_cat=0
split_feature=187
split_gain=15.8867
threshold=0.10555555555555557
decision_type=2
left_child=-1
right_child=-2
leaf_value=-0.023108374305845693 0.00069539763035974536
leaf_count=105 1809
internal_value=0
internal_count=1914
shrinkage=0.02


Tree=233
num_leaves=2
num_cat=0
split_feature=53
split_gain=7.84707
threshold=1.0000000180025095e-35
decision_type=2
left_child=-1
right_child=-2
leaf_value=-0.0018035547194136365 0.0044230658077132855
leaf_count=1385 529
internal_value=0
internal_count=1914
shrinkage=0.02


Tree=234
num_leaves=2
num_cat=0
split_feature=184
split_gain=10.2212
threshold=0.41666666666666674
decision_type=2
left_child=-1
right_child=-2
leaf_value=-0.00073651795430949754 0.014146845136190999
leaf_count=1831 83
internal_value=0
internal_count=1914
shrinkage=0.02


Tree=235
num_leaves=2
num_cat=0
split_feature=184
split_gain=10.0219
threshold=0.15073529411764711
decision_type=2
left_child=-1
right_child=-2
leaf_value=-0.022193591169863067 0.0004560878583795978
leaf_count=60 1854
internal_value=0
internal_count=1914
shrinkage=0.02


Tree=236
num_leaves=2
num_cat=0
split_feature=184
split_gain=9.92725
threshold=0.58571428571428574
decision_type=2
left_child=-1
right_child=-2
leaf_value=-0.00047300842062265489 0.021446684634357498
leaf_count=1879 35
internal_value=0
internal_count=1914
shrinkage=0.02


Tree=237
num_leaves=2
num_cat=0
split_feature=184
split_gain=9.75529
threshold=0.15073529411764711
decision_type=2
left_child=-1
right_child=-2
leaf_value=-0.022056656591733455 0.0004468583438509416
leaf_count=60 1854
internal_value=0
internal_count=1914
shrinkage=0.02


Tree=238
num_leaves=2
num_cat=0
split_feature=184
split_gain=9.5701
threshold=0.53571428571428581
decision_type=2
left_child=-1
right_child=-2
leaf_value=-0.00050397099172295426 0.019402157709141412
leaf_count=1873 41
internal_value=0
internal_count=1914
shrinkage=0.02


Tree=239
num_leaves=2
num_cat=0
split_feature=181
split_gain=7.68202
threshold=7.5000000000000009
decision_type=2
left_child=-1
right_child=-2
leaf_value=0.0038474303385700186 -0.0020311550509695803
leaf_count=627 1287
internal_value=0
internal_count=1914
shrinkage=0.02


Tree=240
num_leaves=2
num_cat=0
split_feature=184
split_gain=9.48456
threshold=0.15073529411764711
decision_type=2
left_child=-1
right_child=-2
leaf_value=-0.021917449547392071 0.00043743525231266736
leaf_count=60 1854
internal_value=0
internal_count=1914
shrinkage=0.02


Tree=241
num_leaves=2
num_cat=0
split_feature=47
split_gain=6.98752
threshold=1.0000000180025095e-35
decision_type=2
left_child=-1
right_child=-2
leaf_value=-0.0019792720639833124 0.0035920663830052101
leaf_count=1264 650
internal_value=0
internal_count=1914
shrinkage=0.02


Tree=242
num_leaves=2
num_cat=0
split_feature=166
split_gain=7.93599
threshold=1.0000000180025095e-35
decision_type=2
left_child=-1
right_child=-2
leaf_value=-0.0011646917883284319 0.006942225040880776
leaf_count=1658 256
internal_value=0
internal_count=1914
shrinkage=0.02


Tree=243
num_leaves=2
num_cat=0
split_feature=166
split_gain=7.60947
threshold=1.0000000180025095e-35
decision_type=2
left_child=-1
right_child=-2
leaf_value=-0.001141904185711176 0.0067902259805642786
leaf_count=1658 256
internal_value=0
internal_count=1914
shrinkage=0.02


Tree=244
num_leaves=2
num_cat=0
split_feature=184
split_gain=9.23809
threshold=0.41666666666666674
decision_type=2
left_child=-1
right_child=-2
leaf_value=-0.00070058995125387119 0.013458660843829143
leaf_count=1831 83
internal_value=0
internal_count=1914
shrinkage=0.02


Tree=245
num_leaves=2
num_cat=0
split_feature=187
split_gain=15.3692
threshold=0.10555555555555557
decision_type=2
left_child=-1
right_child=-2
leaf_value=-0.023037230144106399 0.00067632242353998675
leaf_count=105 1809
internal_value=0
internal_count=1914
shrinkage=0.02


Tree=246
num_leaves=2
num_cat=0
split_feature=115
split_gain=7.68239
threshold=1.0000000180025095e-35
decision_type=2
left_child=-1
right_child=-2
leaf_value=0.0012309335325932911 -0.0063405703685468894
leaf_count=1567 347
internal_value=0
internal_count=1914
shrinkage=0.02


Tree=247
num_leaves=2
num_cat=0
split_feature=187
split_gain=15.1831
threshold=0.35164835164835168
decision_type=2
left_child=-1
right_child=-2
leaf_value=-0.0030238516151443089 0.0051122344212690607
leaf_count=1257 657
internal_value=0
internal_count=1914
shrinkage=0.02


Tree=248
num_leaves=2
num_cat=0
split_feature=184
split_gain=9.1698
threshold=0.15073529411764711
decision_type=2
left_child=-1
right_child=-2
leaf_value=-0.021769033295252396 0.00042632107520603336
leaf_count=60 1854
internal_value=0
internal_count=1914
shrinkage=0.02


Tree=249
num_leaves=2
num_cat=0
split_feature=184
split_gain=8.93222
threshold=0.15073529411764711
decision_type=2
left_child=-1
right_child=-2
leaf_value=-0.02164065285183939 0.0004177305479958303
leaf_count=60 1854
internal_value=0
internal_count=1914
shrinkage=0.02


Tree=250
num_leaves=2
num_cat=0
split_feature=187
split_gain=14.924
threshold=0.10555555555555557
decision_type=2
left_child=-1
right_child=-2
leaf_value=-0.02296431777042194 0.00065925196069352161
leaf_count=105 1809
internal_value=0
internal_count=1914
shrinkage=0.02


Tree=251
num_leaves=2
num_cat=0
split_feature=184
split_gain=8.9157
threshold=0.58571428571428574
decision_type=2
left_child=-1
right_child=-2
leaf_value=-0.00044759437718399123 0.020404537153680326
leaf_count=1879 35
internal_value=0
internal_count=1914
shrinkage=0.02


Tree=252
num_leaves=2
num_cat=0
split_feature=181
split_gain=7.10401
threshold=7.5000000000000009
decision_type=2
left_child=-1
right_child=-2
leaf_value=0.0036954972454699654 -0.0019595345272846398
leaf_count=627 1287
internal_value=0
internal_count=1914
shrinkage=0.02


Tree=253
num_leaves=2
num_cat=0
split_feature=166
split_gain=7.22723
threshold=1.0000000180025095e-35
decision_type=2
left_child=-1
right_child=-2
leaf_value=-0.001115304872775534 0.0066145191553835369
leaf_count=1658 256
internal_value=0
internal_count=1914
shrinkage=0.02


Tree=254
num_leaves=2
num_cat=0
split_feature=187
split_gain=14.5442
threshold=0.10555555555555557
decision_type=2
left_child=-1
right_child=-2
leaf_value=-0.022894393665301136 0.0006448675668164419
leaf_count=105 1809
internal_value=0
internal_count=1914
shrinkage=0.02


Tree=255
num_leaves=2
num_cat=0
split_feature=0
split_gain=7.23204
threshold=1.5000000000000002
decision_type=2
left_child=-1
right_child=-2
leaf_value=-0.0021626155014574581 0.0034097499027501321
leaf_count=1216 698
internal_value=0
internal_count=1914
shrinkage=0.02


Tree=256
num_leaves=2
num_cat=0
split_feature=187
split_gain=14.3755
threshold=0.24807692307692311
decision_type=2
left_child=-1
right_child=-2
leaf_value=-0.0070164673678069691 0.002086596843856715
leaf_count=522 1392
internal_value=0
internal_count=1914
shrinkage=0.02


Tree=257
num_leaves=2
num_cat=0
split_feature=115
split_gain=7.55946
threshold=1.0000000180025095e-35
decision_type=2
left_child=-1
right_child=-2
leaf_value=0.0012220078907299861 -0.0062966246462532963
leaf_count=1567 347
internal_value=0
internal_count=1914
shrinkage=0.02


Tree=258
num_leaves=2
num_cat=0
split_feature=187
split_gain=14.1098
threshold=0.10555555555555557
decision_type=2
left_child=-1
right_child=-2
leaf_value=-0.022812613468946728 0.00062825069130249204
leaf_count=105 1809
internal_value=0
internal_count=1914
shrinkage=0.02


Tree=259
num_leaves=2
num_cat=0
split_feature=184
split_gain=8.59554
threshold=0.38750000000000007
decision_type=2
left_child=-1
right_child=-2
leaf_value=-0.00070740179749609583 0.012436830795634511
leaf_count=1823 91
internal_value=0
internal_count=1914
shrinkage=0.02


Tree=260
num_leaves=2
num_cat=0
split_feature=115
split_gain=7.27871
threshold=1.0000000180025095e-35
decision_type=2
left_child=-1
right_child=-2
leaf_value=0.0011975540038376778 -0.0061900903963762171
leaf_count=1567 347
internal_value=0
internal_count=1914
shrinkage=0.02


Tree=261
num_leaves=2
num_cat=0
split_feature=187
split_gain=14.003
threshold=0.35164835164835168
decision_type=2
left_child=-1
right_child=-2
leaf_value=-0.002917863266785975 0.0048984807033372471
leaf_count=1257 657
internal_value=0
internal_count=1914
shrinkage=0.02


Tree=262
num_leaves=2
num_cat=0
split_feature=184
split_gain=8.55636
threshold=0.15073529411764711
decision_type=2
left_child=-1
right_child=-2
leaf_value=-0.02148680147320866 0.00040391751854060466
leaf_count=60 1854
internal_value=0
internal_count=1914
shrinkage=0.02


Tree=263
num_leaves=2
num_cat=0
split_feature=184
split_gain=8.36798
threshold=0.58571428571428574
decision_type=2
left_child=-1
right_child=-2
leaf_value=-0.00043317437560460529 0.019831108049281444
leaf_count=1879 35
internal_value=0
internal_count=1914
shrinkage=0.02


Tree=264
num_leaves=2
num_cat=0
split_feature=115
split_gain=7.02861
threshold=1.0000000180025095e-35
decision_type=2
left_child=-1
right_child=-2
leaf_value=0.0011755672427624494 -0.0060935191828879656
leaf_count=1567 347
internal_value=0
internal_count=1914
shrinkage=0.02


Tree=265
num_leaves=2
num_cat=0
split_feature=184
split_gain=8.34035
threshold=0.15073529411764711
decision_type=2
left_child=-1
right_child=-2
leaf_value=-0.021364912094530376 0.00039618257769591701
leaf_count=60 1854
internal_value=0
internal_count=1914
shrinkage=0.02


Tree=266
num_leaves=2
num_cat=0
split_feature=184
split_gain=8.12512
threshold=0.15073529411764711
decision_type=2
left_child=-1
right_child=-2
leaf_value=-0.021240859994400427 0.00038820386775522022
leaf_count=60 1854
internal_value=0
internal_count=1914
shrinkage=0.02


Tree=267
num_leaves=2
num_cat=0
split_feature=143
split_gain=5.52407
threshold=1.0000000180025095e-35
decision_type=2
left_child=-1
right_child=-2
leaf_value=-0.00028029491167283466 0.020304989773299927
leaf_count=1890 24
internal_value=0
internal_count=1914
shrinkage=0.02


Tree=268
num_leaves=2
num_cat=0
split_feature=129
split_gain=6.69808
threshold=1.0000000180025095e-35
decision_type=2
left_child=-1
right_child=-2
leaf_value=-0.0012316764271664046 0.0055628236593272167
leaf_count=1605 309
internal_value=0
internal_count=1914
shrinkage=0.02


Tree=269
num_leaves=2
num_cat=0
split_feature=150
split_gain=7.1503
threshold=1.0000000180025095e-35
decision_type=2
left_child=-1
right_child=-2
leaf_value=-0.00034941862483699892 0.021046671149972371
leaf_count=1883 31
internal_value=0
internal_count=1914
shrinkage=0.02


Tree=270
num_leaves=2
num_cat=0
split_feature=0
split_gain=6.82084
threshold=1.5000000000000002
decision_type=2
left_child=-1
right_child=-2
leaf_value=-0.0021063571796524102 0.0033092727092474817
leaf_count=1216 698
internal_value=0
internal_count=1914
shrinkage=0.02


Tree=271
num_leaves=2
num_cat=0
split_feature=184
split_gain=8.03066
threshold=0.58571428571428574
decision_type=2
left_child=-1
right_child=-2
leaf_value=-0.00042386467099153271 0.019462565587046569
leaf_count=1879 35
internal_value=0
internal_count=1914
shrinkage=0.02


Tree=272
num_leaves=2
num_cat=0
split_feature=166
split_gain=6.86009
threshold=1.0000000180025095e-35
decision_type=2
left_child=-1
right_child=-2
leaf_value=-0.0010891445198781379 0.0064476430905632464
leaf_count=1658 256
internal_value=0
internal_count=1914
shrinkage=0.02


Tree=273
num_leaves=2
num_cat=0
split_feature=184
split_gain=7.90063
threshold=0.15073529411764711
decision_type=2
left_child=-1
right_child=-2
leaf_value=-0.021116078377880595 0.00038013005885862144
leaf_count=60 1854
internal_value=0
internal_count=1914
shrinkage=0.02


Tree=274
num_leaves=2
num_cat=0
split_feature=187
split_gain=13.6454
threshold=0.10555555555555557
decision_type=2
left_child=-1
right_child=-2
leaf_value=-0.022753536090123753 0.0006107206570165857
leaf_count=105 1809
internal_value=0
internal_count=1914
shrinkage=0.02


Tree=275
num_leaves=2
num_cat=0
split_feature=53
split_gain=7.49197
threshold=1.0000000180025095e-35
decision_type=2
left_child=-1
right_child=-2
leaf_value=-0.0017698236330202367 0.0043311336567167886
leaf_count=1385 529
internal_value=0
internal_count=1914
shrinkage=0.02


Tree=276
num_leaves=2
num_cat=0
split_feature=184
split_gain=7.75845
threshold=0.41666666666666674
decision_type=2
left_child=-1
right_child=-2
leaf_value=-0.00064372422469588476 0.012365232539247912
leaf_count=1831 83
internal_value=0
internal_count=1914
shrinkage=0.02


Tree=277
num_leaves=2
num_cat=0
split_feature=47
split_gain=6.39421
threshold=1.0000000180025095e-35
decision_type=2
left_child=-1
right_child=-2
leaf_value=-0.0019037963586690768 0.0034365554131955624
leaf_count=1264 650
internal_value=0
internal_count=1914
shrinkage=0.02


Tree=278
num_leaves=2
num_cat=0
split_feature=52
split_gain=6.79807
threshold=1.0000000180025095e-35
decision_type=2
left_child=-1
right_child=-2
leaf_value=-0.0024137141809147029 0.0028808881497527947
leaf_count=1062 852
internal_value=0
internal_count=1914
shrinkage=0.02


Tree=279
num_leaves=2
num_cat=0
split_feature=184
split_gain=7.67068
threshold=0.15073529411764711
decision_type=2
left_child=-1
right_child=-2
leaf_value=-0.020989366511146509 0.00037157994027747521
leaf_count=60 1854
internal_value=0
internal_count=1914
shrinkage=0.02


Tree=280
num_leaves=2
num_cat=0
split_feature=166
split_gain=6.60123
threshold=1.0000000180025095e-35
decision_type=2
left_child=-1
right_child=-2
leaf_value=-0.001070090826164719 0.0063212055373741494
leaf_count=1658 256
internal_value=0
internal_count=1914
shrinkage=0.02


Tree=281
num_leaves=2
num_cat=0
split_feature=184
split_gain=7.5132
threshold=0.58571428571428574
decision_type=2
left_child=-1
right_child=-2
leaf_value=-0.00040923318984778019 0.018882139118913763
leaf_count=1879 35
internal_value=0
internal_count=1914
shrinkage=0.02


Tree=282
num_leaves=2
num_cat=0
split_feature=187
split_gain=13.3846
threshold=0.36351351351351346
decision_type=2
left_child=-1
right_child=-2
leaf_value=-0.0024594298361515234 0.0055713003195756155
leaf_count=1380 534
internal_value=0
internal_count=1914
shrinkage=0.02


Tree=283
num_leaves=2
num_cat=0
split_feature=166
split_gain=6.29868
threshold=1.0000000180025095e-35
decision_type=2
left_child=-1
right_child=-2
leaf_value=-0.0010465419987641296 0.0061701961579101747
leaf_count=1658 256
internal_value=0
internal_count=1914
shrinkage=0.02


Tree=284
num_leaves=2
num_cat=0
split_feature=181
split_gain=6.28762
threshold=7.5000000000000009
decision_type=2
left_child=-1
right_child=-2
leaf_value=0.003474950193616563 -0.0018529986834103199
leaf_count=627 1287
internal_value=0
internal_count=1914
shrinkage=0.02


Tree=285
num_leaves=2
num_cat=0
split_feature=52
split_gain=6.63778
threshold=1.0000000180025095e-35
decision_type=2
left_child=-1
right_child=-2
leaf_value=-0.0023875741234489789 0.0028462641620260066
leaf_count=1062 852
internal_value=0
internal_count=1914
shrinkage=0.02


Tree=286
num_leaves=2
num_cat=0
split_feature=53
split_gain=7.07284
threshold=1.0000000180025095e-35
decision_type=2
left_child=-1
right_child=-2
leaf_value=-0.0017232386316986432 0.004204677515493205
leaf_count=1385 529
internal_value=0
internal_count=1914
shrinkage=0.02


Tree=287
num_leaves=2
num_cat=0
split_feature=187
split_gain=13.2562
threshold=0.10555555555555557
decision_type=2
left_child=-1
right_child=-2
leaf_value=-0.022690393043796133 0.00059609028328656171
leaf_count=105 1809
internal_value=0
internal_count=1914
shrinkage=0.02


Tree=288
num_leaves=2
num_cat=0
split_feature=150
split_gain=6.83774
threshold=1.0000000180025095e-35
decision_type=2
left_child=-1
right_child=-2
leaf_value=-0.00034335198417961773 0.020519667793025928
leaf_count=1883 31
internal_value=0
internal_count=1914
shrinkage=0.02


Tree=289
num_leaves=2
num_cat=0
split_feature=184
split_gain=7.41727
threshold=0.15073529411764711
decision_type=2
left_child=-1
right_child=-2
leaf_value=-0.020849835562678529 0.00036220719774898968
leaf_count=60 1854
internal_value=0
internal_count=1914
shrinkage=0.02


Tree=290
num_leaves=2
num_cat=0
split_feature=184
split_gain=7.25138
threshold=0.53571428571428581
decision_type=2
left_child=-1
right_child=-2
leaf_value=-0.0004367441993301955 0.017085997331881288
leaf_count=1873 41
internal_value=0
internal_count=1914
shrinkage=0.02


Tree=291
num_leaves=2
num_cat=0
split_feature=184
split_gain=7.22283
threshold=0.15073529411764711
decision_type=2
left_child=-1
right_child=-2
leaf_value=-0.020728427900313515 0.00035490075279932527
leaf_count=60 1854
internal_value=0
internal_count=1914
shrinkage=0.02


Tree=292
num_leaves=2
num_cat=0
split_feature=184
split_gain=7.03747
threshold=0.15073529411764711
decision_type=2
left_child=-1
right_child=-2
leaf_value=-0.020610705294445832 0.00034775888772377718
leaf_count=60 1854
internal_value=0
internal_count=1914
shrinkage=0.02


Tree=293
num_leaves=2
num_cat=0
split_feature=184
split_gain=7.02203
threshold=0.38750000000000007
decision_type=2
left_child=-1
right_child=-2
leaf_value=-0.00064046518175391455 0.011268975071841556
leaf_count=1823 91
internal_value=0
internal_count=1914
shrinkage=0.02


Tree=294
num_leaves=2
num_cat=0
split_feature=184
split_gain=6.85154
threshold=0.15073529411764711
decision_type=2
left_child=-1
right_child=-2
leaf_value=-0.020490482275510816 0.00034064842121659105
leaf_count=60 1854
internal_value=0
internal_count=1914
shrinkage=0.02


Tree=295
num_leaves=2
num_cat=0
split_feature=0
split_gain=6.4013
threshold=6.5000000000000009
decision_type=2
left_child=-1
right_child=-2
leaf_value=0.00069665730259321713 -0.0093920005237697491
leaf_count=1789 125
internal_value=0
internal_count=1914
shrinkage=0.02


Tree=296
num_leaves=2
num_cat=0
split_feature=116
split_gain=6.30006
threshold=1.0000000180025095e-35
decision_type=2
left_child=-1
right_child=-2
leaf_value=0.0014227235181376644 -0.0045340488145188115
leaf_count=1401 513
internal_value=0
internal_count=1914
shrinkage=0.02


Tree=297
num_leaves=2
num_cat=0
split_feature=187
split_gain=12.8811
threshold=0.10555555555555557
decision_type=2
left_child=-1
right_child=-2
leaf_value=-0.022641288933676233 0.00058122159872360188
leaf_count=105 1809
internal_value=0
internal_count=1914
shrinkage=0.02


Tree=298
num_leaves=2
num_cat=0
split_feature=187
split_gain=12.6635
threshold=0.24807692307692311
decision_type=2
left_child=-1
right_child=-2
leaf_value=-0.0066648556190253014 0.0019467438001053755
leaf_count=522 1392
internal_value=0
internal_count=1914
shrinkage=0.02


Tree=299
num_leaves=2
num_cat=0
split_feature=150
split_gain=6.49282
threshold=1.0000000180025095e-35
decision_type=2
left_child=-1
right_child=-2
leaf_value=-0.00033636434185402476 0.019920949088874658
leaf_count=1883 31
internal_value=0
internal_count=1914
shrinkage=0.02


Tree=300
num_leaves=2
num_cat=0
split_feature=184
split_gain=6.80434
threshold=0.58571428571428574
decision_type=2
left_child=-1
right_child=-2
leaf_value=-0.00038843704593781621 0.018061675033513847
leaf_count=1879 35
internal_value=0
internal_count=1914
shrinkage=0.02


Tree=301
num_leaves=2
num_cat=0
split_feature=10
split_gain=6.22134
threshold=1.0000000180025095e-35
decision_type=2
left_child=-1
right_child=-2
leaf_value=0.00038426279261845445 -0.016522770284501512
leaf_count=1870 44
internal_value=0
internal_count=1914
shrinkage=0.02


Tree=302
num_leaves=2
num_cat=0
split_feature=98
split_gain=5.44736
threshold=1.0000000180025095e-35
decision_type=2
left_child=-1
right_child=-2
leaf_value=0.00053421289679282744 -0.010422959644390011
leaf_count=1824 90
internal_value=0
internal_count=1914
shrinkage=0.02


Tree=303
num_leaves=2
num_cat=0
split_feature=187
split_gain=12.5007
threshold=0.10555555555555557
decision_type=2
left_child=-1
right_child=-2
leaf_value=-0.022568633137069406 0.00056624844197075632
leaf_count=105 1809
internal_value=0
internal_count=1914
shrinkage=0.02


Tree=304
num_leaves=2
num_cat=0
split_feature=129
split_gain=6.05448
threshold=1.0000000180025095e-35
decision_type=2
left_child=-1
right_child=-2
leaf_value=-0.0011755797169417793 0.0052917174182899119
leaf_count=1605 309
internal_value=0
internal_count=1914
shrinkage=0.02


Tree=305
num_leaves=2
num_cat=0
split_feature=184
split_gain=6.62104
threshold=0.15073529411764711
decision_type=2
left_child=-1
right_child=-2
leaf_value=-0.020365611829439762 0.00033164016209895531
leaf_count=60 1854
internal_value=0
internal_count=1914
shrinkage=0.02


Tree=306
num_leaves=2
num_cat=0
split_feature=0
split_gain=6.40447
threshold=1.5000000000000002
decision_type=2
left_child=-1
right_child=-2
leaf_value=-0.0020508992627266474 0.0032062786829304335
leaf_count=1216 698
internal_value=0
internal_count=1914
shrinkage=0.02


Tree=307
num_leaves=2
num_cat=0
split_feature=53
split_gain=6.76476
threshold=1.0000000180025095e-35
decision_type=2
left_child=-1
right_child=-2
leaf_value=-0.001688921608032653 0.0041144108882460598
leaf_count=1385 529
internal_value=0
internal_count=1914
shrinkage=0.02


Tree=308
num_leaves=2
num_cat=0
split_feature=115
split_gain=6.42957
threshold=1.0000000180025095e-35
decision_type=2
left_child=-1
right_child=-2
leaf_value=0.0011254559176148995 -0.0058563723773489484
leaf_count=1567 347
internal_value=0
internal_count=1914
shrinkage=0.02


Tree=309
num_leaves=2
num_cat=0
split_feature=53
split_gain=6.44605
threshold=1.0000000180025095e-35
decision_type=2
left_child=-1
right_child=-2
leaf_value=-0.0016507884166494652 0.0040121985924039053
leaf_count=1385 529
internal_value=0
internal_count=1914
shrinkage=0.02


Tree=310
num_leaves=2
num_cat=0
split_feature=184
split_gain=6.53645
threshold=0.58571428571428574
decision_type=2
left_child=-1
right_child=-2
leaf_value=-0.0003802588268118782 0.017741727197824932
leaf_count=1879 35
internal_value=0
internal_count=1914
shrinkage=0.02


Tree=311
num_leaves=2
num_cat=0
split_feature=150
split_gain=6.22966
threshold=1.0000000180025095e-35
decision_type=2
left_child=-1
right_child=-2
leaf_value=-0.00033071953933115839 0.019458369367001752
leaf_count=1883 31
internal_value=0
internal_count=1914
shrinkage=0.02


Tree=312
num_leaves=2
num_cat=0
split_feature=184
split_gain=6.45363
threshold=0.15073529411764711
decision_type=2
left_child=-1
right_child=-2
leaf_value=-0.020255062874055364 0.00032536411666011773
leaf_count=60 1854
internal_value=0
internal_count=1914
shrinkage=0.02


Tree=313
num_leaves=2
num_cat=0
split_feature=53
split_gain=6.18952
threshold=1.0000000180025095e-35
decision_type=2
left_child=-1
right_child=-2
leaf_value=-0.0016193066657778838 0.0039290365863953536
leaf_count=1385 529
internal_value=0
internal_count=1914
shrinkage=0.02


Tree=314
num_leaves=2
num_cat=0
split_feature=187
split_gain=12.4284
threshold=0.35164835164835168
decision_type=2
left_child=-1
right_child=-2
leaf_value=-0.0027727543272552287 0.0046059758488508143
leaf_count=1257 657
internal_value=0
internal_count=1914
shrinkage=0.02


Tree=315
num_leaves=2
num_cat=0
split_feature=187
split_gain=12.1557
threshold=0.10555555555555557
decision_type=2
left_child=-1
right_child=-2
leaf_value=-0.022515931646719087 0.00055286077236901755
leaf_count=105 1809
internal_value=0
internal_count=1914
shrinkage=0.02


Tree=316
num_leaves=2
num_cat=0
split_feature=115
split_gain=6.13245
threshold=1.0000000180025095e-35
decision_type=2
left_child=-1
right_child=-2
leaf_value=0.0010978617026020214 -0.0057325048435617936
leaf_count=1567 347
internal_value=0
internal_count=1914
shrinkage=0.02


Tree=317
num_leaves=2
num_cat=0
split_feature=184
split_gain=6.30828
threshold=0.41666666666666674
decision_type=2
left_child=-1
right_child=-2
leaf_value=-0.00058120615859286184 0.011192458656191185
leaf_count=1831 83
internal_value=0
internal_count=1914
shrinkage=0.02


Tree=318
num_leaves=2
num_cat=0
split_feature=187
split_gain=11.9376
threshold=0.36351351351351346
decision_type=2
left_child=-1
right_child=-2
leaf_value=-0.0023389101930826107 0.005249773041195757
leaf_count=1380 534
internal_value=0
internal_count=1914
shrinkage=0.02


Tree=319
num_leaves=2
num_cat=0
split_feature=53
split_gain=5.9351
threshold=1.0000000180025095e-35
decision_type=2
left_child=-1
right_child=-2
leaf_value=-0.0015881054988527144 0.0038457660706719909
leaf_count=1385 529
internal_value=0
internal_count=1914
shrinkage=0.02


Tree=320
num_leaves=2
num_cat=0
split_feature=184
split_gain=6.26964
threshold=0.19934640522875821
decision_type=2
left_child=-1
right_child=-2
leaf_value=-0.016427344339840867 0.00039064937982355013
leaf_count=76 1838
internal_value=0
internal_count=1914
shrinkage=0.02


Tree=321
num_leaves=2
num_cat=0
split_feature=187
split_gain=11.8479
threshold=0.10555555555555557
decision_type=2
left_child=-1
right_child=-2
leaf_value=-0.022461432776310245 0.00054066766238049127
leaf_count=105 1809
internal_value=0
internal_count=1914
shrinkage=0.02


Tree=322
num_leaves=2
num_cat=0
split_feature=53
split_gain=5.70943
threshold=1.0000000180025095e-35
decision_type=2
left_child=-1
right_child=-2
leaf_value=-0.0015591776043940016 0.003769914883896019
leaf_count=1385 529
internal_value=0
internal_count=1914
shrinkage=0.02


Tree=323
num_leaves=2
num_cat=0
split_feature=118
split_gain=4.92536
threshold=1.0000000180025095e-35
decision_type=2
left_child=-1
right_child=-2
leaf_value=0.0005414271591396763 -0.0093281445305410677
leaf_count=1804 110
internal_value=0
internal_count=1914
shrinkage=0.02


Tree=324
num_leaves=2
num_cat=0
split_feature=10
split_gain=6.08131
threshold=1.0000000180025095e-35
decision_type=2
left_child=-1
right_child=-2
leaf_value=0.00037966997624045459 -0.016399136816766517
leaf_count=1870 44
internal_value=0
internal_count=1914
shrinkage=0.02


Tree=325
num_leaves=2
num_cat=0
split_feature=166
split_gain=6.07219
threshold=1.0000000180025095e-35
decision_type=2
left_child=-1
right_child=-2
leaf_value=-0.0010309734697208852 0.0060692429883152437
leaf_count=1658 256
internal_value=0
internal_count=1914
shrinkage=0.02


Tree=326
num_leaves=2
num_cat=0
split_feature=10
split_gain=5.871
threshold=1.0000000180025095e-35
decision_type=2
left_child=-1
right_child=-2
leaf_value=0.0003719406314569518 -0.016162607148303133
leaf_count=1870 44
internal_value=0
internal_count=1914
shrinkage=0.02


Tree=327
num_leaves=2
num_cat=0
split_feature=184
split_gain=6.13229
threshold=0.58571428571428574
decision_type=2
left_child=-1
right_child=-2
leaf_value=-0.0003676223095379735 0.017250502620664781
leaf_count=1879 35
internal_value=0
internal_count=1914
shrinkage=0.02


Tree=328
num_leaves=2
num_cat=0
split_feature=150
split_gain=5.96231
threshold=1.0000000180025095e-35
decision_type=2
left_child=-1
right_child=-2
leaf_value=-0.00032499749487829307 0.018986040063621732
leaf_count=1883 31
internal_value=0
internal_count=1914
shrinkage=0.02


Tree=329
num_leaves=2
num_cat=0
split_feature=0
split_gain=6.1866
threshold=6.5000000000000009
decision_type=2
left_child=-1
right_child=-2
leaf_value=0.0006860156062937164 -0.0092591397883026068
leaf_count=1789 125
internal_value=0
internal_count=1914
shrinkage=0.02


Tree=330
num_leaves=2
num_cat=0
split_feature=184
split_gain=6.12205
threshold=0.15073529411764711
decision_type=2
left_child=-1
right_child=-2
leaf_value=-0.020051404102991378 0.00031247188924949135
leaf_count=60 1854
internal_value=0
internal_count=1914
shrinkage=0.02


Tree=331
num_leaves=2
num_cat=0
split_feature=187
split_gain=11.551
threshold=0.10555555555555557
decision_type=2
left_child=-1
right_child=-2
leaf_value=-0.02241010980847806 0.0005287911583040987
leaf_count=105 1809
internal_value=0
internal_count=1914
shrinkage=0.02


Tree=332
num_leaves=2
num_cat=0
split_feature=0
split_gain=6.01411
threshold=1.5000000000000002
decision_type=2
left_child=-1
right_child=-2
leaf_value=-0.0019942319297220064 0.0031058808116313529
leaf_count=1216 698
internal_value=0
internal_count=1914
shrinkage=0.02


Tree=333
num_leaves=2
num_cat=0
split_feature=0
split_gain=6.04555
threshold=6.5000000000000009
decision_type=2
left_child=-1
right_child=-2
leaf_value=0.00067766967467846608 -0.0091627297130474888
leaf_count=1789 125
internal_value=0
internal_count=1914
shrinkage=0.02


Tree=334
num_leaves=2
num_cat=0
split_feature=52
split_gain=5.95748
threshold=1.0000000180025095e-35
decision_type=2
left_child=-1
right_child=-2
leaf_value=-0.0022747765484531228 0.0026968854752134571
leaf_count=1062 852
internal_value=0
internal_count=1914
shrinkage=0.02


Tree=335
num_leaves=2
num_cat=0
split_feature=187
split_gain=11.3726
threshold=0.31116091438816679
decision_type=2
left_child=-1
right_child=-2
leaf_value=-0.0041870218426327075 0.0027962329486610087
